{"learner":{"attributes":{"best_iteration":"498","best_ntree_limit":"499","best_score":"0.21049769355660816","scikit_learn":"{\"use_label_encoder\": null, \"n_estimators\": 500, \"objective\": \"binary:logistic\", \"max_depth\": 6, \"max_leaves\": null, \"max_bin\": null, \"grow_policy\": null, \"learning_rate\": 0.05, \"verbosity\": null, \"booster\": null, \"tree_method\": \"hist\", \"gamma\": null, \"min_child_weight\": null, \"max_delta_step\": null, \"subsample\": 0.8, \"sampling_method\": null, \"colsample_bytree\": 0.8, \"colsample_bylevel\": null, \"colsample_bynode\": null, \"reg_alpha\": null, \"reg_lambda\": null, \"scale_pos_weight\": 904, \"base_score\": null, \"missing\": NaN, \"num_parallel_tree\": null, \"random_state\": 42, \"n_jobs\": -1, \"monotone_constraints\": null, \"interaction_constraints\": null, \"importance_type\": null, \"gpu_id\": null, \"validate_parameters\": null, \"predictor\": null, \"enable_categorical\": false, \"feature_types\": null, \"max_cat_to_onehot\": null, \"max_cat_threshold\": null, \"eval_metric\": \"aucpr\", \"early_stopping_rounds\": 20, \"callbacks\": null, \"classes_\": [0, 1], \"n_classes_\": 2, \"evals_result_\": {\"validation_0\": {\"aucpr\": [0.06238514610650742, 0.08676164062028374, 0.09214370339465938, 0.10224027564936326, 0.1041226407450261, 0.1025621445345163, 0.09652180802252196, 0.1091213736091864, 0.10156197560231835, 0.10128836951991267, 0.09836173358831803, 0.10208899188021045, 0.1037630621987447, 0.10494069871585422, 0.10854200221034051, 0.10536960894850517, 0.10689549269554005, 0.10982246815722256, 0.11073264739991427, 0.11248425483716697, 0.11231196323270536, 0.11335196467596462, 0.1173599970225107, 0.1150201210230913, 0.11526645849955841, 0.11716859453708924, 0.1126804062636965, 0.11590086556688066, 0.11967293530398206, 0.12045348074498675, 0.12070558794546526, 0.12217394355863873, 0.12407543685497027, 0.12719325241704174, 0.12719658550248075, 0.1277707170456988, 0.13025197788273857, 0.13222944716717183, 0.13412705938726577, 0.13605385131759162, 0.13726635886123636, 0.13805466398405988, 0.1379059318466002, 0.13929791873163044, 0.13962504958687363, 0.13955655064816028, 0.1429814251113355, 0.14361475724959902, 0.14397831188532634, 0.1440970558945215, 0.1405962184238045, 0.14096916013583266, 0.1442871867626603, 0.13991042117379396, 0.14043927384438018, 0.14228183981923648, 0.14265542864628264, 0.14337084346284945, 0.14431461239295632, 0.14164032896543394, 0.14445093006590223, 0.1463838139706146, 0.14934491127448546, 0.1478915507396453, 0.15014890043415674, 0.15004572886219186, 0.1502812930667048, 0.15079064813855936, 0.1493533582168108, 0.15211476303135585, 0.15203892224736237, 0.15335454389003167, 0.15352194010509754, 0.15333468656541488, 0.1534394693402757, 0.15497407333604277, 0.15612480476527782, 0.15709106700161266, 0.15944068089151986, 0.15962859053832168, 0.15917567240871305, 0.15802220827408184, 0.15995628721775657, 0.16038403868391524, 0.15883861710783032, 0.1594520530336454, 0.16037677026766806, 0.15941672552848912, 0.15992098942449945, 0.16002934428109036, 0.15974745435660045, 0.1599684858505221, 0.15926269040954666, 0.1603061556222513, 0.15983611834724903, 0.1600348662172499, 0.15980156838526366, 0.16115947593758917, 0.16166771992735204, 0.16146560879636415, 0.1621587134995514, 0.16305107683855796, 0.16257533338074986, 0.16209134646547962, 0.16233485614551726, 0.16354452843418696, 0.16403427922570532, 0.16417901923095188, 0.16456828529123899, 0.1654363650410586, 0.1655717249435291, 0.16652478280932065, 0.16662888546078744, 0.1671358915736033, 0.16813013304922172, 0.1681749424189218, 0.1690662252758715, 0.16944596853867125, 0.16950584819455056, 0.17017052873781388, 0.17178896318784742, 0.17228634938093765, 0.17214033260262765, 0.17178289492594184, 0.17152484190280942, 0.17133962080663495, 0.17274153307864182, 0.1727602507677385, 0.1729327082997819, 0.1718982564123333, 0.17256030816836299, 0.1727169531681358, 0.17241283149100256, 0.17156032225254567, 0.1713783852585702, 0.17205914128707062, 0.1728129384632013, 0.1730042030007513, 0.17332567242114277, 0.17301367939455856, 0.17360109760571388, 0.1735465374353887, 0.17423538696271088, 0.17456438939788763, 0.17579859280593213, 0.17627699911473366, 0.1764635658508862, 0.17718343101755973, 0.17724582964837632, 0.1776466951372166, 0.1781770812479375, 0.17749990963267556, 0.17782878043751912, 0.17850901831855417, 0.1779465696504415, 0.17818752564447737, 0.17854354808859943, 0.17850855012744976, 0.17890859898894565, 0.17983153183821737, 0.18009622949742055, 0.1797508338631481, 0.18017728251739004, 0.18039228830300666, 0.18044681407717764, 0.1806483607604911, 0.18089551523623942, 0.18100031499365382, 0.1811638341416606, 0.18172711422574586, 0.1819973360616603, 0.1820298842819538, 0.1822999032076446, 0.18215257993119302, 0.18221765342996377, 0.18261375073849911, 0.18232338503723272, 0.18243384140150304, 0.18278276784026487, 0.18300097576352545, 0.18285821747508893, 0.1835178652736505, 0.18436713044612424, 0.18466819629400816, 0.18501943652192035, 0.18515230933120094, 0.18469751534946727, 0.1846396358778546, 0.1841801671682156, 0.1848286505563796, 0.18509313190890828, 0.1850986463161546, 0.18564575828690838, 0.18550381156337592, 0.18620284283042385, 0.18617473870613654, 0.18630740110812982, 0.18691081217143596, 0.18717492308233924, 0.1877688604290592, 0.1874018571987612, 0.18770116065766482, 0.18804553533916066, 0.1880382315347322, 0.18828967786733838, 0.18825703629672252, 0.18801823959689357, 0.18852079362249904, 0.18854739476730414, 0.1892056938947897, 0.18925054954590298, 0.18943000433862578, 0.18943812665095655, 0.18995249003958464, 0.1904453272490049, 0.19018483630636668, 0.19019920432894152, 0.19032384120362772, 0.19093737775018044, 0.1907674919729231, 0.19076785383976647, 0.19084605747018657, 0.190754679101744, 0.1909848187587839, 0.19118765112499647, 0.19138556579836805, 0.1918370062434692, 0.19143879640193884, 0.19129856550162705, 0.19196242970769486, 0.19255444012327194, 0.19253920570425578, 0.1926517451171065, 0.19305529394900348, 0.1934038991485999, 0.19363211721053333, 0.19391434659578932, 0.19390361396970715, 0.19380026578987652, 0.1938336724488324, 0.19400705749194716, 0.19401375221192585, 0.19418342012106962, 0.1943754470682298, 0.19441690182472265, 0.19497583242818123, 0.19493501238933486, 0.1950575672932987, 0.1951969004692742, 0.19497967112001757, 0.19457847635478584, 0.1945757298712981, 0.19483493354930784, 0.1950698991987052, 0.19534477167373365, 0.19520760134112755, 0.1953834326375161, 0.1956692228062095, 0.1956921294205743, 0.19605966306694225, 0.19611621508835791, 0.19626743990490922, 0.196296444622715, 0.19674385029525612, 0.19676194848955175, 0.19686777533335229, 0.19663628870985658, 0.1965378638376541, 0.19655516897929468, 0.1966443946546403, 0.1964688593440513, 0.1966219183826808, 0.19662941191415342, 0.1968625272725664, 0.19668174251743445, 0.1966952879392995, 0.19675115883682007, 0.19691750601907052, 0.19719126938982334, 0.19724794482015878, 0.19749532608183026, 0.19732007297239318, 0.1969789872579914, 0.1965835804055561, 0.19658139873445815, 0.1966455302003619, 0.19678026134556148, 0.19663851288215026, 0.19661926498432805, 0.19676331995346383, 0.19686697530246985, 0.1968116574608531, 0.19711250829473484, 0.19722573191272258, 0.19725105944310742, 0.19749977929843546, 0.19752654337515027, 0.19744480311919035, 0.19756403358293143, 0.19760715521820205, 0.19778079643491012, 0.1978490861117841, 0.19790341793491548, 0.19817381870551498, 0.19784097347159404, 0.19780573805421867, 0.19774300471337364, 0.19780873488555487, 0.19773291149495842, 0.19789384225822473, 0.19783662707437627, 0.19784337069154934, 0.19809990231815872, 0.19828211162879905, 0.1984331275248984, 0.19841975663610906, 0.19849560030806448, 0.1986887241047931, 0.19874443741531475, 0.19885648669203285, 0.1988929263791524, 0.1991031615816964, 0.19936521414807543, 0.19963540393015758, 0.19935590836346512, 0.19920277373234835, 0.19916033267285294, 0.1991658954047378, 0.19936151361731266, 0.19933038853595528, 0.19954530038961485, 0.19949310856390562, 0.19934635549974045, 0.1994297961316357, 0.19922998377363027, 0.19923046530387248, 0.19921501785143653, 0.1994100683145194, 0.19943225647862753, 0.19963960358425614, 0.1995743636782768, 0.19946519070200844, 0.19940612967175594, 0.1993737535859872, 0.19938493114356678, 0.19945933309406513, 0.19949129255063547, 0.19947831068489452, 0.19959300958572135, 0.19968826826797806, 0.19998534184510638, 0.20004041542578602, 0.20012224588909902, 0.2001152680233998, 0.20027957315915063, 0.20043184985641807, 0.20053049803384768, 0.2005089349390923, 0.20067582052283034, 0.20061431317128162, 0.20094111829367164, 0.20099835277656028, 0.2011826859140347, 0.20115873796626105, 0.20121120227738568, 0.2012414396748895, 0.2011332707813805, 0.20129702203925484, 0.20139881551298025, 0.20152386832870262, 0.20139475161806525, 0.2017963419534571, 0.20178031218216655, 0.2017854606716185, 0.201781403621477, 0.20184883313855995, 0.20168084220749183, 0.20228272804873124, 0.2024294380020658, 0.20249831068790045, 0.20258032028787776, 0.20266262991977518, 0.20270611430504462, 0.20266783008425696, 0.20271639161998217, 0.20289271296682876, 0.20299325393999282, 0.20304802553428558, 0.20338504554078585, 0.20340233959598752, 0.2033862175226719, 0.20348638960718246, 0.20368308239417898, 0.2037144916063606, 0.20389263584513437, 0.2039216142225711, 0.20426526613947701, 0.20439457483831458, 0.20443457465062417, 0.20448511770154987, 0.20486640589067348, 0.2048600952641204, 0.20502204611442815, 0.20498825969934167, 0.20507364720521962, 0.20497522166083748, 0.20498120945848775, 0.20501087960098005, 0.20522053999612583, 0.20518802177184076, 0.20521270229661406, 0.20528930684678962, 0.20531936763988784, 0.20528851400790213, 0.2052860982197622, 0.20534363970650854, 0.20529505147436813, 0.20531926357168948, 0.20524277399723825, 0.20520838779962394, 0.20509690448823964, 0.20507775923731006, 0.20506393340123583, 0.20504968366581627, 0.20516219543714845, 0.20527257384783218, 0.20540924373169114, 0.20536958183508275, 0.20549808550855556, 0.2054288573773952, 0.20569117169635034, 0.20619467459606755, 0.20626659031977046, 0.20617332890604917, 0.20628592132572576, 0.20627649295020148, 0.2063104653176399, 0.20625746292824704, 0.2064414525989689, 0.20672728238654725, 0.2068442292564619, 0.2071651786873181, 0.20706283007680823, 0.20714742241849574, 0.20726934284642604, 0.20729917719267554, 0.20758647356329124, 0.20755888802333086, 0.2075100813888073, 0.20752023984057438, 0.207644908455496, 0.2077136989353013, 0.20819129465746988, 0.20833756014400812, 0.20825397644524551, 0.20830080109347446, 0.20839263492187818, 0.20837619348320208, 0.20837755523444687, 0.2085160368624435, 0.20871363363086398, 0.20872452557427337, 0.20887659928760952, 0.20884729285488235, 0.20903078470989372, 0.2090366556020607, 0.20911699486951615, 0.20911101692990303, 0.20904163917549845, 0.20922057399265864, 0.20920264751869827, 0.20912760788320986, 0.209169993324538, 0.20909804845261196, 0.20945240864953013, 0.20946785914937252, 0.20937250948983063, 0.20943801754493954, 0.20946504069542096, 0.20941145584331283, 0.2094598682093378, 0.20956511624248653, 0.2096777698887499, 0.2097881289520915, 0.20977558824993353, 0.20982059784209792, 0.2098371944155374, 0.20994324141496265, 0.20996356958091528, 0.20997408692926875, 0.20985599237069036, 0.20987784439859555, 0.2098880247792545, 0.2098258955612884, 0.21004211209330997, 0.21002832566756804, 0.21011257791814514, 0.21007396917540586, 0.21049769355660816, 0.21046880960160602]}}, \"_estimator_type\": \"classifier\"}"},"feature_names":["log_amount","is_ACH","is_Cheque","is_CC","is_Wire","is_Bitcoin","hour","is_weekend","amount_bucket","src_out_degree","src_in_degree","src_total_degree","src_degree_centrality","src_community_id","src_community_size","src_community_fraud_rate","dst_out_degree","dst_in_degree","dst_total_degree","dst_degree_centrality","dst_community_id","dst_community_size","dst_community_fraud_rate"],"feature_types":["float","float","float","float","float","float","float","float","float","float","float","float","float","float","float","float","float","float","float","float","float","float","float"],"gradient_booster":{"model":{"gbtree_model_param":{"num_parallel_tree":"1","num_trees":"500","size_leaf_vector":"0"},"tree_info":[0,0,0,0,0,0,0,0,0,0,0,0,0,0,0,0,0,0,0,0,0,0,0,0,0,0,0,0,0,0,0,0,0,0,0,0,0,0,0,0,0,0,0,0,0,0,0,0,0,0,0,0,0,0,0,0,0,0,0,0,0,0,0,0,0,0,0,0,0,0,0,0,0,0,0,0,0,0,0,0,0,0,0,0,0,0,0,0,0,0,0,0,0,0,0,0,0,0,0,0,0,0,0,0,0,0,0,0,0,0,0,0,0,0,0,0,0,0,0,0,0,0,0,0,0,0,0,0,0,0,0,0,0,0,0,0,0,0,0,0,0,0,0,0,0,0,0,0,0,0,0,0,0,0,0,0,0,0,0,0,0,0,0,0,0,0,0,0,0,0,0,0,0,0,0,0,0,0,0,0,0,0,0,0,0,0,0,0,0,0,0,0,0,0,0,0,0,0,0,0,0,0,0,0,0,0,0,0,0,0,0,0,0,0,0,0,0,0,0,0,0,0,0,0,0,0,0,0,0,0,0,0,0,0,0,0,0,0,0,0,0,0,0,0,0,0,0,0,0,0,0,0,0,0,0,0,0,0,0,0,0,0,0,0,0,0,0,0,0,0,0,0,0,0,0,0,0,0,0,0,0,0,0,0,0,0,0,0,0,0,0,0,0,0,0,0,0,0,0,0,0,0,0,0,0,0,0,0,0,0,0,0,0,0,0,0,0,0,0,0,0,0,0,0,0,0,0,0,0,0,0,0,0,0,0,0,0,0,0,0,0,0,0,0,0,0,0,0,0,0,0,0,0,0,0,0,0,0,0,0,0,0,0,0,0,0,0,0,0,0,0,0,0,0,0,0,0,0,0,0,0,0,0,0,0,0,0,0,0,0,0,0,0,0,0,0,0,0,0,0,0,0,0,0,0,0,0,0,0,0,0,0,0,0,0,0,0,0,0,0,0,0,0,0,0,0,0,0,0,0,0,0,0,0,0,0,0,0,0,0,0,0,0,0,0,0,0,0,0,0,0,0,0,0,0,0,0,0,0,0,0,0,0,0,0,0,0,0,0,0,0,0,0,0,0,0,0,0,0,0,0,0,0,0,0,0,0,0,0,0,0,0,0,0,0,0,0,0,0,0],"trees":[{"base_weights":[-1.5513678E-1,-1.5129001E0,1.4447751E0,-1.9610027E0,2.4469039E-1,-4.0411738E-1,1.6039371E0,-1.9825075E0,-1.2671502E0,1.8231851E-1,3.0813813E-1,8.296023E-1,-1.3649919E0,1.7496827E0,1.3161404E0,-1.983543E0,-1.6990956E-2,1.723356E-1,-1.8140013E0,-3.1559595E-3,2.9635057E-1,2.9857644E-1,1.1954262E0,-1.04231246E-1,1.3833394E0,1.6091135E0,-1.5272954E0,1.6045811E0,1.8269972E0,1.8654239E0,1.0813147E0,-1.9043716E0,-1.9954898E0,-6.5727E-1,1.7905759E0,-9.997826E-2,5.727141E-1,-7.4782205E-1,-1.8768833E0,-3.1177532E-2,3.856483E-1,3.0387253E-1,-9.438366E-1,-2.3295963E-1,3.0977342E-1,1.228822E0,-9.8029554E-2,1.3493696E0,-9.512708E-1,1.6449717E0,-2.152222E-1,-9.917355E-2,1.659198E0,-1.8765881E0,-1.1050429E0,1.3611542E0,1.6964575E0,1.8879923E0,1.7029481E0,1.9294813E0,1.5519775E0,-9.5058906E-1,1.2768261E0,-9.987315E-2,-7.802141E-2,-9.5164396E-2,-9.9832535E-2,-3.569526E-3,-9.97564E-2,9.8030634E-2,-9.5348835E-2,-3.6131572E-2,4.4686597E-2,-9.995245E-2,2.1591036E-2,-8.396758E-2,-9.747311E-2,-3.638073E-4,-8.120137E-2,-3.4727734E-2,2.6507273E-2,1.5356443E-2,-9.974985E-2,2.2795117E-2,-9.989773E-2,1.0935583E-2,-6.6366255E-2,9.578824E-3,1.6940331E-2,8.179105E-3,6.656304E-2,-9.915434E-2,6.856137E-2,-8.294894E-2,2.8863776E-2,4.8593864E-2,8.5052185E-2,-6.838304E-2,2.2843847E-2,8.350635E-2,-9.626168E-2,-9.927938E-2,-8.015186E-2,-9.479811E-2,-4.2817384E-2,6.270899E-2,8.481199E-2,8.7333135E-2,7.117282E-2,8.90329E-2,9.657254E-2,8.696612E-2,7.36857E-2,9.8294504E-2,9.33189E-2,1.1859776E-2,9.032064E-2,-6.5282807E-3,-6.198175E-2,8.454654E-3,6.8789884E-2],"categories":[],"categories_nodes":[],"categories_segments":[],"categories_sizes":[],"default_left":[0,0,0,0,0,0,0,0,0,0,0,0,0,0,0,0,0,0,0,0,0,0,0,0,0,0,0,0,0,0,0,0,0,0,0,0,0,0,0,0,0,0,0,0,0,0,0,0,0,0,0,0,0,0,0,0,0,0,0,0,0,0,0,0,0,0,0,0,0,0,0,0,0,0,0,0,0,0,0,0,0,0,0,0,0,0,0,0,0,0,0,0,0,0,0,0,0,0,0,0,0,0,0,0,0,0,0,0,0,0,0,0,0,0,0,0,0,0,0,0,0],"id":0,"left_children":[1,3,5,7,9,11,13,15,17,19,21,23,25,27,29,31,33,35,37,39,41,43,45,47,49,51,53,55,57,59,61,63,65,67,69,-1,71,73,75,77,79,81,83,85,87,89,-1,91,93,95,97,-1,99,101,103,105,107,109,111,113,115,117,119,-1,-1,-1,-1,-1,-1,-1,-1,-1,-1,-1,-1,-1,-1,-1,-1,-1,-1,-1,-1,-1,-1,-1,-1,-1,-1,-1,-1,-1,-1,-1,-1,-1,-1,-1,-1,-1,-1,-1,-1,-1,-1,-1,-1,-1,-1,-1,-1,-1,-1,-1,-1,-1,-1,-1,-1,-1,-1],"loss_changes":[1.7991302E7,3.528444E6,1.1188385E6,5.3266E4,3.601793E3,3.5724444E5,1.46834E5,7.048E3,8.448153E4,9.707381E3,3.8275312E3,6.822906E4,8.177891E4,2.60665E4,1.5179388E5,3.27E3,2.112757E3,2.5694693E4,5.2128906E3,1.9038834E3,2.651754E3,2.6567578E3,5.0937256E2,6.0476645E4,3.4642797E4,1.5808086E3,2.3691531E4,1.8064375E4,1.1468E4,7.073625E3,3.2750362E5,1.4526125E4,3.18E2,1.0564517E3,3.0395264E2,0E0,1.03750625E4,6.396744E3,1.0496406E3,6.2056885E3,1.8340308E3,2.115498E3,2.5295315E3,4.5526094E3,1.5001523E3,5.192295E2,0E0,1.3199609E3,3.357216E4,2.6847969E3,9.024747E3,0E0,3.4196484E2,2.6182188E3,1.4304164E4,7.9323125E3,8.035375E3,4.73725E3,4.164375E3,6.68625E2,2.0007453E4,1.7151508E4,8.2448875E4,0E0,0E0,0E0,0E0,0E0,0E0,0E0,0E0,0E0,0E0,0E0,0E0,0E0,0E0,0E0,0E0,0E0,0E0,0E0,0E0,0E0,0E0,0E0,0E0,0E0,0E0,0E0,0E0,0E0,0E0,0E0,0E0,0E0,0E0,0E0,0E0,0E0,0E0,0E0,0E0,0E0,0E0,0E0,0E0,0E0,0E0,0E0,0E0,0E0,0E0,0E0,0E0,0E0,0E0,0E0,0E0,0E0,0E0],"parents":[2147483647,0,0,1,1,2,2,3,3,4,4,5,5,6,6,7,7,8,8,9,9,10,10,11,11,12,12,13,13,14,14,15,15,16,16,17,17,18,18,19,19,20,20,21,21,22,22,23,23,24,24,25,25,26,26,27,27,28,28,29,29,30,30,31,31,32,32,33,33,34,34,36,36,37,37,38,38,39,39,40,40,41,41,42,42,43,43,44,44,45,45,47,47,48,48,49,49,50,50,52,52,53,53,54,54,55,55,56,56,57,57,58,58,59,59,60,60,61,61,62,62],"right_children":[2,4,6,8,10,12,14,16,18,20,22,24,26,28,30,32,34,36,38,40,42,44,46,48,50,52,54,56,58,60,62,64,66,68,70,-1,72,74,76,78,80,82,84,86,88,90,-1,92,94,96,98,-1,100,102,104,106,108,110,112,114,116,118,120,-1,-1,-1,-1,-1,-1,-1,-1,-1,-1,-1,-1,-1,-1,-1,-1,-1,-1,-1,-1,-1,-1,-1,-1,-1,-1,-1,-1,-1,-1,-1,-1,-1,-1,-1,-1,-1,-1,-1,-1,-1,-1,-1,-1,-1,-1,-1,-1,-1,-1,-1,-1,-1,-1,-1,-1,-1,-1],"split_conditions":[1E0,5.5671E4,6.314707E0,1E0,1E0,3.2E1,3.6E1,1.076979E6,1.2E1,1E0,1.7676723E1,1E0,2.4E1,8.431624E0,3.2E1,9E0,7.825293E0,1E0,1.6E1,1.57E2,2.31E2,3.7609675E0,1.54E2,3E0,2.4E1,3.9630964E0,4.9264565E0,1E0,9.90274E0,2.4E1,1E0,1E0,1.2E1,5.583421E0,7.912416E0,-9.997826E-2,5.447398E-2,2.6E1,5.1E1,1.4E2,8.787E4,1.437346E1,5.162326E0,6.2E1,5.85E2,3.2E1,-9.8029554E-2,2E0,4E0,4.5823107E0,2.5E1,-9.917355E-2,6.2829394E0,4.3075724E0,1E0,5E0,2.4E1,2E0,2.4E1,8E0,1E0,1.8E1,7.3964458E0,-9.987315E-2,-7.802141E-2,-9.5164396E-2,-9.9832535E-2,-3.569526E-3,-9.97564E-2,9.8030634E-2,-9.5348835E-2,-3.6131572E-2,4.4686597E-2,-9.995245E-2,2.1591036E-2,-8.396758E-2,-9.747311E-2,-3.638073E-4,-8.120137E-2,-3.4727734E-2,2.6507273E-2,1.5356443E-2,-9.974985E-2,2.2795117E-2,-9.989773E-2,1.0935583E-2,-6.6366255E-2,9.578824E-3,1.6940331E-2,8.179105E-3,6.656304E-2,-9.915434E-2,6.856137E-2,-8.294894E-2,2.8863776E-2,4.8593864E-2,8.5052185E-2,-6.838304E-2,2.2843847E-2,8.350635E-2,-9.626168E-2,-9.927938E-2,-8.015186E-2,-9.479811E-2,-4.2817384E-2,6.270899E-2,8.481199E-2,8.7333135E-2,7.117282E-2,8.90329E-2,9.657254E-2,8.696612E-2,7.36857E-2,9.8294504E-2,9.33189E-2,1.1859776E-2,9.032064E-2,-6.5282807E-3,-6.198175E-2,8.454654E-3,6.8789884E-2],"split_indices":[1,11,0,5,2,9,9,16,9,3,0,10,18,0,18,9,0,9,18,18,18,0,18,9,9,0,0,10,0,18,16,2,18,0,0,0,0,9,11,18,9,0,0,18,10,18,0,18,9,0,9,0,0,0,16,9,9,16,9,18,16,10,0,0,0,0,0,0,0,0,0,0,0,0,0,0,0,0,0,0,0,0,0,0,0,0,0,0,0,0,0,0,0,0,0,0,0,0,0,0,0,0,0,0,0,0,0,0,0,0,0,0,0,0,0,0,0,0,0,0,0],"split_type":[0,0,0,0,0,0,0,0,0,0,0,0,0,0,0,0,0,0,0,0,0,0,0,0,0,0,0,0,0,0,0,0,0,0,0,0,0,0,0,0,0,0,0,0,0,0,0,0,0,0,0,0,0,0,0,0,0,0,0,0,0,0,0,0,0,0,0,0,0,0,0,0,0,0,0,0,0,0,0,0,0,0,0,0,0,0,0,0,0,0,0,0,0,0,0,0,0,0,0,0,0,0,0,0,0,0,0,0,0,0,0,0,0,0,0,0,0,0,0,0,0],"sum_hessian":[8.282136E6,4.4801025E6,3.8020335E6,3.569937E6,9.101655E5,3.0135575E5,3.5006778E6,3.4626172E6,1.0731975E5,4.58976E5,4.511895E5,1.3194475E5,1.69411E5,2.3238378E6,1.17684E6,3.4607938E6,1.8235E3,2.9546E4,7.777375E4,1.7474775E5,2.8422825E5,4.463805E5,4.809E3,4.911575E4,8.2829E4,8.76625E3,1.6064475E5,8.078005E5,1.5160372E6,3.52439E5,8.24401E5,4.5377625E5,3.0070175E6,1.347E3,4.765E2,4.59825E3,2.494775E4,4.33225E3,7.34415E4,1.63001E5,1.174675E4,2.825155E5,1.71275E3,9.20875E3,4.3717175E5,4.75925E3,4.975E1,1.8083E4,3.103275E4,7.117925E4,1.164975E4,1.2E2,8.64625E3,8.7916E4,7.272875E4,2.2134975E5,5.8645075E5,1.016304E6,4.9973325E5,2.926305E5,5.98085E4,7.23615E4,7.520395E5,3.57115E5,9.666125E4,3.7409E4,2.9696085E6,9.375E2,4.095E2,4.56E2,2.05E1,4.9545E3,1.999325E4,2.102E3,2.23025E3,1.974025E4,5.370125E4,1.6059225E5,2.40875E3,1.3855E3,1.036125E4,2.8211675E5,3.9875E2,7.36E2,9.7675E2,6.519E3,2.68975E3,8.621E4,3.5096175E5,4.1775E2,4.3415E3,1.1725E2,1.796575E4,2.121175E4,9.821E3,5.475E3,6.570425E4,4.291E3,7.35875E3,8.6205E3,2.575E1,6.286175E4,2.505425E4,1.73965E4,5.533225E4,1.6778875E5,5.3561E4,4.9535025E5,9.11005E4,2.929115E5,7.233925E5,4.312905E5,6.844275E4,1.8554575E5,1.0708475E5,9.69775E3,5.011075E4,1.885925E4,5.350225E4,6.1681E4,6.903585E5],"tree_param":{"num_deleted":"0","num_feature":"23","num_nodes":"121","size_leaf_vector":"0"}},{"base_weights":[-1.4718337E-1,-1.4384828E0,1.3749484E0,-1.8672676E0,2.3599786E-1,-4.8767877E-1,1.5209014E0,-1.887052E0,-1.2243419E0,-1.316798E-1,2.443781E-1,7.392641E-1,-1.4047675E0,1.7170303E0,1.3091325E0,-1.8883065E0,-5.5208015E-1,9.339576E-2,-1.7043914E0,1.17624305E-1,-1.1174268E0,1.9589867E-1,2.9191676E-1,1.5678189E0,3.4561043E-3,5.02106E-1,-1.652363E0,-1.036492E-1,1.7240566E0,1.6416459E0,8.965144E-1,-1.8092271E0,-1.9002192E0,3.9557132E-1,-1.4054524E0,-9.522209E-2,4.7827986E-1,-8.6463946E-1,-1.7512468E0,-9.9637836E-2,1.6816539E-1,-1.3477546E-1,-9.976279E-2,-8.016106E-3,3.0697495E-1,2.668685E-1,5.340345E-1,1.2750336E0,1.6830837E0,-1.0216954E0,8.465626E-1,-4.587922E-1,1.5749109E0,-1.8263087E0,-1.2043196E0,1.5384567E0,1.7665237E0,1.418821E0,1.7951988E0,-6.634984E-1,1.1185489E0,-9.212153E-2,7.848284E-2,-8.927151E-2,-9.514197E-2,-9.702573E-2,3.693085E-2,-9.6271075E-2,4.4385012E-2,-8.117893E-2,3.5264056E-2,-8.102443E-2,3.6477383E-2,-7.708816E-2,-9.194464E-2,-2.8104081E-3,2.883924E-2,-5.704663E-2,5.3081907E-2,1.047837E-2,-4.825882E-3,2.2862708E-2,1.2919098E-2,1.1463641E-2,2.227668E-2,-4.9727E-2,3.0152613E-2,-9.876862E-2,6.5910205E-2,-1.01650834E-1,8.472412E-2,-7.803437E-2,1.596086E-2,6.790362E-2,-1.2546877E-2,8.262241E-2,-7.558849E-2,-9.642591E-2,8.269302E-2,-9.489372E-2,-7.881325E-2,8.122579E-3,-6.864093E-2,6.954682E-2,9.0098664E-2,9.166557E-2,8.582335E-2,7.657068E-2,5.97005E-2,9.1566294E-2,7.8482814E-2,7.747573E-3,-4.980635E-2,-2.5531438E-3,6.238556E-2],"categories":[],"categories_nodes":[],"categories_segments":[],"categories_sizes":[],"default_left":[0,0,0,0,0,0,0,0,0,0,0,0,0,0,0,0,0,0,0,0,0,0,0,0,0,0,0,0,0,0,0,0,0,0,0,0,0,0,0,0,0,0,0,0,0,0,0,0,0,0,0,0,0,0,0,0,0,0,0,0,0,0,0,0,0,0,0,0,0,0,0,0,0,0,0,0,0,0,0,0,0,0,0,0,0,0,0,0,0,0,0,0,0,0,0,0,0,0,0,0,0,0,0,0,0,0,0,0,0,0,0,0,0,0,0],"id":1,"left_children":[1,3,5,7,9,11,13,15,17,19,21,23,25,27,29,31,33,35,37,39,41,43,45,47,49,51,53,-1,55,57,59,61,63,65,67,-1,69,71,73,-1,75,77,-1,79,81,83,85,87,89,91,93,95,97,99,101,103,105,107,109,111,113,-1,-1,-1,-1,-1,-1,-1,-1,-1,-1,-1,-1,-1,-1,-1,-1,-1,-1,-1,-1,-1,-1,-1,-1,-1,-1,-1,-1,-1,-1,-1,-1,-1,-1,-1,-1,-1,-1,-1,-1,-1,-1,-1,-1,-1,-1,-1,-1,-1,-1,-1,-1,-1,-1],"loss_changes":[1.6251357E7,3.211782E6,1.0316695E6,4.5297E4,2.8099688E3,3.102869E5,1.461625E5,5.785E3,6.725722E4,4.99453E3,2.054832E3,7.1910875E4,7.450575E4,4.86575E4,2.3215775E5,3.249E3,2.6248137E3,2.1831992E4,3.064875E3,1.730544E3,3.538502E3,9.998889E3,2.730039E3,1.8701875E3,5.399792E4,1.8696324E4,1.0883E4,0E0,1.4371E4,3.205775E4,2.61551E5,5.070475E4,8.98E2,1.234253E3,2.0378835E3,0E0,1.1359572E4,4.966244E3,1.3523438E3,0E0,1.4525815E3,2.3326047E3,0E0,2.9976926E3,2.0867969E3,2.740287E3,4.4532754E3,2.2022773E3,1.6895234E3,2.0377254E4,1.9245266E4,2.1272445E4,2.3733887E3,1.7973438E3,8.996434E3,1.31983125E4,4.959E3,9.6744375E3,4.51725E3,2.5613254E4,9.986056E4,0E0,0E0,0E0,0E0,0E0,0E0,0E0,0E0,0E0,0E0,0E0,0E0,0E0,0E0,0E0,0E0,0E0,0E0,0E0,0E0,0E0,0E0,0E0,0E0,0E0,0E0,0E0,0E0,0E0,0E0,0E0,0E0,0E0,0E0,0E0,0E0,0E0,0E0,0E0,0E0,0E0,0E0,0E0,0E0,0E0,0E0,0E0,0E0,0E0,0E0,0E0,0E0,0E0,0E0],"parents":[2147483647,0,0,1,1,2,2,3,3,4,4,5,5,6,6,7,7,8,8,9,9,10,10,11,11,12,12,13,13,14,14,15,15,16,16,17,17,18,18,19,19,20,20,21,21,22,22,23,23,24,24,25,25,26,26,28,28,29,29,30,30,31,31,32,32,33,33,34,34,36,36,37,37,38,38,40,40,41,41,43,43,44,44,45,45,46,46,47,47,48,48,49,49,50,50,51,51,52,52,53,53,54,54,55,55,56,56,57,57,58,58,59,59,60,60],"right_children":[2,4,6,8,10,12,14,16,18,20,22,24,26,28,30,32,34,36,38,40,42,44,46,48,50,52,54,-1,56,58,60,62,64,66,68,-1,70,72,74,-1,76,78,-1,80,82,84,86,88,90,92,94,96,98,100,102,104,106,108,110,112,114,-1,-1,-1,-1,-1,-1,-1,-1,-1,-1,-1,-1,-1,-1,-1,-1,-1,-1,-1,-1,-1,-1,-1,-1,-1,-1,-1,-1,-1,-1,-1,-1,-1,-1,-1,-1,-1,-1,-1,-1,-1,-1,-1,-1,-1,-1,-1,-1,-1,-1,-1,-1,-1,-1],"split_conditions":[1E0,1.54E2,6.189044E0,1E0,1.5195132E0,3.2E1,2.4E1,5.5E2,1.2E1,5E1,1E0,3E0,2.3E1,1E0,3.2E1,9E0,7E0,1E0,1.6E1,1E0,6.2E1,1E0,6.2E1,1E0,1E0,2.4E1,5.358377E0,-1.036492E-1,1E0,5E0,1E0,1E0,9E0,5.09614E0,2.3E1,-9.522209E-2,2E0,1.4E1,3.6E1,-9.9637836E-2,6.9E1,5.9E1,-9.976279E-2,5.4230537E0,5.2940083E0,1E2,4.745019E0,3E0,4.2023015E0,4E0,2.4E1,2.5E1,4.3564525E0,4.8202815E0,3.6E1,5E0,9E0,4.4E1,2.4E1,1.8E1,7.4814034E0,-9.212153E-2,7.848284E-2,-8.927151E-2,-9.514197E-2,-9.702573E-2,3.693085E-2,-9.6271075E-2,4.4385012E-2,-8.117893E-2,3.5264056E-2,-8.102443E-2,3.6477383E-2,-7.708816E-2,-9.194464E-2,-2.8104081E-3,2.883924E-2,-5.704663E-2,5.3081907E-2,1.047837E-2,-4.825882E-3,2.2862708E-2,1.2919098E-2,1.1463641E-2,2.227668E-2,-4.9727E-2,3.0152613E-2,-9.876862E-2,6.5910205E-2,-1.01650834E-1,8.472412E-2,-7.803437E-2,1.596086E-2,6.790362E-2,-1.2546877E-2,8.262241E-2,-7.558849E-2,-9.642591E-2,8.269302E-2,-9.489372E-2,-7.881325E-2,8.122579E-3,-6.864093E-2,6.954682E-2,9.0098664E-2,9.166557E-2,8.582335E-2,7.657068E-2,5.97005E-2,9.1566294E-2,7.8482814E-2,7.747573E-3,-4.980635E-2,-2.5531438E-3,6.238556E-2],"split_indices":[1,10,0,5,0,9,17,17,9,17,2,9,17,17,9,9,6,9,18,6,18,3,17,10,10,10,0,0,10,16,16,7,17,0,6,0,17,18,9,0,18,17,0,0,0,18,0,18,0,9,9,16,0,0,9,9,18,17,9,10,0,0,0,0,0,0,0,0,0,0,0,0,0,0,0,0,0,0,0,0,0,0,0,0,0,0,0,0,0,0,0,0,0,0,0,0,0,0,0,0,0,0,0,0,0,0,0,0,0,0,0,0,0,0,0],"split_type":[0,0,0,0,0,0,0,0,0,0,0,0,0,0,0,0,0,0,0,0,0,0,0,0,0,0,0,0,0,0,0,0,0,0,0,0,0,0,0,0,0,0,0,0,0,0,0,0,0,0,0,0,0,0,0,0,0,0,0,0,0,0,0,0,0,0,0,0,0,0,0,0,0,0,0,0,0,0,0,0,0,0,0,0,0,0,0,0,0,0,0,0,0,0,0,0,0,0,0,0,0,0,0,0,0,0,0,0,0,0,0,0,0,0,0],"sum_hessian":[8.2681875E6,4.473282E6,3.7949055E6,3.5613305E6,9.119514E5,2.7575584E5,3.5191498E6,3.4550098E6,1.0632092E5,2.0322025E4,8.916293E5,1.1795197E5,1.5780388E5,1.8270391E6,1.6921105E6,3.4517658E6,3.2440347E3,2.839029E4,7.793063E4,1.6220579E4,4.1014473E3,4.4144906E5,4.5018025E5,5.547893E4,6.247304E4,1.813499E4,1.3966889E5,3.380378E3,1.8236588E6,9.370078E5,7.5510275E5,4.5192634E5,2.9998392E6,1.5373628E3,1.706672E3,4.585282E3,2.3805008E4,4.1195034E3,7.3811125E4,3.7847888E2,1.58421E4,1.935727E3,2.16572E3,1.5566989E5,2.857792E5,4.079753E5,4.220492E4,1.5674936E4,3.9803992E4,2.8192705E4,3.4280336E4,9.566746E3,8.568244E3,1.0060679E5,3.9062098E4,3.395799E5,1.4840789E6,3.8228028E5,5.547275E5,9.408188E4,6.610209E5,4.4752906E5,4.3972886E3,6.69636E4,2.9328758E6,1.9625322E2,1.3411096E3,1.3913464E3,3.1532547E2,2.3197483E3,2.148526E4,2.7945242E3,1.3249792E3,2.1777965E4,5.2033164E4,1.0227194E4,5.614906E3,1.0514921E3,8.84235E2,4.501005E4,1.10659836E5,6.982602E4,2.1595317E5,3.3705306E5,7.092225E4,1.8227213E3,4.0382203E4,2.0487238E2,1.54700625E4,1.2117845E2,3.9682816E4,2.0109389E4,8.083316E3,2.3382338E4,1.0897998E4,3.183399E3,6.3833467E3,1.8831306E2,8.379932E3,7.821434E4,2.2392447E4,4.2871455E3,3.477495E4,2.1770934E5,1.2187056E5,6.3577056E5,8.483083E5,2.5470833E5,1.2757197E5,4.7813375E5,7.659375E4,2.7187111E4,6.689477E4,6.573821E4,5.952827E5],"tree_param":{"num_deleted":"0","num_feature":"23","num_nodes":"115","size_leaf_vector":"0"}},{"base_weights":[-1.4182147E-1,-1.3699955E0,1.3113416E0,-1.7835064E0,2.29928E-1,-3.6960644E-1,1.4563396E0,-1.8059298E0,-1.0777904E0,1.6797706E-1,2.9253516E-1,7.706113E-1,-1.2626458E0,1.6487422E0,1.2657372E0,-1.8068922E0,-7.119142E-1,2.5280887E-1,-1.6075089E0,-3.4966122E-2,2.8900862E-1,-5.9761196E-1,3.0019063E-1,-9.562419E-2,1.2829914E0,5.938466E-1,-1.5283188E0,-9.845727E-2,1.6557679E0,1.564116E0,8.884895E-1,-1.7341034E0,-1.8178529E0,-1.455388E0,1.105325E0,-9.111352E-2,6.105242E-1,-5.380343E-1,-1.6739465E0,-7.9779975E-2,2.5715703E-1,2.9613966E-1,-9.09513E-1,1.9002895E-1,-9.759134E-2,2.9299125E-1,1.0392616E0,1.2641999E0,-9.718574E-1,1.4996401E0,-7.4454E-2,1.504579E0,-3.4726006E-1,-1.7702827E0,-1.2481482E0,1.4753299E0,1.699559E0,1.3454405E0,1.7172042E0,-5.4642093E-1,1.0921096E0,-8.839889E-2,7.5489804E-2,-8.53586E-2,-9.101903E-2,-4.2773988E-2,-9.3551494E-2,7.331316E-2,-9.2037834E-2,-9.761865E-2,3.8715255E-2,-9.231589E-2,2.9077454E-2,2.1474455E-2,-8.426837E-2,4.211133E-3,-1.0911716E-2,1.5591862E-2,-3.180998E-2,1.4961779E-2,-9.560261E-2,2.058406E-2,-9.574739E-2,-3.169278E-2,5.622977E-2,7.407767E-3,1.6174354E-2,1.3908713E-2,6.023694E-2,-2.2450741E-2,6.5808676E-2,-7.5853676E-2,1.7714292E-2,7.751326E-2,4.7905546E-2,6.619536E-2,-3.8962834E-2,-9.885508E-2,8.0078326E-2,-5.7053983E-2,7.9947114E-2,-4.460777E-2,-9.018243E-2,-8.7836124E-2,-5.282269E-2,5.855422E-2,7.819264E-2,8.8830054E-2,8.3236665E-2,5.635197E-2,7.21616E-2,8.746358E-2,7.6312736E-2,1.6854998E-2,-4.16192E-2,5.6951954E-3,5.9702523E-2],"categories":[],"categories_nodes":[],"categories_segments":[],"categories_sizes":[],"default_left":[0,0,0,0,0,0,0,0,0,0,0,0,0,0,0,0,0,0,0,0,0,0,0,0,0,0,0,0,0,0,0,0,0,0,0,0,0,0,0,0,0,0,0,0,0,0,0,0,0,0,0,0,0,0,0,0,0,0,0,0,0,0,0,0,0,0,0,0,0,0,0,0,0,0,0,0,0,0,0,0,0,0,0,0,0,0,0,0,0,0,0,0,0,0,0,0,0,0,0,0,0,0,0,0,0,0,0,0,0,0,0,0,0,0,0,0,0],"id":2,"left_children":[1,3,5,7,9,11,13,15,17,19,21,23,25,27,29,31,33,35,37,39,41,43,45,47,49,51,53,-1,55,57,59,61,63,65,67,-1,69,71,73,75,77,79,81,83,-1,85,87,89,91,93,95,97,99,101,103,105,107,109,111,113,115,-1,-1,-1,-1,-1,-1,-1,-1,-1,-1,-1,-1,-1,-1,-1,-1,-1,-1,-1,-1,-1,-1,-1,-1,-1,-1,-1,-1,-1,-1,-1,-1,-1,-1,-1,-1,-1,-1,-1,-1,-1,-1,-1,-1,-1,-1,-1,-1,-1,-1,-1,-1,-1,-1,-1,-1],"loss_changes":[1.466776E7,2.94672E6,9.17518E5,5.6005E4,3.547875E3,3.043919E5,1.270855E5,3.611E3,7.682533E4,1.1293543E4,3.1005312E3,5.827508E4,8.268272E4,4.3839E4,1.9595825E5,2.731E3,4.0773774E3,2.30395E4,5.5384062E3,2.248685E3,2.461873E3,4.138669E3,2.3998516E3,5.8146367E4,2.4262016E4,1.798849E4,9.9394375E3,0E0,1.35975E4,3.253875E4,2.2463694E5,4.9293E4,8.29E2,5.323174E2,9.346564E2,0E0,1.1114112E4,6.682031E3,1.764E3,3.381627E3,1.1162119E3,1.9579531E3,2.264044E3,1.8901879E3,0E0,1.9731289E3,5.4767725E2,1.7033457E3,2.145799E4,1.9489531E3,1.1192714E4,3.6048164E3,1.5949011E4,2.3039062E3,6.6239375E3,9.052E3,3.71375E3,8.547625E3,3.4985E3,2.4139906E4,6.714031E4,0E0,0E0,0E0,0E0,0E0,0E0,0E0,0E0,0E0,0E0,0E0,0E0,0E0,0E0,0E0,0E0,0E0,0E0,0E0,0E0,0E0,0E0,0E0,0E0,0E0,0E0,0E0,0E0,0E0,0E0,0E0,0E0,0E0,0E0,0E0,0E0,0E0,0E0,0E0,0E0,0E0,0E0,0E0,0E0,0E0,0E0,0E0,0E0,0E0,0E0,0E0,0E0,0E0,0E0,0E0,0E0],"parents":[2147483647,0,0,1,1,2,2,3,3,4,4,5,5,6,6,7,7,8,8,9,9,10,10,11,11,12,12,13,13,14,14,15,15,16,16,17,17,18,18,19,19,20,20,21,21,22,22,23,23,24,24,25,25,26,26,28,28,29,29,30,30,31,31,32,32,33,33,34,34,36,36,37,37,38,38,39,39,40,40,41,41,42,42,43,43,45,45,46,46,47,47,48,48,49,49,50,50,51,51,52,52,53,53,54,54,55,55,56,56,57,57,58,58,59,59,60,60],"right_children":[2,4,6,8,10,12,14,16,18,20,22,24,26,28,30,32,34,36,38,40,42,44,46,48,50,52,54,-1,56,58,60,62,64,66,68,-1,70,72,74,76,78,80,82,84,-1,86,88,90,92,94,96,98,100,102,104,106,108,110,112,114,116,-1,-1,-1,-1,-1,-1,-1,-1,-1,-1,-1,-1,-1,-1,-1,-1,-1,-1,-1,-1,-1,-1,-1,-1,-1,-1,-1,-1,-1,-1,-1,-1,-1,-1,-1,-1,-1,-1,-1,-1,-1,-1,-1,-1,-1,-1,-1,-1,-1,-1,-1,-1,-1,-1,-1,-1],"split_conditions":[1E0,5.5671E4,6.314707E0,1E0,1E0,3E1,2.1E1,5.5E2,1.2E1,1E0,3.189653E0,1E0,2.3E1,1E0,3.2E1,9E0,7.825293E0,1E0,9.098291E-6,7.4E1,1.3135657E-4,2.9569446E-5,1.7676723E1,3E0,2.4E1,3E1,4.8202815E0,-9.845727E-2,5E0,5E0,1E0,1E0,9E0,5.1286554E0,8.873031E0,-9.111352E-2,6.814727E-3,2.6E1,1.5E1,1E0,7.2E1,1.437346E1,5.162326E0,2.3883014E-5,-9.759134E-2,1.8765226E-5,3.2E1,2E0,4E0,1.4E1,2.3E1,4.8202815E0,2.6E1,4.4E1,1E0,7.971179E0,3.411859E-6,1E0,2.4E1,1E1,7.453539E0,-8.839889E-2,7.5489804E-2,-8.53586E-2,-9.101903E-2,-4.2773988E-2,-9.3551494E-2,7.331316E-2,-9.2037834E-2,-9.761865E-2,3.8715255E-2,-9.231589E-2,2.9077454E-2,2.1474455E-2,-8.426837E-2,4.211133E-3,-1.0911716E-2,1.5591862E-2,-3.180998E-2,1.4961779E-2,-9.560261E-2,2.058406E-2,-9.574739E-2,-3.169278E-2,5.622977E-2,7.407767E-3,1.6174354E-2,1.3908713E-2,6.023694E-2,-2.2450741E-2,6.5808676E-2,-7.5853676E-2,1.7714292E-2,7.751326E-2,4.7905546E-2,6.619536E-2,-3.8962834E-2,-9.885508E-2,8.0078326E-2,-5.7053983E-2,7.9947114E-2,-4.460777E-2,-9.018243E-2,-8.7836124E-2,-5.282269E-2,5.855422E-2,7.819264E-2,8.8830054E-2,8.3236665E-2,5.635197E-2,7.21616E-2,8.746358E-2,7.6312736E-2,1.6854998E-2,-4.16192E-2,5.6951954E-3,5.9702523E-2],"split_indices":[1,11,0,5,2,9,17,17,9,3,0,10,17,17,9,9,0,9,19,16,19,19,0,9,9,16,0,0,11,16,16,7,17,0,0,0,0,9,11,16,17,0,0,19,0,19,17,17,9,9,17,0,10,11,16,0,19,10,9,10,0,0,0,0,0,0,0,0,0,0,0,0,0,0,0,0,0,0,0,0,0,0,0,0,0,0,0,0,0,0,0,0,0,0,0,0,0,0,0,0,0,0,0,0,0,0,0,0,0,0,0,0,0,0,0,0,0],"split_type":[0,0,0,0,0,0,0,0,0,0,0,0,0,0,0,0,0,0,0,0,0,0,0,0,0,0,0,0,0,0,0,0,0,0,0,0,0,0,0,0,0,0,0,0,0,0,0,0,0,0,0,0,0,0,0,0,0,0,0,0,0,0,0,0,0,0,0,0,0,0,0,0,0,0,0,0,0,0,0,0,0,0,0,0,0,0,0,0,0,0,0,0,0,0,0,0,0,0,0,0,0,0,0,0,0,0,0,0,0,0,0,0,0,0,0,0,0],"sum_hessian":[8.2184415E6,4.4540225E6,3.7644188E6,3.5392732E6,9.147492E5,2.9893156E5,3.4654872E6,3.4302785E6,1.0899479E5,4.5978606E5,4.5496312E5,1.3129564E5,1.6763592E5,1.7245956E6,1.7408916E6,3.4272628E6,3.015698E3,3.1036006E4,7.795878E4,1.7176867E5,2.880174E5,3.87877E3,4.5108434E5,4.8798004E4,8.249763E4,2.0986104E4,1.4664983E5,3.3420002E3,1.7212536E6,9.7205494E5,7.688367E5,4.4856234E5,2.9787005E6,2.1402659E3,8.754322E2,4.562897E3,2.647311E4,4.560213E3,7.339857E4,1.4892344E5,2.2845229E4,2.8631462E5,1.7027782E3,2.4529438E3,1.4258262E3,4.4673406E5,4.3502847E3,1.912207E4,2.9675934E4,7.114308E4,1.135456E4,1.0664857E4,1.0321246E4,7.86875E4,6.796232E4,3.3616094E5,1.3850928E6,4.0028562E5,5.717693E5,9.554307E4,6.7329356E5,4.439271E5,4.6352476E3,6.652085E4,2.9121798E6,8.772146E2,1.2630511E3,7.8033234E2,9.509986E1,1.58948E3,2.4883629E4,2.1025913E3,2.4576216E3,3.9617535E2,7.30024E4,6.817218E4,8.075126E4,2.1528191E4,1.3170376E3,2.8591462E5,3.9999557E2,7.3609766E2,9.666805E2,1.3038406E3,1.1491033E3,7.7702375E4,3.690317E5,7.774057E2,3.572879E3,5.627989E2,1.8559271E4,2.1029818E4,8.646115E3,6.505912E4,6.083954E3,3.8047935E3,7.5497656E3,2.8850937E2,1.0376348E4,7.331342E3,2.989904E3,2.881421E3,7.580608E4,1.860205E4,4.9360273E4,7.576777E4,2.6039316E5,4.3117862E5,9.5391406E5,1.23803375E5,2.7648225E5,4.8954816E5,8.222112E4,2.3362219E4,7.218085E4,6.354357E4,6.0975E5],"tree_param":{"num_deleted":"0","num_feature":"23","num_nodes":"117","size_leaf_vector":"0"}},{"base_weights":[-1.331678E-1,-1.3167697E0,1.2576716E0,-1.7149019E0,2.1262366E-1,-3.5772628E-1,1.3963155E0,-1.0877708E0,-1.7319938E0,1.840647E-1,2.7440733E-1,5.9399503E-1,-1.1050372E0,1.4913902E0,1.1435213E0,-1.6387131E0,-4.9328998E-1,-1.7329446E0,6.607526E-2,-2.6690328E-2,1.9905683E-1,2.7727458E-1,-9.142819E-2,-2.589851E-1,1.158596E0,1.4661384E0,-1.2999612E0,1.3159995E0,1.5530645E0,1.6677668E0,9.5339805E-1,-9.3195856E-1,-1.6684957E0,3.3871195E-1,-1.3704108E0,-1.6589848E0,-1.7407966E0,-5.0948423E-1,1.6862642E0,1.895235E-1,-3.260046E-1,9.4597735E-2,2.208524E-1,4.3779615E-1,2.4272709E-1,1.1070124E0,-8.859398E-1,-2.2192056E-1,1.2927631E0,-9.3577996E-2,1.5162306E0,-1.6689316E0,-8.8355607E-1,1.0769497E0,1.4012058E0,1.6158334E0,1.4068038E0,1.7010573E0,1.3364525E0,-8.81163E-1,1.1194586E0,-8.997974E-2,8.36987E-2,-7.619744E-2,-8.695638E-2,-8.819685E-2,2.7476205E-2,4.286831E-2,-7.535046E-2,-8.67571E-2,-6.974579E-2,-6.84941E-2,-8.7309144E-2,-5.0148875E-2,7.446585E-2,9.1436684E-2,-9.103666E-2,1.3408667E-2,-9.908029E-2,-9.8950826E-2,-9.552007E-3,-3.7624218E-2,6.9380486E-3,1.875666E-2,1.0150277E-2,4.0568527E-2,1.42186275E-2,7.26814E-4,1.4958749E-2,1.1720408E-2,6.094367E-2,-7.060028E-2,-5.87118E-3,-4.2718563E-2,5.9434105E-2,7.1082115E-2,2.9502204E-2,-1.0950225E-1,7.665417E-2,-8.6631216E-2,-6.95673E-2,-8.218872E-2,-2.791827E-2,4.8756287E-2,6.6146925E-2,7.4374184E-2,5.5325862E-2,7.515205E-2,8.338456E-2,3.1693503E-2,7.170131E-2,7.359778E-2,8.542347E-2,2.9834513E-2,8.37193E-2,-7.8690775E-2,-3.229415E-2,1.208305E-2,6.088363E-2],"categories":[],"categories_nodes":[],"categories_segments":[],"categories_sizes":[],"default_left":[0,0,0,0,0,0,0,0,0,0,0,0,0,0,0,0,0,0,0,0,0,0,0,0,0,0,0,0,0,0,0,0,0,0,0,0,0,0,0,0,0,0,0,0,0,0,0,0,0,0,0,0,0,0,0,0,0,0,0,0,0,0,0,0,0,0,0,0,0,0,0,0,0,0,0,0,0,0,0,0,0,0,0,0,0,0,0,0,0,0,0,0,0,0,0,0,0,0,0,0,0,0,0,0,0,0,0,0,0,0,0,0,0,0,0,0,0,0,0],"id":3,"left_children":[1,3,5,7,9,11,13,15,17,19,21,23,25,27,29,31,33,35,37,39,41,43,-1,45,47,49,51,53,55,57,59,61,63,65,67,69,71,73,75,77,79,81,83,85,87,89,91,93,95,-1,97,99,101,103,105,107,109,111,113,115,117,-1,-1,-1,-1,-1,-1,-1,-1,-1,-1,-1,-1,-1,-1,-1,-1,-1,-1,-1,-1,-1,-1,-1,-1,-1,-1,-1,-1,-1,-1,-1,-1,-1,-1,-1,-1,-1,-1,-1,-1,-1,-1,-1,-1,-1,-1,-1,-1,-1,-1,-1,-1,-1,-1,-1,-1,-1,-1],"loss_changes":[1.3439268E7,2.6855515E6,8.406125E5,3.7508E4,1.607375E3,2.1100367E5,8.30765E4,3.0409312E4,5.825E3,1.9685215E3,1.7369434E3,6.2843746E4,8.329019E4,2.71695E4,9.4160625E4,1.01275E3,3.2592531E4,1.974E3,1.6806876E3,2.6777449E3,1.3242246E3,1.594748E3,0E0,4.4511844E4,1.4543453E4,1.9608672E3,2.3731906E4,1.3309375E4,1.70595E4,2.770875E3,2.1121312E5,4.4137695E3,4.6942188E2,1.0160926E4,6.617375E3,6.569875E3,6.147E3,1.3133726E3,2.3937036E2,4.102745E3,3.8711648E3,3.7564717E3,1.3249531E3,2.9189268E3,3.0483506E3,1.5956934E3,1.4402164E4,6.206567E3,6.480375E3,0E0,7.240703E2,1.4455938E3,1.7940441E4,4.3000938E3,1.2247625E4,7.60375E3,1.174125E4,3.854375E2,5.739199E3,9.37734E3,5.480925E4,0E0,0E0,0E0,0E0,0E0,0E0,0E0,0E0,0E0,0E0,0E0,0E0,0E0,0E0,0E0,0E0,0E0,0E0,0E0,0E0,0E0,0E0,0E0,0E0,0E0,0E0,0E0,0E0,0E0,0E0,0E0,0E0,0E0,0E0,0E0,0E0,0E0,0E0,0E0,0E0,0E0,0E0,0E0,0E0,0E0,0E0,0E0,0E0,0E0,0E0,0E0,0E0,0E0,0E0,0E0,0E0,0E0,0E0],"parents":[2147483647,0,0,1,1,2,2,3,3,4,4,5,5,6,6,7,7,8,8,9,9,10,10,11,11,12,12,13,13,14,14,15,15,16,16,17,17,18,18,19,19,20,20,21,21,23,23,24,24,25,25,26,26,27,27,28,28,29,29,30,30,31,31,32,32,33,33,34,34,35,35,36,36,37,37,38,38,39,39,40,40,41,41,42,42,43,43,44,44,45,45,46,46,47,47,48,48,50,50,51,51,52,52,53,53,54,54,55,55,56,56,57,57,58,58,59,59,60,60],"right_children":[2,4,6,8,10,12,14,16,18,20,22,24,26,28,30,32,34,36,38,40,42,44,-1,46,48,50,52,54,56,58,60,62,64,66,68,70,72,74,76,78,80,82,84,86,88,90,92,94,96,-1,98,100,102,104,106,108,110,112,114,116,118,-1,-1,-1,-1,-1,-1,-1,-1,-1,-1,-1,-1,-1,-1,-1,-1,-1,-1,-1,-1,-1,-1,-1,-1,-1,-1,-1,-1,-1,-1,-1,-1,-1,-1,-1,-1,-1,-1,-1,-1,-1,-1,-1,-1,-1,-1,-1,-1,-1,-1,-1,-1,-1,-1,-1,-1,-1,-1],"split_conditions":[1E0,3.1656936E-2,6.314707E0,3.5767445E-1,1E0,2.9569446E-5,4.7197384E-5,5.447398E-2,1.076979E6,3.6901286E0,1.437346E1,1E0,2.4E1,8.180973E0,2.8E1,1.7059295E-6,2.5588944E-5,8.529648E-6,7.825293E0,4.304E3,3.4E1,3.5E1,-9.142819E-2,1.7059295E-6,4.404766E0,4.1461463E0,4.9264565E0,1E0,9.90274E0,2.4E1,1E0,4.4E1,1.8765226E-5,1E0,1.6E1,1.2E1,1.2E1,2.3E1,7.912416E0,2.2E1,3E0,4.37E2,2E0,5.2940083E0,4.6E1,3E0,2.2745728E-6,2.4E1,2.2177084E-5,-9.3577996E-2,3.1275376E-5,4.5391374E0,3E0,2.843216E-6,2.7294873E-5,2E0,1E0,1E0,2E0,8.001553E0,7.5668697E0,-8.997974E-2,8.36987E-2,-7.619744E-2,-8.695638E-2,-8.819685E-2,2.7476205E-2,4.286831E-2,-7.535046E-2,-8.67571E-2,-6.974579E-2,-6.84941E-2,-8.7309144E-2,-5.0148875E-2,7.446585E-2,9.1436684E-2,-9.103666E-2,1.3408667E-2,-9.908029E-2,-9.8950826E-2,-9.552007E-3,-3.7624218E-2,6.9380486E-3,1.875666E-2,1.0150277E-2,4.0568527E-2,1.42186275E-2,7.26814E-4,1.4958749E-2,1.1720408E-2,6.094367E-2,-7.060028E-2,-5.87118E-3,-4.2718563E-2,5.9434105E-2,7.1082115E-2,2.9502204E-2,-1.0950225E-1,7.665417E-2,-8.6631216E-2,-6.95673E-2,-8.218872E-2,-2.791827E-2,4.8756287E-2,6.6146925E-2,7.4374184E-2,5.5325862E-2,7.515205E-2,8.338456E-2,3.1693503E-2,7.170131E-2,7.359778E-2,8.542347E-2,2.9834513E-2,8.37193E-2,-7.8690775E-2,-3.229415E-2,1.208305E-2,6.088363E-2],"split_indices":[1,12,0,0,3,12,12,0,16,0,0,10,18,0,18,12,12,12,0,10,18,18,0,12,0,0,0,10,0,18,16,18,12,5,18,18,18,6,0,6,6,10,6,0,18,6,12,10,12,0,12,0,16,12,12,16,6,6,16,0,0,0,0,0,0,0,0,0,0,0,0,0,0,0,0,0,0,0,0,0,0,0,0,0,0,0,0,0,0,0,0,0,0,0,0,0,0,0,0,0,0,0,0,0,0,0,0,0,0,0,0,0,0,0,0,0,0,0,0],"split_type":[0,0,0,0,0,0,0,0,0,0,0,0,0,0,0,0,0,0,0,0,0,0,0,0,0,0,0,0,0,0,0,0,0,0,0,0,0,0,0,0,0,0,0,0,0,0,0,0,0,0,0,0,0,0,0,0,0,0,0,0,0,0,0,0,0,0,0,0,0,0,0,0,0,0,0,0,0,0,0,0,0,0,0,0,0,0,0,0,0,0,0,0,0,0,0,0,0,0,0,0,0,0,0,0,0,0,0,0,0,0,0,0,0,0,0,0,0,0,0],"sum_hessian":[8.1638095E6,4.41049E6,3.7533195E6,3.4994992E6,9.1099094E5,2.966717E5,3.4566478E6,9.284733E4,3.406652E6,6.2301275E5,2.8797822E5,1.30489664E5,1.6618203E5,2.511921E6,9.447267E5,4.8187355E4,4.4659973E4,3.4048515E6,1.8003953E3,4.137498E4,5.8163775E5,2.87587E5,3.912356E2,5.197226E4,7.85174E4,1.171021E4,1.5447181E5,6.5350156E5,1.8584195E6,2.5142898E5,6.932977E5,1.949798E3,4.623756E4,2.2919787E4,2.1740186E4,3.268031E5,3.0780485E6,1.3289733E3,4.7142188E2,2.4022418E4,1.735256E4,1.00410086E5,4.812277E5,5.0930703E4,2.3665628E5,1.63495E4,3.562276E4,6.954831E3,7.156257E4,1.726107E2,1.1537599E4,8.189918E4,7.257263E4,1.7172708E5,4.8177447E5,1.3003526E6,5.580668E5,2.2846831E5,2.2960672E4,5.7546438E4,6.3575125E5,1.4630049E3,4.86793E2,1.5184793E4,3.1052766E4,2.0878743E3,2.0831912E4,1.2557046E3,2.048448E4,2.5364627E5,7.315685E4,4.4062297E4,3.033986E6,1.0662261E3,2.6274728E2,4.5347818E2,1.7943703E1,2.3183467E4,8.3895197E2,1.3088177E3,1.6043743E4,4.9747544E3,9.543533E4,4.989348E4,4.313342E5,1.482608E4,3.6104625E4,4.6932543E4,1.8972375E5,1.8580823E3,1.4491418E4,2.1146615E4,1.4476147E4,4.8021553E3,2.152676E3,6.047111E4,1.1091461E4,5.164135E1,1.1485958E4,6.661009E4,1.528909E4,2.1741688E4,5.0830945E4,1.2145657E5,5.027051E4,3.726633E5,1.0911116E5,4.095648E5,8.907878E5,1.8986893E4,5.3907994E5,7.1662397E3,2.2130208E5,7.2006533E3,1.5760019E4,1.4589627E4,4.295681E4,6.3974723E4,5.7177656E5],"tree_param":{"num_deleted":"0","num_feature":"23","num_nodes":"119","size_leaf_vector":"0"}},{"base_weights":[-1.3277778E-1,-1.2651876E0,1.2036958E0,-1.6525794E0,2.025103E-1,-3.5333398E-1,1.3376826E0,-1.0367634E0,-1.6694996E0,1.4690685E-1,2.5909087E-1,7.0785326E-1,-1.2128718E0,1.4501312E0,1.0586295E0,4.401073E-1,-1.4299483E0,-1.5697942E0,-1.6833948E0,-3.8138054E-2,2.5755548E-1,-3.0729046E-2,2.8699568E-1,-1.304459E-1,1.1798337E0,1.2631269E0,-1.3216515E0,1.2942424E0,1.5143633E0,1.5820532E0,8.4191793E-1,-1.7124748E0,8.267862E-1,-1.5808767E0,-9.1408193E-1,-1.6088212E0,1.4828911E0,-1.5119584E0,-1.6838993E0,-9.967949E-2,-2.6472174E-2,2.7700105E-1,-2.9097345E-1,-1.0522251E0,2.4752809E-2,2.4592227E-1,4.6224773E-1,1.1390812E0,-9.3069357E-1,1.3989083E0,-1.8262465E-1,-8.498408E-2,1.3121608E0,-1.5494738E0,-8.5591614E-1,1.0553213E0,1.3764031E0,1.5720719E0,1.3867519E0,1.6368668E0,1.3164515E0,-8.6340494E-2,9.6672237E-1,-8.450737E-2,-8.812646E-2,-1.1758587E-2,6.0192745E-2,-8.3491944E-2,-6.641718E-2,-1.567929E-2,-7.955743E-2,-8.390651E-2,-6.491001E-2,7.780573E-2,-9.917577E-2,-8.567319E-2,2.3313185E-2,-8.4410764E-2,-8.374437E-2,6.535853E-3,-5.9627253E-3,1.4072346E-2,-9.302424E-2,5.3686786E-2,-2.6308084E-2,-9.5179155E-2,-1.3996743E-2,1.0980692E-2,-8.419497E-3,1.349317E-2,1.495021E-3,4.9145263E-2,2.1434477E-2,-9.147828E-2,5.7859994E-2,-6.129635E-2,8.304634E-2,2.1513468E-2,7.161391E-2,-7.206685E-2,2.455846E-2,-1.1336265E-1,6.726927E-2,-8.475302E-2,-6.735109E-2,3.393855E-3,-4.9596798E-2,4.7960836E-2,6.725977E-2,7.294526E-2,5.317564E-2,7.10916E-2,7.9988845E-2,6.451466E-2,7.854735E-2,8.312871E-2,7.9156205E-2,5.7205822E-2,8.6741224E-2,-1.7323514E-2,2.9791648E-2,6.226792E-2,1.3958021E-2],"categories":[],"categories_nodes":[],"categories_segments":[],"categories_sizes":[],"default_left":[0,0,0,0,0,0,0,0,0,0,0,0,0,0,0,0,0,0,0,0,0,0,0,0,0,0,0,0,0,0,0,0,0,0,0,0,0,0,0,0,0,0,0,0,0,0,0,0,0,0,0,0,0,0,0,0,0,0,0,0,0,0,0,0,0,0,0,0,0,0,0,0,0,0,0,0,0,0,0,0,0,0,0,0,0,0,0,0,0,0,0,0,0,0,0,0,0,0,0,0,0,0,0,0,0,0,0,0,0,0,0,0,0,0,0,0,0,0,0,0,0,0,0],"id":4,"left_children":[1,3,5,7,9,11,13,15,17,19,21,23,25,27,29,31,33,35,37,39,41,43,45,47,49,51,53,55,57,59,61,63,65,67,69,71,73,75,77,-1,79,81,83,85,87,89,91,93,95,97,99,-1,101,103,105,107,109,111,113,115,117,119,121,-1,-1,-1,-1,-1,-1,-1,-1,-1,-1,-1,-1,-1,-1,-1,-1,-1,-1,-1,-1,-1,-1,-1,-1,-1,-1,-1,-1,-1,-1,-1,-1,-1,-1,-1,-1,-1,-1,-1,-1,-1,-1,-1,-1,-1,-1,-1,-1,-1,-1,-1,-1,-1,-1,-1,-1,-1,-1,-1,-1],"loss_changes":[1.2196636E7,2.480407E6,7.71149E5,3.5963E4,2.8660586E3,2.6714856E5,1.067975E5,5.359804E4,4.651E3,9.407708E3,3.6517383E3,5.185857E4,4.3584984E4,2.4289E4,1.1088675E5,1.6155194E4,5.6740156E3,4.8955438E4,2.525E2,3.9221614E3,3.0670977E3,2.2476145E3,2.964664E3,4.7966785E4,2.5029477E4,9.9164844E2,1.6445656E4,1.389475E4,1.265E4,4.1650625E3,8.009281E4,3.2421875E-1,6.588408E3,1.2647188E3,6.708791E3,8.73225E3,1.3197422E3,3.4525703E3,1.115E2,0E0,2.4927388E3,2.6394375E3,3.1604036E3,1.342761E3,1.4157451E3,1.725709E3,1.3659414E3,9.8399414E2,2.215994E4,2.3344219E3,9.852884E3,0E0,7.9986426E2,3.0656406E3,6.3983047E3,5.045172E3,1.35961875E4,4.92175E3,9.5035625E3,3.250625E2,3.5288516E3,1.4540033E4,1.1674969E5,0E0,0E0,0E0,0E0,0E0,0E0,0E0,0E0,0E0,0E0,0E0,0E0,0E0,0E0,0E0,0E0,0E0,0E0,0E0,0E0,0E0,0E0,0E0,0E0,0E0,0E0,0E0,0E0,0E0,0E0,0E0,0E0,0E0,0E0,0E0,0E0,0E0,0E0,0E0,0E0,0E0,0E0,0E0,0E0,0E0,0E0,0E0,0E0,0E0,0E0,0E0,0E0,0E0,0E0,0E0,0E0,0E0,0E0,0E0,0E0],"parents":[2147483647,0,0,1,1,2,2,3,3,4,4,5,5,6,6,7,7,8,8,9,9,10,10,11,11,12,12,13,13,14,14,15,15,16,16,17,17,18,18,19,19,20,20,21,21,22,22,23,23,24,24,25,25,26,26,27,27,28,28,29,29,30,30,31,31,32,32,33,33,34,34,35,35,36,36,37,37,38,38,40,40,41,41,42,42,43,43,44,44,45,45,46,46,47,47,48,48,49,49,50,50,52,52,53,53,54,54,55,55,56,56,57,57,58,58,59,59,60,60,61,61,62,62],"right_children":[2,4,6,8,10,12,14,16,18,20,22,24,26,28,30,32,34,36,38,40,42,44,46,48,50,52,54,56,58,60,62,64,66,68,70,72,74,76,78,-1,80,82,84,86,88,90,92,94,96,98,100,-1,102,104,106,108,110,112,114,116,118,120,122,-1,-1,-1,-1,-1,-1,-1,-1,-1,-1,-1,-1,-1,-1,-1,-1,-1,-1,-1,-1,-1,-1,-1,-1,-1,-1,-1,-1,-1,-1,-1,-1,-1,-1,-1,-1,-1,-1,-1,-1,-1,-1,-1,-1,-1,-1,-1,-1,-1,-1,-1,-1,-1,-1,-1,-1,-1,-1,-1,-1],"split_conditions":[1E0,5.5671E4,6.314707E0,3.5767445E-1,1E0,3.2E1,4.8E1,4E0,6E0,1E0,4.9609547E0,1E0,2.4E1,8.272257E0,3.2E1,1E0,1.4842E-1,1E0,4E0,1.2E1,1.65E2,2.7972813E0,1.01E2,3E0,2.4E1,3.9630964E0,5.358377E0,1E0,9.90274E0,2.4E1,7.62458E0,5.447398E-2,5.447398E-2,5.447398E-2,4.6E1,1E0,1.2645551E1,1.8E1,8.6816225E0,-9.967949E-2,5.455107E0,1.4133307E1,7.7097E4,1.4E1,5.2E1,8.2E1,1.03E2,2E0,1E0,4.027492E0,2.5E1,-8.498408E-2,1E0,4.3075724E0,3.7E1,5E0,2.4E1,4E0,1E0,9E0,1E0,1E0,9.948574E0,-8.450737E-2,-8.812646E-2,-1.1758587E-2,6.0192745E-2,-8.3491944E-2,-6.641718E-2,-1.567929E-2,-7.955743E-2,-8.390651E-2,-6.491001E-2,7.780573E-2,-9.917577E-2,-8.567319E-2,2.3313185E-2,-8.4410764E-2,-8.374437E-2,6.535853E-3,-5.9627253E-3,1.4072346E-2,-9.302424E-2,5.3686786E-2,-2.6308084E-2,-9.5179155E-2,-1.3996743E-2,1.0980692E-2,-8.419497E-3,1.349317E-2,1.495021E-3,4.9145263E-2,2.1434477E-2,-9.147828E-2,5.7859994E-2,-6.129635E-2,8.304634E-2,2.1513468E-2,7.161391E-2,-7.206685E-2,2.455846E-2,-1.1336265E-1,6.726927E-2,-8.475302E-2,-6.735109E-2,3.393855E-3,-4.9596798E-2,4.7960836E-2,6.725977E-2,7.294526E-2,5.317564E-2,7.10916E-2,7.9988845E-2,6.451466E-2,7.854735E-2,8.312871E-2,7.9156205E-2,5.7205822E-2,8.6741224E-2,-1.7323514E-2,2.9791648E-2,6.226792E-2,1.3958021E-2],"split_indices":[1,11,0,0,2,9,9,9,9,3,0,10,18,0,18,9,0,7,18,18,18,0,18,9,9,0,0,10,0,18,0,0,0,0,9,2,0,6,0,0,0,0,11,6,18,18,18,18,7,0,9,0,6,0,18,9,9,8,7,18,7,7,0,0,0,0,0,0,0,0,0,0,0,0,0,0,0,0,0,0,0,0,0,0,0,0,0,0,0,0,0,0,0,0,0,0,0,0,0,0,0,0,0,0,0,0,0,0,0,0,0,0,0,0,0,0,0,0,0,0,0,0,0],"split_type":[0,0,0,0,0,0,0,0,0,0,0,0,0,0,0,0,0,0,0,0,0,0,0,0,0,0,0,0,0,0,0,0,0,0,0,0,0,0,0,0,0,0,0,0,0,0,0,0,0,0,0,0,0,0,0,0,0,0,0,0,0,0,0,0,0,0,0,0,0,0,0,0,0,0,0,0,0,0,0,0,0,0,0,0,0,0,0,0,0,0,0,0,0,0,0,0,0,0,0,0,0,0,0,0,0,0,0,0,0,0,0,0,0,0,0,0,0,0,0,0,0,0,0],"sum_hessian":[8.058903E6,4.362503E6,3.6964002E6,3.451497E6,9.11006E5,2.9288216E5,3.403518E6,9.2299586E4,3.3591972E6,4.5947228E5,4.5153372E5,1.3106688E5,1.6181528E5,2.4259442E6,9.775739E5,1.9406246E4,7.289334E4,4.1089647E5,2.9483008E6,1.7193494E5,2.8753734E5,3.965685E4,4.1187688E5,4.7212324E4,8.385456E4,6.8095005E3,1.5500578E5,7.079057E5,1.7180385E6,2.8623175E5,6.913422E5,2.954663E3,1.6451584E4,5.6392402E4,1.6500941E4,4.0571016E5,5.1863125E3,8.65825E3,2.9396425E6,1.0186429E3,1.7091628E5,2.7769347E5,9.843853E3,2.0420464E3,3.7614805E4,3.3367634E5,7.820054E4,1.825378E4,2.8958545E4,7.223897E4,1.161559E4,1.10313255E2,6.6991875E3,1.0408736E5,5.0918426E4,1.8114755E5,5.267581E5,1.1830336E6,5.350048E5,2.3726164E5,4.89701E4,8.193493E4,6.0940725E5,2.0672864E3,8.873767E2,4.3109136E3,1.2140671E4,4.1697617E4,1.4694784E4,8.745737E3,7.755205E3,3.3169462E5,7.401555E4,5.0795645E3,1.067484E2,7.8579575E3,8.0029254E2,1.9875636E6,9.5207894E5,6.343911E4,1.0747718E5,2.7711797E5,5.7552167E2,1.4465427E3,8.39731E3,9.706051E2,1.0714413E3,1.8724045E4,1.889076E4,3.003852E5,3.329115E4,4.733389E3,7.346715E4,1.10126045E2,1.8143654E4,2.5997479E4,2.961066E3,2.4062341E3,6.9832734E4,4.049532E3,7.5660576E3,6.0992344E1,6.6381953E3,6.054273E4,4.354463E4,6.5350986E3,4.438333E4,1.3604697E5,4.510058E4,4.1684253E5,1.09915625E5,1.8419939E5,9.9883425E5,3.511327E5,1.8387211E5,1.6047138E5,7.679027E4,3.4686043E4,1.4284058E4,5.9316543E4,2.2618387E4,4.336634E5,1.7574383E5],"tree_param":{"num_deleted":"0","num_feature":"23","num_nodes":"123","size_leaf_vector":"0"}},{"base_weights":[-1.24903604E-1,7.084174E-1,-5.400272E-1,-8.552558E-1,9.8196894E-1,9.3866897E-1,-7.776709E-1,-1.0688181E0,3.1846234E-1,-8.185295E-2,1.1062922E0,1.1805826E0,-9.116291E-1,-1.0137932E0,1.9473037E-1,-1.3887024E0,-6.574752E-1,1.4158959E0,-1.4464757E0,1.2313743E0,-1.2043626E0,-1.2415836E0,1.3027415E0,-1.5068715E0,3.3224767E-1,-7.1768415E-1,-1.6298534E0,-1.2105151E0,2.0719562E-1,-1.5699232E0,-3.8717213E-1,1.553922E-1,-1.1002033E0,-8.3745584E-2,1.4356894E0,-1.5087783E0,8.666585E-1,1.2931428E0,-8.19291E-2,5.1231645E-2,-1.4358888E0,-1.4741498E0,2.7861747E-1,1.3901514E0,-1.0975868E0,-2.2560729E-1,-1.5509611E0,3.874385E-1,-7.415414E-1,-2.1869613E-1,-8.164322E-2,-8.163683E-2,-1.6244966E0,1.3224254E0,-1.6770834E0,1.299592E0,1.9569418E-1,-8.090282E-2,-7.335559E-2,-2.6103237E-3,-7.256629E-2,-8.1849955E-2,3.580318E-2,-7.839667E-2,-2.426972E-2,7.396177E-2,4.2305827E-2,6.5249926E-4,-8.050432E-2,-8.1689365E-2,7.9990916E-2,-8.278972E-2,6.65235E-2,-6.2263954E-2,3.6102276E-2,-7.604191E-2,-2.9884985E-2,-8.106633E-2,-5.3785514E-2,-1.7490836E-2,8.891478E-2,-8.801374E-2,7.142255E-2,-8.228064E-2,2.0012176E-2,4.855935E-2,-8.1572145E-2,-6.346145E-2,-8.117085E-2,-3.2592945E-2,2.2052366E-2,-1.03799514E-1,3.982944E-2,-6.8201125E-2,1.40045835E-2,-8.026195E-2,-8.151569E-2,-8.3209306E-2,8.391948E-2,-8.533984E-2,-8.162032E-2,7.3167846E-2,-8.147722E-2,-8.4418796E-2,9.8979585E-3],"categories":[],"categories_nodes":[],"categories_segments":[],"categories_sizes":[],"default_left":[0,0,0,0,0,0,0,0,0,0,0,0,0,0,0,0,0,0,0,0,0,0,0,0,0,0,0,0,0,0,0,0,0,0,0,0,0,0,0,0,0,0,0,0,0,0,0,0,0,0,0,0,0,0,0,0,0,0,0,0,0,0,0,0,0,0,0,0,0,0,0,0,0,0,0,0,0,0,0,0,0,0,0,0,0,0,0,0,0,0,0,0,0,0,0,0,0,0,0,0,0,0,0,0,0],"id":5,"left_children":[1,3,5,7,9,11,13,15,17,-1,19,21,23,25,27,29,31,33,35,37,39,41,43,45,47,49,51,53,55,57,59,61,63,-1,65,67,69,71,-1,73,75,77,79,81,83,85,87,89,91,93,-1,-1,95,97,99,101,103,-1,-1,-1,-1,-1,-1,-1,-1,-1,-1,-1,-1,-1,-1,-1,-1,-1,-1,-1,-1,-1,-1,-1,-1,-1,-1,-1,-1,-1,-1,-1,-1,-1,-1,-1,-1,-1,-1,-1,-1,-1,-1,-1,-1,-1,-1,-1,-1],"loss_changes":[2.7574742E6,1.1337451E6,1.8696924E6,9.892303E4,7.34526E5,3.2975506E5,1.0525025E6,4.3933406E4,1.1767619E5,0E0,6.2244875E5,1.9277781E5,6.306965E4,6.7282925E5,1.56885625E4,3.4089562E4,5.2566797E4,2.294211E3,3.3582344E3,3.6217875E5,3.215064E4,1.1059816E4,1.301345E5,3.2541875E3,1.6341992E3,1.1375631E6,1.575E1,9.30868E3,1.115348E4,7.846875E2,1.0258715E4,5.176059E4,2.719239E4,0E0,9.5440625E2,3.497125E3,1.1237661E3,2.201525E5,0E0,1.4976887E4,6.6479062E3,1.5892344E3,3.9131045E3,7.2210375E4,1.7889672E4,3.2281335E3,1.1348594E3,1.4613269E3,2.7687798E3,9.209372E5,0E0,0E0,4.45E1,1.3056384E3,6.0429688E0,4.439116E3,3.7492266E3,0E0,0E0,0E0,0E0,0E0,0E0,0E0,0E0,0E0,0E0,0E0,0E0,0E0,0E0,0E0,0E0,0E0,0E0,0E0,0E0,0E0,0E0,0E0,0E0,0E0,0E0,0E0,0E0,0E0,0E0,0E0,0E0,0E0,0E0,0E0,0E0,0E0,0E0,0E0,0E0,0E0,0E0,0E0,0E0,0E0,0E0,0E0,0E0],"parents":[2147483647,0,0,1,1,2,2,3,3,4,4,5,5,6,6,7,7,8,8,10,10,11,11,12,12,13,13,14,14,15,15,16,16,17,17,18,18,19,19,20,20,21,21,22,22,23,23,24,24,25,25,26,26,27,27,28,28,29,29,30,30,31,31,32,32,34,34,35,35,36,36,37,37,39,39,40,40,41,41,42,42,43,43,44,44,45,45,46,46,47,47,48,48,49,49,52,52,53,53,54,54,55,55,56,56],"right_children":[2,4,6,8,10,12,14,16,18,-1,20,22,24,26,28,30,32,34,36,38,40,42,44,46,48,50,52,54,56,58,60,62,64,-1,66,68,70,72,-1,74,76,78,80,82,84,86,88,90,92,94,-1,-1,96,98,100,102,104,-1,-1,-1,-1,-1,-1,-1,-1,-1,-1,-1,-1,-1,-1,-1,-1,-1,-1,-1,-1,-1,-1,-1,-1,-1,-1,-1,-1,-1,-1,-1,-1,-1,-1,-1,-1,-1,-1,-1,-1,-1,-1,-1,-1,-1,-1,-1,-1],"split_conditions":[2.4E1,2E0,1.8E1,1E0,1E0,1E0,9.7E1,1E0,1.6E1,-8.185295E-2,1E0,1E0,8.0578E4,1E0,1.08E2,1E0,3E0,1E0,7.7E1,1E0,3E0,2.4E1,1E0,2.7E1,8E1,1E0,4E0,1.24E2,1.35E2,5E0,9E0,1E0,4E0,-8.3745584E-2,5.1E1,1E0,7.7E1,1E0,-8.19291E-2,3E0,1E0,8E0,1E0,1E0,5.9018E4,9E0,8E0,5E0,1.7E1,3E0,-8.164322E-2,-8.163683E-2,7E0,2.6E1,1E0,1E0,1.65E2,-8.090282E-2,-7.335559E-2,-2.6103237E-3,-7.256629E-2,-8.1849955E-2,3.580318E-2,-7.839667E-2,-2.426972E-2,7.396177E-2,4.2305827E-2,6.5249926E-4,-8.050432E-2,-8.1689365E-2,7.9990916E-2,-8.278972E-2,6.65235E-2,-6.2263954E-2,3.6102276E-2,-7.604191E-2,-2.9884985E-2,-8.106633E-2,-5.3785514E-2,-1.7490836E-2,8.891478E-2,-8.801374E-2,7.142255E-2,-8.228064E-2,2.0012176E-2,4.855935E-2,-8.1572145E-2,-6.346145E-2,-8.117085E-2,-3.2592945E-2,2.2052366E-2,-1.03799514E-1,3.982944E-2,-6.8201125E-2,1.40045835E-2,-8.026195E-2,-8.151569E-2,-8.3209306E-2,8.391948E-2,-8.533984E-2,-8.162032E-2,7.3167846E-2,-8.147722E-2,-8.4418796E-2,9.8979585E-3],"split_indices":[9,8,17,7,9,2,10,8,9,0,2,8,9,2,9,5,9,9,11,3,9,10,3,9,18,3,8,11,9,10,9,9,11,0,17,10,18,17,0,17,7,17,7,17,9,17,17,17,17,8,0,0,10,9,2,2,9,0,0,0,0,0,0,0,0,0,0,0,0,0,0,0,0,0,0,0,0,0,0,0,0,0,0,0,0,0,0,0,0,0,0,0,0,0,0,0,0,0,0,0,0,0,0,0,0],"split_type":[0,0,0,0,0,0,0,0,0,0,0,0,0,0,0,0,0,0,0,0,0,0,0,0,0,0,0,0,0,0,0,0,0,0,0,0,0,0,0,0,0,0,0,0,0,0,0,0,0,0,0,0,0,0,0,0,0,0,0,0,0,0,0,0,0,0,0,0,0,0,0,0,0,0,0,0,0,0,0,0,0,0,0,0,0,0,0,0,0,0,0,0,0,0,0,0,0,0,0,0,0,0,0,0,0],"sum_hessian":[7.9711615E6,2.6505118E6,5.32065E6,3.9464472E5,2.255867E6,7.366945E5,4.5839555E6,3.3389194E5,6.075278E4,1.0223089E5,2.1536362E6,6.5151394E5,8.518058E4,3.6883385E6,8.956169E5,1.878255E5,1.4606644E5,3.746028E4,2.3292502E4,2.0430412E6,1.1059493E5,3.1280244E4,6.202337E5,5.761121E4,2.756937E4,2.4910288E6,1.1973098E6,7.873889E3,8.8774294E5,1.5904644E5,2.877905E4,5.150385E4,9.4562586E4,2.3783627E2,3.7222445E4,2.2681928E4,6.105734E2,1.9999969E6,4.304434E4,1.7218371E4,9.337656E4,2.7129846E4,4.1504E3,5.984414E5,2.1792275E4,1.9167156E3,5.5694496E4,2.6222232E4,1.3471367E3,1.6120721E6,8.789565E5,7.7817406E5,4.1913572E5,1.2244841E3,6.6494053E3,9.248171E3,8.784948E5,1.0831959E5,5.0726848E4,2.1889805E4,6.889246E3,1.2271522E4,3.923233E4,5.370426E4,4.085832E4,3.466088E4,2.561567E3,1.4157477E3,2.1266182E4,1.3815762E2,4.7241583E2,2.4998633E4,1.9749982E6,5.8707896E3,1.1347583E4,8.4783086E4,8.593479E3,1.9809488E4,7.3203574E3,2.925322E3,1.2250779E3,7.1873003E3,5.9125406E5,1.5954679E4,5.837596E3,1.0354994E3,8.812161E2,1.1397148E4,4.4297348E4,1.2856948E3,2.4936537E4,7.211408E2,6.25996E2,4.8906647E5,1.1230058E6,9.730288E4,3.218328E5,1.3000882E2,1.0944753E3,3.9711372E3,2.678268E3,8.758968E3,4.8920407E2,1.0539469E3,8.774409E5],"tree_param":{"num_deleted":"0","num_feature":"23","num_nodes":"105","size_leaf_vector":"0"}},{"base_weights":[-1.2064133E-1,-1.186705E0,1.1262066E0,-1.5554518E0,1.7345527E-1,-3.6267316E-1,1.2459593E0,-1.5762004E0,-9.13809E-1,1.0896536E-1,2.3824276E-1,5.8942664E-1,-1.0394475E0,1.3359765E0,8.733628E-1,-1.5776497E0,-1.9200541E-1,-2.1707515E-1,-1.4009353E0,1.8536224E-3,1.7701265E-1,7.915151E-2,2.9038605E-1,-1.17958084E-1,1.108743E0,8.8147855E-1,-1.3661609E0,-9.5476545E-2,1.3400013E0,2.2012483E-1,1.1450219E0,-1.5989895E0,-1.5492014E0,-6.075302E-1,9.2810327E-1,-1.344662E0,-1.0899622E-2,6.65362E-1,-1.5092099E0,1.427734E-1,-9.340674E-2,2.0057738E-1,-1.0378585E-1,9.276719E-2,-1.023999E-1,2.6964754E-1,6.1791515E-1,1.022566E0,-6.7187214E-1,3.7415686E-1,1.2223127E0,1.3970549E0,2.8742114E-2,-1.575648E0,-1.1632669E0,1.4300808E0,1.1990824E0,9.2176884E-1,-6.6909045E-1,1.352803E0,7.483619E-1,-8.080766E-2,-7.922868E-2,-1.2858661E-2,-7.780418E-2,-4.250087E-2,5.548669E-2,6.5802954E-2,-8.609793E-2,-5.050769E-2,-8.411089E-2,2.3397652E-2,-2.3176763E-2,-4.2780265E-2,6.331008E-2,-5.8927663E-2,-7.733641E-2,2.0782141E-2,5.367306E-3,-7.7025727E-3,1.9000245E-2,1.0355439E-2,-3.0777017E-2,-3.9463673E-2,4.923621E-3,-1.45315025E-2,6.3771964E-3,1.1509076E-2,2.2365669E-2,4.2970996E-2,8.781132E-3,5.5011477E-2,-4.4671994E-2,-6.1782766E-2,1.1394492E-2,7.519836E-2,-8.682176E-3,6.479452E-2,2.6611308E-2,-3.372683E-3,7.264904E-2,-4.5422103E-2,8.1185035E-2,-8.010552E-2,-4.699413E-2,-7.586198E-2,-4.5454085E-2,6.230716E-2,7.375651E-2,6.770537E-2,4.9051724E-2,2.8940385E-2,5.6124743E-2,-5.475367E-2,-2.7175958E-3,7.667913E-2,5.8018148E-2,2.6631266E-2,5.9457064E-2],"categories":[],"categories_nodes":[],"categories_segments":[],"categories_sizes":[],"default_left":[0,0,0,0,0,0,0,0,0,0,0,0,0,0,0,0,0,0,0,0,0,0,0,0,0,0,0,0,0,0,0,0,0,0,0,0,0,0,0,0,0,0,0,0,0,0,0,0,0,0,0,0,0,0,0,0,0,0,0,0,0,0,0,0,0,0,0,0,0,0,0,0,0,0,0,0,0,0,0,0,0,0,0,0,0,0,0,0,0,0,0,0,0,0,0,0,0,0,0,0,0,0,0,0,0,0,0,0,0,0,0,0,0,0,0,0,0,0,0],"id":6,"left_children":[1,3,5,7,9,11,13,15,17,19,21,23,25,27,29,31,33,35,37,39,41,43,45,47,49,51,53,-1,55,57,59,61,63,65,67,69,71,73,75,77,79,81,83,85,-1,87,89,91,93,95,97,99,101,103,105,107,109,111,113,115,117,-1,-1,-1,-1,-1,-1,-1,-1,-1,-1,-1,-1,-1,-1,-1,-1,-1,-1,-1,-1,-1,-1,-1,-1,-1,-1,-1,-1,-1,-1,-1,-1,-1,-1,-1,-1,-1,-1,-1,-1,-1,-1,-1,-1,-1,-1,-1,-1,-1,-1,-1,-1,-1,-1,-1,-1,-1,-1],"loss_changes":[1.046804E7,2.1293225E6,6.471985E5,4.44645E4,3.783209E3,1.7412062E5,1.12683E5,6.4905E3,3.550821E4,3.3074888E3,3.7470566E3,4.1244887E4,9.912906E4,3.53485E4,1.1601119E5,1.96E3,1.5762485E3,1.0008375E4,1.3776547E4,2.3665623E3,1.8361885E3,3.2296082E3,2.3106035E3,3.0028898E4,5.400914E3,1.0094293E4,5.7357812E3,0E0,3.43045E4,1.1980215E5,3.8053562E4,4.545E2,1.2317E4,1.0294734E3,9.444751E2,7.497295E2,7.8890234E3,2.8034116E3,7.24E2,6.87333E2,3.0199707E3,1.3647656E3,2.9788984E3,1.4772993E3,0E0,2.2432402E3,2.1636245E3,2.3131748E3,1.6229937E4,5.3666953E3,2.8464688E3,1.1720312E3,1.2934588E4,1.1158281E3,6.168914E3,1.365975E4,3.562325E4,7.3879844E3,2.217727E4,1.05394375E4,1.5092727E4,0E0,0E0,0E0,0E0,0E0,0E0,0E0,0E0,0E0,0E0,0E0,0E0,0E0,0E0,0E0,0E0,0E0,0E0,0E0,0E0,0E0,0E0,0E0,0E0,0E0,0E0,0E0,0E0,0E0,0E0,0E0,0E0,0E0,0E0,0E0,0E0,0E0,0E0,0E0,0E0,0E0,0E0,0E0,0E0,0E0,0E0,0E0,0E0,0E0,0E0,0E0,0E0,0E0,0E0,0E0,0E0,0E0,0E0],"parents":[2147483647,0,0,1,1,2,2,3,3,4,4,5,5,6,6,7,7,8,8,9,9,10,10,11,11,12,12,13,13,14,14,15,15,16,16,17,17,18,18,19,19,20,20,21,21,22,22,23,23,24,24,25,25,26,26,28,28,29,29,30,30,31,31,32,32,33,33,34,34,35,35,36,36,37,37,38,38,39,39,40,40,41,41,42,42,43,43,45,45,46,46,47,47,48,48,49,49,50,50,51,51,52,52,53,53,54,54,55,55,56,56,57,57,58,58,59,59,60,60],"right_children":[2,4,6,8,10,12,14,16,18,20,22,24,26,28,30,32,34,36,38,40,42,44,46,48,50,52,54,-1,56,58,60,62,64,66,68,70,72,74,76,78,80,82,84,86,-1,88,90,92,94,96,98,100,102,104,106,108,110,112,114,116,118,-1,-1,-1,-1,-1,-1,-1,-1,-1,-1,-1,-1,-1,-1,-1,-1,-1,-1,-1,-1,-1,-1,-1,-1,-1,-1,-1,-1,-1,-1,-1,-1,-1,-1,-1,-1,-1,-1,-1,-1,-1,-1,-1,-1,-1,-1,-1,-1,-1,-1,-1,-1,-1,-1,-1,-1,-1,-1],"split_conditions":[1E0,5.5671E4,2E0,1E0,1E0,4.8E1,4.8E1,5.5E2,4E1,1E0,2E0,1E0,2.3E1,1E0,7E0,1E0,4E0,1E0,1.6E1,1E0,6.5E1,8.4E1,7.2E1,3E0,1E0,4.8E1,1E0,-9.5476545E-2,2.1E1,4.8E1,1.1E2,1E0,3E0,2.3E1,1.2E1,2E1,1.2E1,1.2E1,1.5E1,2E0,1.57E2,2.17E2,7.2E1,5.85E2,-1.023999E-1,1E2,1.2E1,6E1,4E0,1.6E1,3.9E1,1E0,2.6E1,7.4E1,9E0,5E0,5.6E1,1E0,1E0,4.8E1,1E0,-8.080766E-2,-7.922868E-2,-1.2858661E-2,-7.780418E-2,-4.250087E-2,5.548669E-2,6.5802954E-2,-8.609793E-2,-5.050769E-2,-8.411089E-2,2.3397652E-2,-2.3176763E-2,-4.2780265E-2,6.331008E-2,-5.8927663E-2,-7.733641E-2,2.0782141E-2,5.367306E-3,-7.7025727E-3,1.9000245E-2,1.0355439E-2,-3.0777017E-2,-3.9463673E-2,4.923621E-3,-1.45315025E-2,6.3771964E-3,1.1509076E-2,2.2365669E-2,4.2970996E-2,8.781132E-3,5.5011477E-2,-4.4671994E-2,-6.1782766E-2,1.1394492E-2,7.519836E-2,-8.682176E-3,6.479452E-2,2.6611308E-2,-3.372683E-3,7.264904E-2,-4.5422103E-2,8.1185035E-2,-8.010552E-2,-4.699413E-2,-7.586198E-2,-4.5454085E-2,6.230716E-2,7.375651E-2,6.770537E-2,4.9051724E-2,2.8940385E-2,5.6124743E-2,-5.475367E-2,-2.7175958E-3,7.667913E-2,5.8018148E-2,2.6631266E-2,5.9457064E-2],"split_indices":[1,11,8,5,2,11,17,17,11,3,8,10,17,17,16,2,11,6,18,16,17,17,17,11,8,18,8,0,17,11,11,3,11,6,6,18,11,6,17,6,18,18,17,10,0,18,6,17,11,18,11,8,10,10,16,11,11,10,16,11,7,0,0,0,0,0,0,0,0,0,0,0,0,0,0,0,0,0,0,0,0,0,0,0,0,0,0,0,0,0,0,0,0,0,0,0,0,0,0,0,0,0,0,0,0,0,0,0,0,0,0,0,0,0,0,0,0,0,0],"split_type":[0,0,0,0,0,0,0,0,0,0,0,0,0,0,0,0,0,0,0,0,0,0,0,0,0,0,0,0,0,0,0,0,0,0,0,0,0,0,0,0,0,0,0,0,0,0,0,0,0,0,0,0,0,0,0,0,0,0,0,0,0,0,0,0,0,0,0,0,0,0,0,0,0,0,0,0,0,0,0,0,0,0,0,0,0,0,0,0,0,0,0,0,0,0,0,0,0,0,0,0,0,0,0,0,0,0,0,0,0,0,0,0,0,0,0,0,0,0,0],"sum_hessian":[7.875327E6,4.245443E6,3.6298835E6,3.3399615E6,9.054816E5,2.7022197E5,3.3596618E6,3.2353402E6,1.0462125E5,4.5378438E5,4.5169725E5,1.122735E5,1.5794848E5,2.7059228E6,6.537389E5,3.231956E6,3.3844177E3,4.3049395E4,6.1571855E4,1.7629048E5,2.774939E5,1.11502164E5,3.401951E5,4.7530617E4,6.474288E4,2.2958893E4,1.349896E5,3.350875E3,2.7025718E6,1.9201555E5,4.6172334E5,1.8466699E6,1.385286E6,2.468967E3,9.1545074E2,6.653804E3,3.639559E4,3.0654832E3,5.850637E4,7.110441E4,1.0518608E5,2.5600975E5,2.1484156E4,1.1079394E5,7.0822455E2,3.19939E5,2.0256082E4,1.5537545E4,3.1993072E4,8.669776E3,5.60731E4,1.4307649E4,8.651243E3,6.641235E4,6.8577234E4,1.6486794E6,1.0538925E6,1.0732761E5,8.468794E4,3.0300094E5,1.5872242E5,8.4294756E5,1.0037223E6,7.3399756E3,1.3779461E6,2.1639153E3,3.0505182E2,7.989866E2,1.16464226E2,3.3439946E3,3.3098093E3,1.7685596E4,1.8709994E4,8.6794366E2,2.1975396E3,5.965292E3,5.254108E4,8.169583E3,6.293482E4,9.324228E4,1.1943797E4,2.539779E5,2.0318429E3,4.89415E3,1.6590006E4,9.21338E3,1.0158056E5,2.6178858E5,5.815044E4,1.3101393E4,7.15469E3,1.4932688E4,6.0485657E2,1.9668553E4,1.23245205E4,2.8304246E3,5.8393516E3,5.0669773E4,5.4033306E3,5.262679E2,1.3781382E4,5.4495586E3,3.201684E3,6.375707E4,2.6552825E3,2.8660418E4,3.991682E4,3.2435653E5,1.3243228E6,6.1595994E5,4.379326E5,3.962614E4,6.770147E4,5.0023434E4,3.4664504E4,1.5623025E5,1.4677067E5,1.06566414E5,5.215601E4],"tree_param":{"num_deleted":"0","num_feature":"23","num_nodes":"119","size_leaf_vector":"0"}},{"base_weights":[-1.20117605E-1,-1.1506993E0,1.0846342E0,-1.5128107E0,1.6005895E-1,-4.580306E-1,1.1923934E0,-1.5293819E0,-9.8621804E-1,-4.448343E-2,1.7425811E-1,4.0680292E-1,-1.0616207E0,7.485469E-1,1.2485263E0,-1.5303284E0,1.6925253E-1,-3.8812587E-1,-1.3798958E0,1.1262595E-2,-6.7736214E-1,1.714163E-1,6.3605106E-1,-1.2309622E0,5.765909E-1,1.2664478E0,-1.2143923E0,9.997095E-1,4.8797773E-4,1.3287052E0,1.0158094E0,-1.5521295E0,-1.5012773E0,-8.4037624E-2,6.250523E-1,-1.294382E0,8.55759E-2,2.4262112E-1,-1.4472682E0,-5.7164397E-2,9.5759517E-1,-1.2067543E0,6.933464E-1,1.8293956E-1,4.307231E-3,-9.388874E-1,9.4546974E-1,9.2737204E-1,-1.3739841E0,3.098412E-1,1.250952E0,-8.690739E-2,1.3271128E0,-1.467247E0,-8.39047E-1,8.8832384E-1,1.243927E0,1.3970575E0,-2.557622E-1,1.1542612E0,1.4266663E0,1.2373338E0,6.0881317E-1,-7.764914E-2,-6.307228E-2,-1.5852978E-2,-7.537605E-2,7.98685E-3,7.854154E-2,-7.370453E-2,-4.274405E-2,2.6755169E-2,-5.6224763E-2,-9.0857506E-2,5.6056835E-2,-7.839105E-2,-6.804249E-2,-3.4296061E-4,-4.8171777E-2,1.1417091E-2,5.8390837E-2,-1.5107142E-2,-8.023673E-2,-1.00197874E-1,6.0602676E-2,8.472099E-3,1.9128544E-2,-1.6368747E-2,6.9533563E-3,-9.99833E-2,5.8778375E-2,4.891027E-2,-1.0010158E-1,-1.06823005E-1,7.4013434E-2,-7.303508E-2,3.3017665E-2,-1.5616775E-2,3.731815E-2,7.52393E-2,5.4846227E-2,-1.1297065E-1,6.7414634E-2,-7.5881E-2,-5.9227385E-2,-7.468342E-2,-2.895821E-2,4.9252372E-2,2.3045558E-2,5.4825153E-2,6.7894995E-2,-1.266901E-1,7.014976E-2,-6.720146E-2,4.6185195E-3,6.105594E-2,4.444625E-2,5.9842356E-2,7.298107E-2,5.6952324E-2,7.082293E-2,7.026897E-2,1.7746752E-2],"categories":[],"categories_nodes":[],"categories_segments":[],"categories_sizes":[],"default_left":[0,0,0,0,0,0,0,0,0,0,0,0,0,0,0,0,0,0,0,0,0,0,0,0,0,0,0,0,0,0,0,0,0,0,0,0,0,0,0,0,0,0,0,0,0,0,0,0,0,0,0,0,0,0,0,0,0,0,0,0,0,0,0,0,0,0,0,0,0,0,0,0,0,0,0,0,0,0,0,0,0,0,0,0,0,0,0,0,0,0,0,0,0,0,0,0,0,0,0,0,0,0,0,0,0,0,0,0,0,0,0,0,0,0,0,0,0,0,0,0,0,0,0],"id":7,"left_children":[1,3,5,7,9,11,13,15,17,19,21,23,25,27,29,31,33,35,37,39,41,43,45,47,49,51,53,55,57,59,61,63,65,-1,67,69,71,73,75,77,79,81,83,85,87,89,91,93,95,97,99,-1,101,103,105,107,109,111,113,115,117,119,121,-1,-1,-1,-1,-1,-1,-1,-1,-1,-1,-1,-1,-1,-1,-1,-1,-1,-1,-1,-1,-1,-1,-1,-1,-1,-1,-1,-1,-1,-1,-1,-1,-1,-1,-1,-1,-1,-1,-1,-1,-1,-1,-1,-1,-1,-1,-1,-1,-1,-1,-1,-1,-1,-1,-1,-1,-1,-1,-1,-1],"loss_changes":[9.606379E6,1.9792465E6,5.92989E5,2.851E4,2.6215762E3,1.2157842E5,8.30695E4,5.0935E3,2.347089E4,2.0672307E3,1.1075625E3,2.6622227E4,4.8788125E4,7.0332234E4,5.52275E4,2.0025E3,1.4894742E3,1.6987688E4,6.5717344E3,3.4871995E3,3.442817E3,1.6153965E3,2.516421E3,2.7773213E3,1.5603568E4,1.5420752E3,1.2215719E4,7.6222188E3,3.3673848E4,3.761775E4,6.838269E4,4.465E2,1.003525E4,0E0,6.233263E2,1.0716074E3,1.4137153E4,4.340469E3,5.991797E2,2.289587E3,5.564387E2,1.2315527E3,1.852325E3,2.114539E3,2.4189038E3,1.9046703E3,4.1829688E2,9.5091943E2,1.4889219E3,1.6882043E4,9.596172E2,0E0,6.3208594E2,1.0934531E3,8.814121E3,7.9563125E3,1.4733906E3,3.4404688E2,3.0122086E4,1.4043125E4,1.067525E4,8.6453125E3,5.406147E4,0E0,0E0,0E0,0E0,0E0,0E0,0E0,0E0,0E0,0E0,0E0,0E0,0E0,0E0,0E0,0E0,0E0,0E0,0E0,0E0,0E0,0E0,0E0,0E0,0E0,0E0,0E0,0E0,0E0,0E0,0E0,0E0,0E0,0E0,0E0,0E0,0E0,0E0,0E0,0E0,0E0,0E0,0E0,0E0,0E0,0E0,0E0,0E0,0E0,0E0,0E0,0E0,0E0,0E0,0E0,0E0,0E0,0E0,0E0,0E0],"parents":[2147483647,0,0,1,1,2,2,3,3,4,4,5,5,6,6,7,7,8,8,9,9,10,10,11,11,12,12,13,13,14,14,15,15,16,16,17,17,18,18,19,19,20,20,21,21,22,22,23,23,24,24,25,25,26,26,27,27,28,28,29,29,30,30,31,31,32,32,34,34,35,35,36,36,37,37,38,38,39,39,40,40,41,41,42,42,43,43,44,44,45,45,46,46,47,47,48,48,49,49,50,50,52,52,53,53,54,54,55,55,56,56,57,57,58,58,59,59,60,60,61,61,62,62],"right_children":[2,4,6,8,10,12,14,16,18,20,22,24,26,28,30,32,34,36,38,40,42,44,46,48,50,52,54,56,58,60,62,64,66,-1,68,70,72,74,76,78,80,82,84,86,88,90,92,94,96,98,100,-1,102,104,106,108,110,112,114,116,118,120,122,-1,-1,-1,-1,-1,-1,-1,-1,-1,-1,-1,-1,-1,-1,-1,-1,-1,-1,-1,-1,-1,-1,-1,-1,-1,-1,-1,-1,-1,-1,-1,-1,-1,-1,-1,-1,-1,-1,-1,-1,-1,-1,-1,-1,-1,-1,-1,-1,-1,-1,-1,-1,-1,-1,-1,-1,-1,-1,-1,-1],"split_conditions":[1E0,5.5671E4,5.99973E0,1E0,3.6901286E0,5.2E1,7.424696E0,1.076979E6,4E1,1.25E2,1.7676723E1,3.9630964E0,2.4E1,8E1,9.90274E0,1E0,5.2281632E0,5.447398E-2,1.6E1,1.14E2,3.4534736E0,1.2520201E1,1E0,2E0,1E0,4.1461463E0,4.9264565E0,1E0,2.4E1,4E0,7.1E1,2.61E2,3E0,-8.4037624E-2,7.825293E0,1.9802628E-2,3.5767445E-1,1.4E1,2E0,2.2E1,6.4E1,5E0,1.2E1,1.1330721E1,8.8455E4,1.083821E6,1.54E2,1.3E1,1.23E2,4E0,1.2E1,-8.690739E-2,5.6E1,4.6246786E0,2E0,4.8E1,2E0,6.063204E0,4E0,8.2E1,1E0,1E0,2.7E1,-7.764914E-2,-6.307228E-2,-1.5852978E-2,-7.537605E-2,7.98685E-3,7.854154E-2,-7.370453E-2,-4.274405E-2,2.6755169E-2,-5.6224763E-2,-9.0857506E-2,5.6056835E-2,-7.839105E-2,-6.804249E-2,-3.4296061E-4,-4.8171777E-2,1.1417091E-2,5.8390837E-2,-1.5107142E-2,-8.023673E-2,-1.00197874E-1,6.0602676E-2,8.472099E-3,1.9128544E-2,-1.6368747E-2,6.9533563E-3,-9.99833E-2,5.8778375E-2,4.891027E-2,-1.0010158E-1,-1.06823005E-1,7.4013434E-2,-7.303508E-2,3.3017665E-2,-1.5616775E-2,3.731815E-2,7.52393E-2,5.4846227E-2,-1.1297065E-1,6.7414634E-2,-7.5881E-2,-5.9227385E-2,-7.468342E-2,-2.895821E-2,4.9252372E-2,2.3045558E-2,5.4825153E-2,6.7894995E-2,-1.266901E-1,7.014976E-2,-6.720146E-2,4.6185195E-3,6.105594E-2,4.444625E-2,5.9842356E-2,7.298107E-2,5.6952324E-2,7.082293E-2,7.026897E-2,1.7746752E-2],"split_indices":[1,11,0,5,0,11,0,16,11,18,0,0,18,11,0,2,0,0,18,18,0,0,2,11,7,0,0,7,18,8,11,16,11,0,0,0,0,6,16,6,16,6,6,0,11,11,18,6,16,11,18,0,11,0,16,11,16,0,16,11,16,7,18,0,0,0,0,0,0,0,0,0,0,0,0,0,0,0,0,0,0,0,0,0,0,0,0,0,0,0,0,0,0,0,0,0,0,0,0,0,0,0,0,0,0,0,0,0,0,0,0,0,0,0,0,0,0,0,0,0,0,0,0],"split_type":[0,0,0,0,0,0,0,0,0,0,0,0,0,0,0,0,0,0,0,0,0,0,0,0,0,0,0,0,0,0,0,0,0,0,0,0,0,0,0,0,0,0,0,0,0,0,0,0,0,0,0,0,0,0,0,0,0,0,0,0,0,0,0,0,0,0,0,0,0,0,0,0,0,0,0,0,0,0,0,0,0,0,0,0,0,0,0,0,0,0,0,0,0,0,0,0,0,0,0,0,0,0,0,0,0,0,0,0,0,0,0,0,0,0,0,0,0,0,0,0,0,0,0],"sum_hessian":[7.737125E6,4.1699888E6,3.5671362E6,3.2673478E6,9.0264106E5,2.3290478E5,3.3342315E6,3.1676638E6,9.968412E4,5.8592973E4,8.440481E5,9.573478E4,1.3717E5,3.743368E5,2.9598948E6,3.1658995E6,1.7641417E3,3.956986E4,6.0114254E4,5.3850613E4,4.742356E3,8.3888706E5,5.1610234E3,8.99202E3,8.674276E4,8.446559E3,1.28723445E5,2.802439E5,9.40929E4,2.201424E6,7.584707E5,1.8086012E6,1.3572982E6,3.481953E2,1.4159464E3,1.3582655E4,2.5987205E4,2.3965317E3,5.7717723E4,5.022025E4,3.6303638E3,3.4211616E3,1.3211943E3,7.847718E5,5.4115242E4,8.4712585E2,4.3138975E3,5.5848444E2,8.433535E3,6.215732E4,2.458544E4,1.6661972E2,8.279938E3,7.690965E4,5.1813797E4,1.9246623E5,8.777767E4,1.4587302E4,7.950559E4,7.916702E5,1.4097539E6,4.911436E5,2.6732712E5,1.8033031E6,5.298094E3,7.118929E3,1.3501794E6,9.4981445E2,4.66132E2,9.638991E3,3.9436638E3,1.8948582E4,7.0386226E3,7.162173E2,1.6803145E3,2.409225E4,3.3625473E4,4.7580184E4,2.6400674E3,8.128149E2,2.8175488E3,1.0458036E3,2.3753582E3,2.1263225E2,1.1085621E3,7.3507344E5,4.9698414E4,1.5634036E4,3.8481207E4,5.641551E2,2.8297073E2,4.2671733E3,4.672423E1,8.4938805E1,4.7354562E2,8.089008E3,3.4452713E2,2.5628783E4,3.652854E4,9.281291E3,1.5304148E4,4.7989002E1,8.231949E3,6.5274348E4,1.16353E4,1.4723039E4,3.7090754E4,1.5694764E5,3.5518594E4,3.8277008E4,4.9500664E4,2.135895E1,1.4565942E4,1.9268658E4,6.0236938E4,6.3233506E5,1.593351E5,1.7680522E5,1.2329486E6,3.1713578E5,1.7400783E5,6.4608234E4,2.0271888E5],"tree_param":{"num_deleted":"0","num_feature":"23","num_nodes":"123","size_leaf_vector":"0"}},{"base_weights":[-1.1083574E-1,6.453117E-1,-4.8563382E-1,-7.803253E-1,8.9054734E-1,8.918973E-1,-6.2658864E-1,-1.4487301E0,-4.4064543E-1,-7.5051434E-2,1.0017376E0,1.2104925E0,2.7104336E-1,-8.160788E-1,1.6585666E-1,-1.5125203E0,-1.1587878E0,-7.0641994E-1,1.1150886E0,-2.5043747E-1,1.0816172E0,-1.3711408E-1,1.3102409E0,-2.4280863E-1,7.0143753E-1,-1.3127787E0,-3.950254E-1,-7.7258056E-1,1.7485657E-1,-1.504844E0,-1.6456198E0,-8.843793E-1,-1.5331528E0,-1.1443405E0,-2.2969556E-1,1.3003563E0,-5.4727614E-1,-4.9234176E-1,9.0457433E-1,9.521793E-1,1.3493379E0,-1.1816486E0,6.1726E-1,1.3392053E0,2.5283206E-1,-6.6106737E-1,7.479187E-2,4.2382866E-1,1.0928363E0,-1.4245682E0,-1.0680496E0,-1.088165E0,-1.3201755E-2,1.3513377E0,-1.347843E0,9.47305E-1,1.6207263E-1,-7.5629964E-2,-6.89827E-2,-7.845558E-2,-8.7214634E-2,-5.691008E-2,6.880943E-2,-7.94015E-2,-7.607294E-2,-7.1731575E-2,-3.7205726E-2,-7.564163E-2,6.455216E-3,-8.0336824E-2,6.6056855E-2,8.365794E-2,-4.3123584E-2,-6.797408E-2,-1.809759E-2,6.486255E-2,-3.1855796E-2,5.8070865E-2,3.759156E-2,6.121979E-2,7.161403E-2,-7.608955E-2,7.5426535E-3,-2.615702E-2,4.7214225E-2,6.727905E-2,-7.970282E-2,-2.5529733E-2,4.319664E-2,-4.9184408E-2,3.7159852E-3,2.1872891E-2,-1.5934533E-2,1.0350238E-2,4.8825156E-2,-1.4710887E-2,5.8500208E-2,-7.350754E-2,-6.7621976E-2,-6.632807E-2,-4.076868E-2,-6.624814E-2,-3.2933574E-2,-1.28829405E-2,3.5951067E-2,-7.6912336E-2,7.851415E-2,-7.71331E-2,-4.4470787E-2,-5.9552956E-2,6.463303E-2,-1.0140909E-2,8.511742E-3],"categories":[],"categories_nodes":[],"categories_segments":[],"categories_sizes":[],"default_left":[0,0,0,0,0,0,0,0,0,0,0,0,0,0,0,0,0,0,0,0,0,0,0,0,0,0,0,0,0,0,0,0,0,0,0,0,0,0,0,0,0,0,0,0,0,0,0,0,0,0,0,0,0,0,0,0,0,0,0,0,0,0,0,0,0,0,0,0,0,0,0,0,0,0,0,0,0,0,0,0,0,0,0,0,0,0,0,0,0,0,0,0,0,0,0,0,0,0,0,0,0,0,0,0,0,0,0,0,0,0,0,0,0],"id":8,"left_children":[1,3,5,7,9,11,13,15,17,-1,19,21,23,25,27,29,31,33,35,37,39,41,43,45,47,49,51,53,55,57,59,61,63,65,67,69,71,73,75,77,79,81,83,85,87,89,91,93,95,97,99,101,103,105,107,109,111,-1,-1,-1,-1,-1,-1,-1,-1,-1,-1,-1,-1,-1,-1,-1,-1,-1,-1,-1,-1,-1,-1,-1,-1,-1,-1,-1,-1,-1,-1,-1,-1,-1,-1,-1,-1,-1,-1,-1,-1,-1,-1,-1,-1,-1,-1,-1,-1,-1,-1,-1,-1,-1,-1,-1,-1],"loss_changes":[2.162007E6,8.838974E5,9.903749E5,8.424728E4,5.736231E5,9.365147E4,6.948079E5,2.3107812E3,1.017295E5,0E0,2.0617725E5,4.20605E4,3.5511047E4,7.8095475E5,7.5416133E3,1.02234375E2,2.315375E3,4.3869266E4,1.1056953E4,3.453753E4,6.71455E4,1.6993406E4,8.922406E3,9.722343E3,9.493855E3,4.68685E4,5.348686E5,1.0365506E4,8.733633E3,9.1984375E1,3.9368164E1,7.4696836E3,3.703125E0,1.2723797E4,4.6320754E4,1.9533945E3,2.521259E3,1.1555518E4,1.295973E4,5.4754375E4,6.542625E3,4.099201E3,4.6705967E3,5.3052188E3,3.6247659E3,7.494506E3,5.9366924E3,6.1259785E3,3.8812734E3,3.8645E3,3.5088062E4,7.300656E4,2.3325842E5,1.14644E3,5.947705E2,1.063505E4,2.591287E3,0E0,0E0,0E0,0E0,0E0,0E0,0E0,0E0,0E0,0E0,0E0,0E0,0E0,0E0,0E0,0E0,0E0,0E0,0E0,0E0,0E0,0E0,0E0,0E0,0E0,0E0,0E0,0E0,0E0,0E0,0E0,0E0,0E0,0E0,0E0,0E0,0E0,0E0,0E0,0E0,0E0,0E0,0E0,0E0,0E0,0E0,0E0,0E0,0E0,0E0,0E0,0E0,0E0,0E0,0E0,0E0],"parents":[2147483647,0,0,1,1,2,2,3,3,4,4,5,5,6,6,7,7,8,8,10,10,11,11,12,12,13,13,14,14,15,15,16,16,17,17,18,18,19,19,20,20,21,21,22,22,23,23,24,24,25,25,26,26,27,27,28,28,29,29,30,30,31,31,32,32,33,33,34,34,35,35,36,36,37,37,38,38,39,39,40,40,41,41,42,42,43,43,44,44,45,45,46,46,47,47,48,48,49,49,50,50,51,51,52,52,53,53,54,54,55,55,56,56],"right_children":[2,4,6,8,10,12,14,16,18,-1,20,22,24,26,28,30,32,34,36,38,40,42,44,46,48,50,52,54,56,58,60,62,64,66,68,70,72,74,76,78,80,82,84,86,88,90,92,94,96,98,100,102,104,106,108,110,112,-1,-1,-1,-1,-1,-1,-1,-1,-1,-1,-1,-1,-1,-1,-1,-1,-1,-1,-1,-1,-1,-1,-1,-1,-1,-1,-1,-1,-1,-1,-1,-1,-1,-1,-1,-1,-1,-1,-1,-1,-1,-1,-1,-1,-1,-1,-1,-1,-1,-1,-1,-1,-1,-1,-1,-1],"split_conditions":[2.4E1,6.189044E0,2.2E1,1E0,1E0,1.2E1,9.7E1,4.9609547E0,1E0,-7.5051434E-2,1E0,1E0,1E0,7.681897E0,1.08E2,1E0,1.4E1,1E0,1.6E1,1E0,1E0,2E0,6.3744E4,8.366919E0,4E0,6.5373144E0,7E0,1.24E2,2.34E2,4.6E1,1.9802628E-2,1E0,2.2E1,1E1,1E0,1E0,1.2E1,2E0,1.6E1,3E0,2E0,7.5668697E0,1E0,1E0,1.0087462E1,1.3E2,9.813876E0,1E0,1E0,5.358377E0,1.3E1,1E0,1E0,2.6E1,3.4E1,7.7395897E0,1.5195132E0,-7.5629964E-2,-6.89827E-2,-7.845558E-2,-8.7214634E-2,-5.691008E-2,6.880943E-2,-7.94015E-2,-7.607294E-2,-7.1731575E-2,-3.7205726E-2,-7.564163E-2,6.455216E-3,-8.0336824E-2,6.6056855E-2,8.365794E-2,-4.3123584E-2,-6.797408E-2,-1.809759E-2,6.486255E-2,-3.1855796E-2,5.8070865E-2,3.759156E-2,6.121979E-2,7.161403E-2,-7.608955E-2,7.5426535E-3,-2.615702E-2,4.7214225E-2,6.727905E-2,-7.970282E-2,-2.5529733E-2,4.319664E-2,-4.9184408E-2,3.7159852E-3,2.1872891E-2,-1.5934533E-2,1.0350238E-2,4.8825156E-2,-1.4710887E-2,5.8500208E-2,-7.350754E-2,-6.7621976E-2,-6.632807E-2,-4.076868E-2,-6.624814E-2,-3.2933574E-2,-1.28829405E-2,3.5951067E-2,-7.6912336E-2,7.851415E-2,-7.71331E-2,-4.4470787E-2,-5.9552956E-2,6.463303E-2,-1.0140909E-2,8.511742E-3],"split_indices":[9,0,18,6,9,18,10,0,7,0,6,6,16,0,9,5,9,10,9,7,7,10,11,0,16,0,16,11,9,11,0,7,18,18,9,9,18,11,9,9,16,0,16,4,0,10,0,7,6,0,16,16,7,9,16,0,0,0,0,0,0,0,0,0,0,0,0,0,0,0,0,0,0,0,0,0,0,0,0,0,0,0,0,0,0,0,0,0,0,0,0,0,0,0,0,0,0,0,0,0,0,0,0,0,0,0,0,0,0,0,0,0,0],"split_type":[0,0,0,0,0,0,0,0,0,0,0,0,0,0,0,0,0,0,0,0,0,0,0,0,0,0,0,0,0,0,0,0,0,0,0,0,0,0,0,0,0,0,0,0,0,0,0,0,0,0,0,0,0,0,0,0,0,0,0,0,0,0,0,0,0,0,0,0,0,0,0,0,0,0,0,0,0,0,0,0,0,0,0,0,0,0,0,0,0,0,0,0,0,0,0,0,0,0,0,0,0,0,0,0,0,0,0,0,0,0,0,0,0],"sum_hessian":[7.6287455E6,2.5281845E6,5.100561E6,3.710638E5,2.1571205E6,4.7346366E5,4.6270975E6,1.2503096E5,2.4603284E5,9.583376E4,2.0612869E6,3.128974E5,1.6056625E5,3.7341778E6,8.9291956E5,1.0248007E5,2.2550893E4,2.101349E5,3.5897945E4,1.236096E5,1.9376772E6,2.1564137E4,2.9133325E5,7.3187445E4,8.7378805E4,1.7131916E6,2.0209861E6,8.481236E3,8.844383E5,9.690352E4,5.5765444E3,1.3014593E4,9.536301E3,1.095242E5,1.00610695E5,3.2298545E4,3.5994001E3,1.0220457E5,2.1405027E4,1.3061719E6,6.3150544E5,9.042704E3,1.2521434E4,2.835656E5,7.7676753E3,3.15876E4,4.1599848E4,5.1121637E4,3.6257164E4,1.1760022E6,5.371893E5,7.1784744E5,1.3031388E6,1.8072747E3,6.6739614E3,1.4397876E4,8.7004044E5,9.1240305E4,5.6632188E3,3.150576E3,2.4259688E3,1.1701244E4,1.3133485E3,1.6514874E3,7.8848135E3,6.3479117E4,4.6045086E4,2.1984982E4,7.862572E4,2.2869946E2,3.2069846E4,4.4689346E2,3.1525066E3,1.3358215E4,8.884636E4,1.7059932E4,4.3450957E3,6.389087E5,6.672632E5,2.5196655E5,3.7953888E5,7.203702E3,1.8390023E3,2.7903435E3,9.73109E3,2.8295112E5,6.144711E2,3.4535012E3,4.314174E3,2.1955283E4,9.632315E3,2.164756E4,1.9952287E4,3.671792E4,1.4403714E4,1.9106891E3,3.4346477E4,7.205955E5,4.5540675E5,2.6552612E5,2.716632E5,4.627255E5,2.5512194E5,9.7697156E5,3.261672E5,1.2686861E2,1.680406E3,4.6819136E3,1.9920481E3,2.0016511E3,1.2396225E4,1.9035488E4,8.5100494E5],"tree_param":{"num_deleted":"0","num_feature":"23","num_nodes":"113","size_leaf_vector":"0"}},{"base_weights":[-1.0911568E-1,-1.0865041E0,1.0317183E0,-1.4462763E0,1.5800722E-1,-6.7052704E-1,1.115941E0,-7.68604E-1,-1.4659756E0,1.0121737E-1,2.1528381E-1,1.2226453E0,-9.9603283E-1,1.2084652E0,7.494365E-1,5.220651E-1,-1.157837E0,-1.3800757E0,-1.4791327E0,-1.1286557E-2,1.7197347E-1,1.9165564E-1,4.437586E-1,1.2602228E0,-2.6798792E-2,-8.3275266E-2,-1.24124E0,8.614933E-1,1.2607687E0,1.1581949E0,2.5406444E-1,-1.5682251E0,8.536985E-1,-1.3492874E0,-5.507845E-1,-1.420666E0,1.498333E0,-1.4753987E0,-1.502116E0,9.783995E-3,-7.3678946E-1,3.3079815E-1,1.17929794E-1,2.0631497E-1,-1.5610902E-1,-5.127375E-2,6.010182E-1,-1.7946026E0,1.2695239E0,-1.2030915E-1,1.5051675E0,-9.8808306E-1,9.430767E-1,1.3268616E-2,-1.3469622E0,1.0387493E0,4.4876537E-1,-1.9026614E0,1.2642936E0,7.12123E-1,1.3692275E0,-9.160979E-1,6.411171E-1,-7.667915E-2,-8.215272E-2,-8.726617E-2,4.8674002E-2,-4.713974E-2,-7.104983E-2,1.8823316E-2,-6.1715674E-2,-7.414474E-2,-5.838563E-2,7.829586E-2,-9.611204E-2,-7.07952E-2,-7.3832594E-2,-7.599986E-2,-7.4292116E-2,2.2423058E-3,-1.807205E-2,-1.8580982E-2,-1.0085517E-1,1.1249273E-2,3.943942E-2,-4.575872E-2,6.4646862E-3,3.3355542E-3,1.1994823E-2,3.6445394E-2,-2.0899205E-2,3.46053E-2,-4.09348E-2,3.8906142E-2,1.6144024E-2,-8.440538E-2,-1.1933539E-1,5.6697525E-2,7.178378E-2,7.821166E-2,-9.765943E-2,-6.542895E-2,6.4645717E-3,6.2393047E-2,2.4556661E-2,-7.842966E-2,3.52257E-2,-6.8427466E-2,-1.0787907E-2,2.9234925E-2,6.0994446E-2,5.7767726E-2,-9.012222E-3,-9.660794E-2,-9.274933E-2,6.691053E-2,5.74942E-2,3.862889E-2,-1.2651202E-2,6.3313454E-2,7.411336E-2,-7.417505E-2,-3.0479554E-2,-3.096283E-2,3.8936164E-2],"categories":[],"categories_nodes":[],"categories_segments":[],"categories_sizes":[],"default_left":[0,0,0,0,0,0,0,0,0,0,0,0,0,0,0,0,0,0,0,0,0,0,0,0,0,0,0,0,0,0,0,0,0,0,0,0,0,0,0,0,0,0,0,0,0,0,0,0,0,0,0,0,0,0,0,0,0,0,0,0,0,0,0,0,0,0,0,0,0,0,0,0,0,0,0,0,0,0,0,0,0,0,0,0,0,0,0,0,0,0,0,0,0,0,0,0,0,0,0,0,0,0,0,0,0,0,0,0,0,0,0,0,0,0,0,0,0,0,0,0,0,0,0,0,0],"id":9,"left_children":[1,3,5,7,9,11,13,15,17,19,21,23,25,27,29,31,33,35,37,39,41,43,45,47,49,51,53,55,57,59,61,63,65,67,69,71,73,75,77,79,81,83,85,87,89,91,93,95,97,-1,99,101,103,105,107,109,111,113,115,117,119,121,123,-1,-1,-1,-1,-1,-1,-1,-1,-1,-1,-1,-1,-1,-1,-1,-1,-1,-1,-1,-1,-1,-1,-1,-1,-1,-1,-1,-1,-1,-1,-1,-1,-1,-1,-1,-1,-1,-1,-1,-1,-1,-1,-1,-1,-1,-1,-1,-1,-1,-1,-1,-1,-1,-1,-1,-1,-1,-1,-1,-1,-1,-1],"loss_changes":[8.394298E6,1.8153995E6,4.98015E5,4.1987E4,2.957584E3,1.0092068E5,1.1224025E5,4.4636617E4,3.4525E3,3.6345073E3,2.4437559E3,1.128125E3,3.1275953E4,4.795875E4,1.3509262E5,1.4272717E4,7.932961E3,4.7435562E4,2.255E2,2.694812E3,2.4058555E3,2.0915703E3,3.302962E3,6.6502734E2,2.5643306E3,2.7481754E4,1.4609094E4,2.53265E4,2.56105E4,3.4409375E4,1.3661233E5,4.788574E0,5.533454E3,1.5113984E3,1.0375091E4,6.2999375E3,1.3082158E3,1.675E2,1.055E2,2.2297686E3,2.3253486E3,3.4483843E3,2.4553718E3,1.8455664E3,3.8464385E3,5.83647E3,1.5858516E3,4.6173096E-1,5.2221094E2,0E0,9.0476135E1,5.6325215E3,1.9092744E3,9.363521E3,2.4804219E3,1.991786E4,4.622883E4,1.07421875E-2,1.93985E4,6.8500625E3,2.886125E3,1.3037594E4,3.9310945E4,0E0,0E0,0E0,0E0,0E0,0E0,0E0,0E0,0E0,0E0,0E0,0E0,0E0,0E0,0E0,0E0,0E0,0E0,0E0,0E0,0E0,0E0,0E0,0E0,0E0,0E0,0E0,0E0,0E0,0E0,0E0,0E0,0E0,0E0,0E0,0E0,0E0,0E0,0E0,0E0,0E0,0E0,0E0,0E0,0E0,0E0,0E0,0E0,0E0,0E0,0E0,0E0,0E0,0E0,0E0,0E0,0E0,0E0,0E0,0E0,0E0,0E0],"parents":[2147483647,0,0,1,1,2,2,3,3,4,4,5,5,6,6,7,7,8,8,9,9,10,10,11,11,12,12,13,13,14,14,15,15,16,16,17,17,18,18,19,19,20,20,21,21,22,22,23,23,24,24,25,25,26,26,27,27,28,28,29,29,30,30,31,31,32,32,33,33,34,34,35,35,36,36,37,37,38,38,39,39,40,40,41,41,42,42,43,43,44,44,45,45,46,46,47,47,48,48,50,50,51,51,52,52,53,53,54,54,55,55,56,56,57,57,58,58,59,59,60,60,61,61,62,62],"right_children":[2,4,6,8,10,12,14,16,18,20,22,24,26,28,30,32,34,36,38,40,42,44,46,48,50,52,54,56,58,60,62,64,66,68,70,72,74,76,78,80,82,84,86,88,90,92,94,96,98,-1,100,102,104,106,108,110,112,114,116,118,120,122,124,-1,-1,-1,-1,-1,-1,-1,-1,-1,-1,-1,-1,-1,-1,-1,-1,-1,-1,-1,-1,-1,-1,-1,-1,-1,-1,-1,-1,-1,-1,-1,-1,-1,-1,-1,-1,-1,-1,-1,-1,-1,-1,-1,-1,-1,-1,-1,-1,-1,-1,-1,-1,-1,-1,-1,-1,-1,-1,-1,-1,-1,-1],"split_conditions":[1E0,5.5671E4,5.5193386E0,3.5767445E-1,1E0,3E0,4.8E1,4E0,9E0,1E0,6.2E1,6E1,2.3E1,7.424696E0,4.8E1,1E0,1.4842E-1,1E0,6E0,2.3E1,5.2940083E0,5.8E1,6.6917114E0,1.1372864E-6,6.6531255E-5,2E0,2.4E1,3.2E1,1E0,4E0,8E0,5.447398E-2,1E0,1.2E1,4.5E1,1E0,3.354995E-5,8E0,1E0,1.2520201E1,8.795965E0,5.0629115E0,5.3904405E0,5.85E2,4.95E2,6.9E1,1.2E1,1E0,7E0,-1.2030915E-1,7.10804E-5,8E0,1.4E1,4E0,5.4875317E0,1E0,2.2E1,3.6E1,2.1E1,3.6E1,5.5E1,8.399317E0,7.0520287E0,-7.667915E-2,-8.215272E-2,-8.726617E-2,4.8674002E-2,-4.713974E-2,-7.104983E-2,1.8823316E-2,-6.1715674E-2,-7.414474E-2,-5.838563E-2,7.829586E-2,-9.611204E-2,-7.07952E-2,-7.3832594E-2,-7.599986E-2,-7.4292116E-2,2.2423058E-3,-1.807205E-2,-1.8580982E-2,-1.0085517E-1,1.1249273E-2,3.943942E-2,-4.575872E-2,6.4646862E-3,3.3355542E-3,1.1994823E-2,3.6445394E-2,-2.0899205E-2,3.46053E-2,-4.09348E-2,3.8906142E-2,1.6144024E-2,-8.440538E-2,-1.1933539E-1,5.6697525E-2,7.178378E-2,7.821166E-2,-9.765943E-2,-6.542895E-2,6.4645717E-3,6.2393047E-2,2.4556661E-2,-7.842966E-2,3.52257E-2,-6.8427466E-2,-1.0787907E-2,2.9234925E-2,6.0994446E-2,5.7767726E-2,-9.012222E-3,-9.660794E-2,-9.274933E-2,6.691053E-2,5.74942E-2,3.862889E-2,-1.2651202E-2,6.3313454E-2,7.411336E-2,-7.417505E-2,-3.0479554E-2,-3.096283E-2,3.8936164E-2],"split_indices":[1,11,0,0,2,9,17,9,9,3,17,17,17,0,9,9,0,7,8,6,0,17,0,19,19,10,9,9,17,16,16,0,17,9,11,2,19,17,2,0,0,0,0,10,10,17,6,10,10,0,19,17,16,11,0,10,17,9,17,9,16,0,0,0,0,0,0,0,0,0,0,0,0,0,0,0,0,0,0,0,0,0,0,0,0,0,0,0,0,0,0,0,0,0,0,0,0,0,0,0,0,0,0,0,0,0,0,0,0,0,0,0,0,0,0,0,0,0,0,0,0,0,0,0,0],"split_type":[0,0,0,0,0,0,0,0,0,0,0,0,0,0,0,0,0,0,0,0,0,0,0,0,0,0,0,0,0,0,0,0,0,0,0,0,0,0,0,0,0,0,0,0,0,0,0,0,0,0,0,0,0,0,0,0,0,0,0,0,0,0,0,0,0,0,0,0,0,0,0,0,0,0,0,0,0,0,0,0,0,0,0,0,0,0,0,0,0,0,0,0,0,0,0,0,0,0,0,0,0,0,0,0,0,0,0,0,0,0,0,0,0,0,0,0,0,0,0,0,0,0,0,0,0],"sum_hessian":[7.5282605E6,4.0545768E6,3.4736835E6,3.1453085E6,9.092684E5,1.6376584E5,3.3099178E6,8.884968E4,3.0564588E6,4.5657562E5,4.5269278E5,2.4025943E4,1.3973989E5,2.6427518E6,6.6716594E5,2.0586377E4,6.8263305E4,4.059841E5,2.6504748E6,1.762827E5,2.802929E5,4.1026612E5,4.2426637E4,2.3324443E4,7.015002E2,2.9591186E4,1.1014871E5,3.461921E5,2.2965598E6,3.6553875E5,3.016272E5,2.818377E3,1.7768E4,5.189545E4,1.63678545E4,4.0033916E5,5.644922E3,2.2800968E6,3.7037784E5,1.7130844E5,4.97427E3,7.1160336E4,2.0913258E5,3.936721E5,1.6594057E4,1.0228704E4,3.2197934E4,7.0217964E1,2.3254225E4,2.7453442E2,4.2696576E2,1.5726823E4,1.3864361E4,8.561235E3,1.0158748E5,2.4218036E5,1.0401174E5,2.5554875E3,2.2940042E6,1.17396125E5,2.4814264E5,7.497043E4,2.2665677E5,1.9411936E3,8.7718335E2,7.822019E2,1.6985799E4,7.7841494E3,4.41113E4,6.945835E3,9.4220205E3,3.2129322E5,7.904595E4,5.536081E3,1.0884051E2,4.7065457E4,2.2330315E6,1.7642912E5,1.9394872E5,1.5652552E5,1.4782921E4,3.8713718E3,1.1028984E3,5.7806414E4,1.3353925E4,2.2745195E3,2.0685806E5,7.633551E4,3.1733656E5,3.7885889E3,1.2805468E4,5.1957905E3,5.0329136E3,1.9670752E4,1.2527182E4,6.2777855E1,7.440108E0,1.2809773E4,1.0444452E4,4.2033447E2,6.6312633E0,1.2221241E4,3.5055823E3,8.279217E3,5.585145E3,2.6030613E3,5.9581743E3,9.968495E4,1.9025198E3,6.9064695E4,1.7311567E5,4.898467E4,5.502707E4,1.5542936E3,1.0011941E3,1.393615E6,9.003891E5,1.1047631E5,6.919813E3,1.298685E5,1.1827413E5,2.629306E4,4.8677367E4,2.230998E4,2.0434678E5],"tree_param":{"num_deleted":"0","num_feature":"23","num_nodes":"125","size_leaf_vector":"0"}},{"base_weights":[-1.0498635E-1,-1.0560006E0,9.992533E-1,-1.4116845E0,1.4660032E-1,-1.777001E-1,1.1103665E0,-1.4318835E0,-7.979198E-1,1.5035152E-1,-3.204453E-1,6.321083E-1,-7.1274567E-1,1.1936986E0,7.756432E-1,-1.3605831E0,-1.4397242E0,-1.5242238E-1,-1.2771555E0,1.4856943E-1,1.0796349E0,-1.3639634E-2,-2.0525002E0,2.8842367E-2,1.0299582E0,5.5534786E-1,-1.0767523E0,-1.8261197E0,1.19757E0,1.8791105E-1,1.0246328E0,-1.3872759E0,1.2751619E0,-1.2294729E0,-1.4449196E0,-9.262558E-1,2.4264738E-1,3.2357216E-1,-1.3475288E0,1.8211588E-1,1.1033437E-1,1.3557937E0,-1.027324E-1,-2.03536E0,2.2254683E-1,-1.0612333E-1,-9.15762E-2,1.0930656E0,-4.8612294E-1,1.2218616E0,2.784686E-1,-7.766467E-2,1.0073776E0,-1.3654484E0,-7.67985E-1,-9.2664264E-2,-8.823403E-2,1.2844353E0,1.0622662E0,8.003379E-1,-5.97741E-1,1.2251699E0,6.3297987E-1,-7.215654E-2,-5.4241847E-2,7.01284E-2,-9.4830774E-2,-7.234377E-2,-4.440922E-2,-7.174947E-2,-7.262412E-2,-5.745057E-2,1.0680332E-2,3.1108199E-2,-4.0967446E-2,-3.4675114E-2,4.4670075E-2,-4.6356935E-2,-7.021547E-2,7.441615E-3,1.7795054E-2,5.6615197E-3,-1.0436435E-1,7.267897E-2,-1.0225477E-1,-1.0521888E-1,-9.434779E-2,-9.9959046E-2,2.0479143E-2,-3.8677193E-2,5.8355864E-2,-4.945841E-2,2.8386367E-2,1.8460646E-2,6.309842E-2,5.5446845E-2,-1.943806E-2,-7.1235195E-2,9.181863E-3,-3.4713246E-2,5.342544E-2,-1.5822096E-2,-6.9670476E-2,-7.1875066E-2,-2.7356315E-2,5.4980047E-2,6.6535816E-2,3.199458E-2,5.726235E-2,2.0992396E-2,5.048917E-2,-4.8666395E-2,-2.738421E-3,6.531866E-2,4.430115E-2,4.2942308E-2,-2.8649796E-4],"categories":[],"categories_nodes":[],"categories_segments":[],"categories_sizes":[],"default_left":[0,0,0,0,0,0,0,0,0,0,0,0,0,0,0,0,0,0,0,0,0,0,0,0,0,0,0,0,0,0,0,0,0,0,0,0,0,0,0,0,0,0,0,0,0,0,0,0,0,0,0,0,0,0,0,0,0,0,0,0,0,0,0,0,0,0,0,0,0,0,0,0,0,0,0,0,0,0,0,0,0,0,0,0,0,0,0,0,0,0,0,0,0,0,0,0,0,0,0,0,0,0,0,0,0,0,0,0,0,0,0,0,0,0,0,0,0],"id":10,"left_children":[1,3,5,7,9,11,13,15,17,19,21,23,25,27,29,31,33,35,37,39,41,43,45,47,49,51,53,55,57,59,61,63,65,67,69,71,73,75,77,79,81,83,-1,85,87,-1,-1,89,91,93,95,97,99,101,103,-1,-1,105,107,109,111,113,115,-1,-1,-1,-1,-1,-1,-1,-1,-1,-1,-1,-1,-1,-1,-1,-1,-1,-1,-1,-1,-1,-1,-1,-1,-1,-1,-1,-1,-1,-1,-1,-1,-1,-1,-1,-1,-1,-1,-1,-1,-1,-1,-1,-1,-1,-1,-1,-1,-1,-1,-1,-1,-1,-1],"loss_changes":[7.7591845E6,1.6980465E6,4.47108E5,3.79795E4,1.587541E3,1.2778813E5,8.7137E4,1.6565E3,3.0196184E4,1.4884629E3,3.8367205E3,2.8161855E4,8.1976266E4,2.924375E4,9.112731E4,2.0677375E4,2.917E3,1.2716032E4,6.3111797E3,1.1507383E3,1.4918492E3,2.9297253E3,1.2910156E1,2.5556299E4,1.01964375E4,1.1333826E4,1.2298859E4,2.0742188E0,2.935875E4,8.9161766E4,3.435372E4,4.9129375E3,1.1934736E3,4.7803516E3,1.94E2,3.5697266E3,1.1098846E4,1.3683679E3,1.2796172E3,2.76413E3,2.6687432E3,5.289619E2,0E0,2.6027832E0,2.2837148E3,0E0,0E0,2.102836E3,1.6660465E4,1.925625E3,7.970926E3,5.8087324E3,2.4045E3,2.091125E3,9.858605E3,0E0,0E0,1.30125E4,3.4232375E4,8.298211E3,1.6554057E4,7.9656875E3,2.1368895E4,0E0,0E0,0E0,0E0,0E0,0E0,0E0,0E0,0E0,0E0,0E0,0E0,0E0,0E0,0E0,0E0,0E0,0E0,0E0,0E0,0E0,0E0,0E0,0E0,0E0,0E0,0E0,0E0,0E0,0E0,0E0,0E0,0E0,0E0,0E0,0E0,0E0,0E0,0E0,0E0,0E0,0E0,0E0,0E0,0E0,0E0,0E0,0E0,0E0,0E0,0E0,0E0,0E0,0E0],"parents":[2147483647,0,0,1,1,2,2,3,3,4,4,5,5,6,6,7,7,8,8,9,9,10,10,11,11,12,12,13,13,14,14,15,15,16,16,17,17,18,18,19,19,20,20,21,21,22,22,23,23,24,24,25,25,26,26,27,27,28,28,29,29,30,30,31,31,32,32,33,33,34,34,35,35,36,36,37,37,38,38,39,39,40,40,41,41,43,43,44,44,47,47,48,48,49,49,50,50,51,51,52,52,53,53,54,54,57,57,58,58,59,59,60,60,61,61,62,62],"right_children":[2,4,6,8,10,12,14,16,18,20,22,24,26,28,30,32,34,36,38,40,42,44,46,48,50,52,54,56,58,60,62,64,66,68,70,72,74,76,78,80,82,84,-1,86,88,-1,-1,90,92,94,96,98,100,102,104,-1,-1,106,108,110,112,114,116,-1,-1,-1,-1,-1,-1,-1,-1,-1,-1,-1,-1,-1,-1,-1,-1,-1,-1,-1,-1,-1,-1,-1,-1,-1,-1,-1,-1,-1,-1,-1,-1,-1,-1,-1,-1,-1,-1,-1,-1,-1,-1,-1,-1,-1,-1,-1,-1,-1,-1,-1,-1,-1,-1],"split_conditions":[1E0,5.5671E4,6.4103065E0,1E0,2.31E2,2.7E1,4.8E1,1.5E1,4E1,1.05E2,9.269556E0,2E0,3.9E1,1E0,7E0,1E0,9E0,5.447398E-2,1.6E1,4E1,1.11E2,5E0,1E0,3E0,1.8E1,1E0,4.9264565E0,4.8E1,2.1E1,4.8E1,1.1E2,1.7E1,1.2069091E1,8E0,6.9033256E0,1.1E1,3.5767445E-1,1.2E1,1.8E1,3.8E1,1.69E2,1.9E1,-1.027324E-1,1E0,4.5391374E0,-1.0612333E-1,-9.15762E-2,2E0,8E0,4.3564525E0,4.1E1,4.6246786E0,4.027492E0,4.8E1,1E0,-9.2664264E-2,-8.823403E-2,5E0,1E0,1E0,1E0,9.948574E0,9.948574E0,-7.215654E-2,-5.4241847E-2,7.01284E-2,-9.4830774E-2,-7.234377E-2,-4.440922E-2,-7.174947E-2,-7.262412E-2,-5.745057E-2,1.0680332E-2,3.1108199E-2,-4.0967446E-2,-3.4675114E-2,4.4670075E-2,-4.6356935E-2,-7.021547E-2,7.441615E-3,1.7795054E-2,5.6615197E-3,-1.0436435E-1,7.267897E-2,-1.0225477E-1,-1.0521888E-1,-9.434779E-2,-9.9959046E-2,2.0479143E-2,-3.8677193E-2,5.8355864E-2,-4.945841E-2,2.8386367E-2,1.8460646E-2,6.309842E-2,5.5446845E-2,-1.943806E-2,-7.1235195E-2,9.181863E-3,-3.4713246E-2,5.342544E-2,-1.5822096E-2,-6.9670476E-2,-7.1875066E-2,-2.7356315E-2,5.4980047E-2,6.6535816E-2,3.199458E-2,5.726235E-2,2.0992396E-2,5.048917E-2,-4.8666395E-2,-2.738421E-3,6.531866E-2,4.430115E-2,4.2942308E-2,-2.8649796E-4],"split_indices":[1,11,0,5,18,17,17,11,11,17,0,10,11,17,16,7,17,0,18,17,17,6,3,11,17,10,0,11,17,11,11,17,0,10,0,10,0,6,17,17,16,6,0,3,0,0,0,17,17,0,11,0,0,11,16,0,0,11,16,10,16,0,0,0,0,0,0,0,0,0,0,0,0,0,0,0,0,0,0,0,0,0,0,0,0,0,0,0,0,0,0,0,0,0,0,0,0,0,0,0,0,0,0,0,0,0,0,0,0,0,0,0,0,0,0,0,0],"split_type":[0,0,0,0,0,0,0,0,0,0,0,0,0,0,0,0,0,0,0,0,0,0,0,0,0,0,0,0,0,0,0,0,0,0,0,0,0,0,0,0,0,0,0,0,0,0,0,0,0,0,0,0,0,0,0,0,0,0,0,0,0,0,0,0,0,0,0,0,0,0,0,0,0,0,0,0,0,0,0,0,0,0,0,0,0,0,0,0,0,0,0,0,0,0,0,0,0,0,0,0,0,0,0,0,0,0,0,0,0,0,0,0,0,0,0,0,0],"sum_hessian":[7.388659E6,3.969753E6,3.4189062E6,3.063643E6,9.0611E5,2.94927E5,3.1239792E6,2.9660302E6,9.761277E4,8.98891E5,7.219018E3,1.1733563E5,1.7759138E5,2.5012658E6,6.227134E5,2.9387106E5,2.6721592E6,4.1592227E4,5.6020543E4,8.971717E5,1.7193474E3,6.133564E3,1.0854543E3,4.663037E4,7.070526E4,3.9608023E4,1.3798334E5,3.2018088E3,2.498064E6,1.8530602E5,4.3740738E5,2.9092525E5,2.9457979E3,6.444426E4,2.607715E6,1.4057023E4,2.7535205E4,2.3589817E3,5.3661562E4,4.7788456E5,4.1928712E5,1.5806456E3,1.3870183E2,6.407995E2,5.492764E3,8.178868E2,2.6756754E2,1.520556E4,3.1424812E4,5.6322023E4,1.4383235E4,1.650109E4,2.3106932E4,7.130763E4,6.667571E4,2.1999292E3,1.0018797E3,1.5213466E6,9.767173E5,1.04132914E5,8.11731E4,2.8928388E5,1.481235E5,2.4556933E5,4.535592E4,2.832575E3,1.1322312E2,3.9365195E4,2.5079068E4,1.1274796E6,1.4802352E6,1.1759029E4,2.2979946E3,2.0286135E4,7.2490693E3,8.4699115E2,1.5119906E3,6.387474E3,4.727409E4,4.0107244E5,7.68121E4,4.1873625E5,5.5086285E2,1.5370242E3,4.3621403E1,4.283901E2,2.1240941E2,4.2575064E2,5.0670137E3,5.7985266E2,1.4625707E4,2.127125E4,1.0153563E4,2.5307173E3,5.3791305E4,6.407487E3,7.9757485E3,2.680155E3,1.3820936E4,8.009641E2,2.2305969E4,1.8516665E3,6.945597E4,1.6537633E4,5.013808E4,3.046552E5,1.2166915E6,1.6038125E5,8.1633606E5,3.69715E4,6.7161414E4,4.7982016E4,3.3191082E4,2.3339772E5,5.5886152E4,1.0942671E5,3.8696785E4],"tree_param":{"num_deleted":"0","num_feature":"23","num_nodes":"117","size_leaf_vector":"0"}},{"base_weights":[-1.04074664E-1,-1.0238259E0,9.653506E-1,-1.380036E0,1.4441663E-1,-3.2814485E-1,1.0612968E0,-7.338236E-1,-1.3990446E0,-1.5151623E-1,1.5582824E-1,4.617235E-1,-1.0177518E0,1.2079672E0,8.5641265E-1,4.076786E-1,-1.0610867E0,-1.3048245E0,-1.4123373E0,-6.1752845E-2,-1.5039989E0,1.0704104E-1,2.0198627E-1,1.1358597E0,3.8252026E-2,4.3512955E-1,-1.2019283E0,-1.7528259E0,1.2135297E0,1.172834E0,5.199452E-1,-1.5179284E0,7.294707E-1,-1.2522656E0,-4.7077006E-1,-1.3421208E0,1.368931E0,-1.3086967E0,-1.4150624E0,-1.6785268E-2,-2.0312827E0,-5.6949687E-1,-1.9071226E0,2.3572561E-1,6.46399E-2,1.9545886E-1,8.7948906E-1,1.0109963E0,1.3292487E0,-1.1187702E0,4.4229105E-1,-1.5203942E0,7.0438683E-1,-1.3898681E0,-9.685905E-1,-8.885173E-2,-8.4850974E-2,1.063116E0,1.2725863E0,1.0469986E0,1.3699435E0,-2.2323596E-1,6.76207E-1,-7.378984E-2,-8.0355E-2,-8.245834E-2,4.528622E-2,-7.175464E-2,-5.414902E-2,8.118414E-3,-6.524259E-2,-7.051795E-2,-5.2301962E-2,7.2739385E-2,-9.078518E-2,-7.1775965E-2,-4.4652164E-2,-7.0291E-2,-7.11074E-2,-8.746726E-3,2.5934398E-2,-1.0380929E-1,-9.3604974E-2,-9.695974E-2,4.4120464E-2,-9.640228E-2,-8.670824E-2,1.8579474E-2,5.0547193E-3,3.36841E-3,-9.498662E-2,8.752082E-3,2.0333225E-2,8.632871E-3,5.1700354E-2,7.1522975E-3,5.3610396E-2,-1.0183424E-1,6.672723E-2,-6.0112275E-2,6.9001496E-2,-3.1912263E-2,3.809715E-2,-8.556957E-2,-7.5153805E-2,-9.297594E-2,3.9820876E-2,-7.104741E-2,-6.556506E-2,-3.0954618E-2,-6.077812E-2,4.0635433E-2,5.7300348E-2,3.8389254E-2,6.44249E-2,5.55812E-2,3.7011165E-2,5.393828E-2,6.917328E-2,-3.9456464E-2,5.6386925E-3,4.9421612E-2,4.98566E-4],"categories":[],"categories_nodes":[],"categories_segments":[],"categories_sizes":[],"default_left":[0,0,0,0,0,0,0,0,0,0,0,0,0,0,0,0,0,0,0,0,0,0,0,0,0,0,0,0,0,0,0,0,0,0,0,0,0,0,0,0,0,0,0,0,0,0,0,0,0,0,0,0,0,0,0,0,0,0,0,0,0,0,0,0,0,0,0,0,0,0,0,0,0,0,0,0,0,0,0,0,0,0,0,0,0,0,0,0,0,0,0,0,0,0,0,0,0,0,0,0,0,0,0,0,0,0,0,0,0,0,0,0,0,0,0,0,0,0,0,0,0,0,0],"id":11,"left_children":[1,3,5,7,9,11,13,15,17,19,21,23,25,27,29,31,33,35,37,39,41,43,45,47,49,51,53,55,57,59,61,63,65,67,69,71,73,75,77,79,81,83,85,87,89,91,93,95,97,99,101,103,105,107,109,-1,-1,111,113,115,117,119,121,-1,-1,-1,-1,-1,-1,-1,-1,-1,-1,-1,-1,-1,-1,-1,-1,-1,-1,-1,-1,-1,-1,-1,-1,-1,-1,-1,-1,-1,-1,-1,-1,-1,-1,-1,-1,-1,-1,-1,-1,-1,-1,-1,-1,-1,-1,-1,-1,-1,-1,-1,-1,-1,-1,-1,-1,-1,-1,-1,-1],"loss_changes":[7.1145065E6,1.618231E6,4.1506275E5,3.66045E4,3.0685742E3,1.25796195E5,9.356E4,3.1812344E4,3.624E3,4.0958389E3,1.9702012E3,3.073105E4,3.299353E4,2.988625E4,1.3829425E5,1.1758742E4,7.4684844E3,3.5694938E4,7.15E2,2.8021096E3,7.899404E2,2.3208076E3,1.9879629E3,1.00153906E3,3.0909041E4,7.305418E3,4.7974375E3,1.5820312E0,1.608625E4,1.66025E4,7.310939E4,7.836914E0,6.817798E3,1.5456719E3,8.550992E3,7.1306875E3,1.3491328E3,3.425711E3,1.6E2,2.6197412E3,1.161377E0,1.2630078E3,1.9638672E0,1.9281533E3,1.7147502E3,1.9200684E3,4.6833887E2,1.3408906E3,2.931211E2,3.571207E3,1.6926645E4,2.9819336E0,2.8787842E3,1.46125E2,4.2132695E3,0E0,0E0,1.059775E4,1.0445E4,8.0995625E3,1.0255E3,2.0796736E4,1.0820356E5,0E0,0E0,0E0,0E0,0E0,0E0,0E0,0E0,0E0,0E0,0E0,0E0,0E0,0E0,0E0,0E0,0E0,0E0,0E0,0E0,0E0,0E0,0E0,0E0,0E0,0E0,0E0,0E0,0E0,0E0,0E0,0E0,0E0,0E0,0E0,0E0,0E0,0E0,0E0,0E0,0E0,0E0,0E0,0E0,0E0,0E0,0E0,0E0,0E0,0E0,0E0,0E0,0E0,0E0,0E0,0E0,0E0,0E0,0E0,0E0],"parents":[2147483647,0,0,1,1,2,2,3,3,4,4,5,5,6,6,7,7,8,8,9,9,10,10,11,11,12,12,13,13,14,14,15,15,16,16,17,17,18,18,19,19,20,20,21,21,22,22,23,23,24,24,25,25,26,26,27,27,28,28,29,29,30,30,31,31,32,32,33,33,34,34,35,35,36,36,37,37,38,38,39,39,40,40,41,41,42,42,43,43,44,44,45,45,46,46,47,47,48,48,49,49,50,50,51,51,52,52,53,53,54,54,57,57,58,58,59,59,60,60,61,61,62,62],"right_children":[2,4,6,8,10,12,14,16,18,20,22,24,26,28,30,32,34,36,38,40,42,44,46,48,50,52,54,56,58,60,62,64,66,68,70,72,74,76,78,80,82,84,86,88,90,92,94,96,98,100,102,104,106,108,110,-1,-1,112,114,116,118,120,122,-1,-1,-1,-1,-1,-1,-1,-1,-1,-1,-1,-1,-1,-1,-1,-1,-1,-1,-1,-1,-1,-1,-1,-1,-1,-1,-1,-1,-1,-1,-1,-1,-1,-1,-1,-1,-1,-1,-1,-1,-1,-1,-1,-1,-1,-1,-1,-1,-1,-1,-1,-1,-1,-1,-1,-1,-1,-1,-1,-1],"split_conditions":[1E0,5.5671E4,6.063204E0,3.5767445E-1,2.7972813E0,3.6E1,3E1,4E0,6E0,1.25E2,1E0,3E0,2.3E1,1E0,3.2E1,1E0,1.4842E-1,1E0,9E0,2.702032E0,5E0,5.455107E0,1.7676723E1,9E0,4E0,4.3075724E0,4.745019E0,4.8E1,8.241566E0,8.5E1,7.825293E0,5.447398E-2,6.814727E-3,1.9802628E-2,4.2E1,1E0,1.2069091E1,1E0,3E0,8.8E1,1E0,4E0,1E0,4E1,2.85E2,2.2E1,3.2E1,2E0,4.027492E0,1E0,4.6663594E0,2.3E1,4.9E1,7E1,4.5E1,-8.885173E-2,-8.4850974E-2,5E0,1E0,5.6E1,7.281241E0,7.4E1,9.948574E0,-7.378984E-2,-8.0355E-2,-8.245834E-2,4.528622E-2,-7.175464E-2,-5.414902E-2,8.118414E-3,-6.524259E-2,-7.051795E-2,-5.2301962E-2,7.2739385E-2,-9.078518E-2,-7.1775965E-2,-4.4652164E-2,-7.0291E-2,-7.11074E-2,-8.746726E-3,2.5934398E-2,-1.0380929E-1,-9.3604974E-2,-9.695974E-2,4.4120464E-2,-9.640228E-2,-8.670824E-2,1.8579474E-2,5.0547193E-3,3.36841E-3,-9.498662E-2,8.752082E-3,2.0333225E-2,8.632871E-3,5.1700354E-2,7.1522975E-3,5.3610396E-2,-1.0183424E-1,6.672723E-2,-6.0112275E-2,6.9001496E-2,-3.1912263E-2,3.809715E-2,-8.556957E-2,-7.5153805E-2,-9.297594E-2,3.9820876E-2,-7.104741E-2,-6.556506E-2,-3.0954618E-2,-6.077812E-2,4.0635433E-2,5.7300348E-2,3.8389254E-2,6.44249E-2,5.55812E-2,3.7011165E-2,5.393828E-2,6.917328E-2,-3.9456464E-2,5.6386925E-3,4.9421612E-2,4.98566E-4],"split_indices":[1,11,0,0,0,9,17,9,9,18,2,9,17,17,9,9,0,7,17,0,6,0,0,11,11,0,0,9,0,18,0,0,0,0,9,2,0,2,8,18,2,6,2,17,18,6,17,6,0,7,0,18,11,17,17,0,0,11,6,17,0,18,0,0,0,0,0,0,0,0,0,0,0,0,0,0,0,0,0,0,0,0,0,0,0,0,0,0,0,0,0,0,0,0,0,0,0,0,0,0,0,0,0,0,0,0,0,0,0,0,0,0,0,0,0,0,0,0,0,0,0,0,0],"split_type":[0,0,0,0,0,0,0,0,0,0,0,0,0,0,0,0,0,0,0,0,0,0,0,0,0,0,0,0,0,0,0,0,0,0,0,0,0,0,0,0,0,0,0,0,0,0,0,0,0,0,0,0,0,0,0,0,0,0,0,0,0,0,0,0,0,0,0,0,0,0,0,0,0,0,0,0,0,0,0,0,0,0,0,0,0,0,0,0,0,0,0,0,0,0,0,0,0,0,0,0,0,0,0,0,0,0,0,0,0,0,0,0,0,0,0,0,0,0,0,0,0,0,0],"sum_hessian":[7.2330895E6,3.888669E6,3.3444205E6,2.9800258E6,9.086431E5,2.3094452E5,3.113476E6,8.5155125E4,2.8948708E6,3.3737188E4,8.7490594E5,1.0764706E5,1.2329746E5,1.8145142E6,1.2989619E6,1.8973791E4,6.618133E4,3.5792844E5,2.5369422E6,3.163841E4,2.098775E3,4.2534084E5,4.4956506E5,4.1531E4,6.611606E4,1.3871377E4,1.09426086E5,3.401953E3,1.8111122E6,6.69421E5,6.295408E5,2.716215E3,1.6257576E4,4.9990406E4,1.6190925E4,3.5300484E5,4.9235806E3,6.500991E4,2.4719322E6,3.0933164E4,7.052461E2,6.332405E2,1.4655345E3,1.05413484E5,3.1992738E5,4.4527634E5,4.2887354E3,2.5240475E4,1.6290527E4,1.7111918E4,4.900414E4,1.6782406E3,1.2193137E4,6.0606305E4,4.8819777E4,2.351175E3,1.0507776E3,5.106183E5,1.300494E6,4.0858497E5,2.6083605E5,1.0937117E5,5.2016962E5,1.8565748E3,8.5964026E2,1.1209811E3,1.5136595E4,2.4030299E4,2.5960107E4,9.204636E3,6.986289E3,2.8688288E5,6.6121984E4,4.794856E3,1.2872458E2,4.9809715E4,1.5200195E4,1.0727712E6,1.399161E6,2.3880773E4,7.05239E3,5.406844E2,1.645617E2,3.2567236E2,3.075681E2,1.2983271E3,1.6720741E2,5.246568E4,5.2947805E4,3.1948462E5,4.4276358E2,4.0602753E5,3.9248805E4,7.697387E2,3.5189966E3,1.6630181E3,2.3577457E4,2.4988035E1,1.6265539E4,1.6559256E4,5.52662E2,1.1187031E4,3.781711E4,1.3138617E2,1.5468545E3,4.21838E2,1.1771299E4,4.3414906E4,1.71914E4,2.0215562E4,2.8604215E4,1.2699304E5,3.8362525E5,3.9741387E4,1.2607526E6,3.3748716E5,7.109782E4,1.1579029E4,2.4925702E5,4.0746434E4,6.862474E4,3.5418406E5,1.6598556E5],"tree_param":{"num_deleted":"0","num_feature":"23","num_nodes":"123","size_leaf_vector":"0"}},{"base_weights":[-1.0098001E-1,-9.994146E-1,9.3611753E-1,-1.3520687E0,1.2864098E-1,-2.0396689E-1,1.0428938E0,-1.3734365E0,-7.2264564E-1,-3.097938E-2,1.3982373E-1,6.5518063E-1,-8.043224E-1,1.2063261E0,8.7498003E-1,-1.3747654E0,-1.279252E-1,2.866416E-1,-1.1812015E0,1.8473327E-2,-6.040592E-1,5.7507616E-1,1.3370758E-1,-1.6527295E-2,1.0692495E0,5.816555E-1,-1.065176E0,-1.6906911E0,1.2122772E0,1.1374356E0,5.7457006E-1,-1.3139247E0,-1.3841032E0,-6.6333073E-1,1.2120874E0,-1.4695135E0,5.6123936E-1,-3.872464E-1,-1.2335622E0,-1.171421E-1,2.7767882E-1,-1.9024838E0,-1.562337E-1,6.069307E-1,-1.0279651E-1,-3.6188E-1,1.3990347E-1,9.369417E-1,-1.1504581E0,-1.7338643E0,1.1252791E0,1.1789697E0,6.828881E-2,-1.2654088E0,-6.6092414E-1,-8.5576795E-2,-8.215574E-2,1.0201886E0,1.2613018E0,9.0488803E-1,1.29258E0,-5.992371E-1,7.4962515E-1,-6.7277595E-2,6.767922E-2,-6.5571345E-2,-6.9290355E-2,-2.475967E-3,-7.622828E-2,7.613086E-2,-7.754796E-2,-7.393456E-2,-6.991848E-2,9.364498E-3,6.7166954E-2,-7.491087E-2,2.7293647E-2,3.7964348E-2,-6.2293064E-2,-8.540098E-3,6.211997E-2,-1.0733447E-1,1.6266264E-2,-9.242482E-2,-1.0032059E-1,3.520629E-3,-9.451776E-2,2.2995977E-2,6.2756434E-2,-2.3703908E-3,-5.9922706E-2,4.7227084E-3,8.946091E-3,5.004051E-2,1.0294755E-2,-6.263756E-2,6.3E-2,-8.474169E-2,-8.9753814E-2,8.498813E-3,5.7382233E-2,-8.125252E-2,