{"learner":{"attributes":{"best_iteration":"164","best_score":"0.03799628915706277","scikit_learn":"{\"_estimator_type\": \"classifier\"}"},"feature_names":["log_amount","is_ACH","is_Cheque","is_CC","is_Wire","is_Bitcoin","hour","dow","is_weekend","is_cross_currency","amount_bucket"],"feature_types":["float","float","float","float","float","float","float","float","float","float","float"],"gradient_booster":{"model":{"gbtree_model_param":{"num_parallel_tree":"1","num_trees":"185"},"iteration_indptr":[0,1,2,3,4,5,6,7,8,9,10,11,12,13,14,15,16,17,18,19,20,21,22,23,24,25,26,27,28,29,30,31,32,33,34,35,36,37,38,39,40,41,42,43,44,45,46,47,48,49,50,51,52,53,54,55,56,57,58,59,60,61,62,63,64,65,66,67,68,69,70,71,72,73,74,75,76,77,78,79,80,81,82,83,84,85,86,87,88,89,90,91,92,93,94,95,96,97,98,99,100,101,102,103,104,105,106,107,108,109,110,111,112,113,114,115,116,117,118,119,120,121,122,123,124,125,126,127,128,129,130,131,132,133,134,135,136,137,138,139,140,141,142,143,144,145,146,147,148,149,150,151,152,153,154,155,156,157,158,159,160,161,162,163,164,165,166,167,168,169,170,171,172,173,174,175,176,177,178,179,180,181,182,183,184,185],"tree_info":[0,0,0,0,0,0,0,0,0,0,0,0,0,0,0,0,0,0,0,0,0,0,0,0,0,0,0,0,0,0,0,0,0,0,0,0,0,0,0,0,0,0,0,0,0,0,0,0,0,0,0,0,0,0,0,0,0,0,0,0,0,0,0,0,0,0,0,0,0,0,0,0,0,0,0,0,0,0,0,0,0,0,0,0,0,0,0,0,0,0,0,0,0,0,0,0,0,0,0,0,0,0,0,0,0,0,0,0,0,0,0,0,0,0,0,0,0,0,0,0,0,0,0,0,0,0,0,0,0,0,0,0,0,0,0,0,0,0,0,0,0,0,0,0,0,0,0,0,0,0,0,0,0,0,0,0,0,0,0,0,0,0,0,0,0,0,0,0,0,0,0,0,0,0,0,0,0,0,0,0,0,0,0,0,0],"trees":[{"base_weights":[1.6640779E-3,3.9462686E-1,-1.2847958E0,8.7792754E-1,-1.372583E0,-1.3923383E0,-1.240568E0,-1.0170416E0,1.2518457E0,-1.7044024E0,-1.3155417E0,-1.4855254E0,-1.3530104E0,-1.2684686E0,-1.2013555E0,-1.4199116E0,-4.6974346E-1,1.3169273E0,-9.272928E-2,-1.7332209E0,-1.4450911E0,-1.1547985E0,-1.337615E0,-1.4632746E0,-1.5472368E0,-1.3226956E0,-1.435804E0,-1.2755079E0,-1.1025352E0,-1.1570079E0,-1.238303E0,-1.5896868E0,-9.352639E-1,-6.848952E-1,3.7748656E-1,-3.008444E-1,1.4226397E0,-8.933387E-2,-1.6749882E0,-1.3562022E0,-9.2704214E-2,-1.5340098E0,-1.1214178E0,-1.3583623E0,-1.27783E0,-1.4933506E0,-9.9037075E-1,-9.271433E-2,-1.5008806E0,-1.3396441E0,-1.0485042E0,-1.4680717E0,-1.3576754E0,-1.1901593E0,-1.284948E0,-8.9566475E-1,-1.1757245E0,-1.1903267E0,-9.215714E-1,-1.2799803E0,-1.1301559E0,-8.74823E-2,-7.569029E-2,-5.3472795E-2,-1.7765542E-2,-2.9219216E-2,-9.272613E-2,2.5895631E-2,-9.2708014E-2,-3.0259749E-2,8.24475E-2,7.289451E-2,-9.272808E-2,-8.539053E-2,-8.208043E-2,-7.327696E-2,-3.5788875E-2,-8.2609236E-2,-5.413672E-2,-3.9762832E-2,-5.9325304E-2,-5.66892E-2,-6.848701E-2,-7.267887E-2,-6.306296E-2,-7.6359764E-2,-6.71823E-2,-4.152858E-2,-9.26493E-2,-7.24093E-2,-8.643644E-2,-6.317803E-2,-6.8308614E-2,-5.3246327E-2,-4.875177E-2,-7.166203E-2,-8.198153E-2,-6.938039E-2,-6.1334252E-2,-6.460708E-2,-4.1371454E-2,-7.1328625E-2,-6.350338E-2,-3.747396E-2,-9.264784E-2,-6.081146E-2,-4.9082633E-2,-5.8446415E-2,-6.7031994E-2,-3.9721563E-2,-6.044961E-2,-5.5402376E-2,-6.516273E-2,-6.62955E-2,-5.1947933E-2],"categories":[],"categories_nodes":[],"categories_segments":[],"categories_sizes":[],"default_left":[0,0,0,0,0,0,0,0,0,0,0,0,0,0,0,0,0,0,0,0,0,0,0,0,0,0,0,0,0,0,0,0,0,0,0,0,0,0,0,0,0,0,0,0,0,0,0,0,0,0,0,0,0,0,0,0,0,0,0,0,0,0,0,0,0,0,0,0,0,0,0,0,0,0,0,0,0,0,0,0,0,0,0,0,0,0,0,0,0,0,0,0,0,0,0,0,0,0,0,0,0,0,0,0,0,0,0,0,0,0,0,0,0,0,0],"id":0,"left_children":[1,3,5,7,9,11,13,15,17,19,21,23,25,27,29,31,33,35,-1,37,39,41,43,45,47,49,51,53,55,57,59,61,63,65,67,69,71,-1,73,75,-1,77,79,81,83,85,87,-1,89,91,93,95,97,99,101,103,105,107,109,111,113,-1,-1,-1,-1,-1,-1,-1,-1,-1,-1,-1,-1,-1,-1,-1,-1,-1,-1,-1,-1,-1,-1,-1,-1,-1,-1,-1,-1,-1,-1,-1,-1,-1,-1,-1,-1,-1,-1,-1,-1,-1,-1,-1,-1,-1,-1,-1,-1,-1,-1,-1,-1,-1,-1],"loss_changes":[4.1611448E6,5.385264E6,9.15925E3,3.5082242E6,2.562625E4,2.05475E3,1.4915E3,1.7991188E5,8.360245E5,1.48175E3,4.098125E3,2.2646875E2,9.8875E2,9.3E2,9.2825E2,3.8670375E4,6.3064773E4,6.926865E5,0E0,5.535E2,7.199258E2,1.7643125E3,1.2585E3,1.7399688E3,6.2522656E2,1.3412812E3,2.6464062E2,6.14875E2,4.903672E2,2.0218125E3,1.3935938E3,4.2223125E3,9.489016E3,3.2434438E4,2.1958336E4,1.4742786E5,4.39212E5,0E0,9.09375E1,1.1422598E3,0E0,6.0001953E2,2.7213125E3,1.925375E3,7.604375E2,5.811875E2,1.00806934E3,0E0,4.578203E2,5.4746875E2,1.9259766E1,4.4490625E2,1.1956641E2,2.8174375E3,1.4495E3,1.1861997E3,1.8724219E2,7.2509375E2,1.1674941E3,8.925E2,1.5357656E3,0E0,0E0,0E0,0E0,0E0,0E0,0E0,0E0,0E0,0E0,0E0,0E0,0E0,0E0,0E0,0E0,0E0,0E0,0E0,0E0,0E0,0E0,0E0,0E0,0E0,0E0,0E0,0E0,0E0,0E0,0E0,0E0,0E0,0E0,0E0,0E0,0E0,0E0,0E0,0E0,0E0,0E0,0E0,0E0,0E0,0E0,0E0,0E0,0E0,0E0,0E0,0E0,0E0,0E0],"parents":[2147483647,0,0,1,1,2,2,3,3,4,4,5,5,6,6,7,7,8,8,9,9,10,10,11,11,12,12,13,13,14,14,15,15,16,16,17,17,19,19,20,20,21,21,22,22,23,23,24,24,25,25,26,26,27,27,28,28,29,29,30,30,31,31,32,32,33,33,34,34,35,35,36,36,38,38,39,39,41,41,42,42,43,43,44,44,45,45,46,46,48,48,49,49,50,50,51,51,52,52,53,53,54,54,55,55,56,56,57,57,58,58,59,59,60,60],"right_children":[2,4,6,8,10,12,14,16,18,20,22,24,26,28,30,32,34,36,-1,38,40,42,44,46,48,50,52,54,56,58,60,62,64,66,68,70,72,-1,74,76,-1,78,80,82,84,86,88,-1,90,92,94,96,98,100,102,104,106,108,110,112,114,-1,-1,-1,-1,-1,-1,-1,-1,-1,-1,-1,-1,-1,-1,-1,-1,-1,-1,-1,-1,-1,-1,-1,-1,-1,-1,-1,-1,-1,-1,-1,-1,-1,-1,-1,-1,-1,-1,-1,-1,-1,-1,-1,-1,-1,-1,-1,-1,-1,-1,-1,-1,-1,-1],"split_conditions":[1E0,1E0,2E0,2E0,1E0,1E0,5E0,1E0,1E0,5E0,1E0,1.7E1,1.7E1,2.3E1,6E0,1E0,1E0,1E0,-9.272928E-2,1E0,7E0,3E0,5E0,1.6E1,1.8E1,1.6E1,2.2E1,2E0,3E0,2.1E1,8E0,4E0,1E0,1E0,1E0,1E0,1E0,-8.933387E-2,2E0,6E0,-9.2704214E-2,1E0,6E0,2E0,3E0,1E0,1E0,-9.271433E-2,1E0,4E0,1E0,1E0,1E0,4E0,4E0,1E0,1E0,1.8E1,2.3E1,2E0,7E0,-8.74823E-2,-7.569029E-2,-5.3472795E-2,-1.7765542E-2,-2.9219216E-2,-9.272613E-2,2.5895631E-2,-9.2708014E-2,-3.0259749E-2,8.24475E-2,7.289451E-2,-9.272808E-2,-8.539053E-2,-8.208043E-2,-7.327696E-2,-3.5788875E-2,-8.2609236E-2,-5.413672E-2,-3.9762832E-2,-5.9325304E-2,-5.66892E-2,-6.848701E-2,-7.267887E-2,-6.306296E-2,-7.6359764E-2,-6.71823E-2,-4.152858E-2,-9.26493E-2,-7.24093E-2,-8.643644E-2,-6.317803E-2,-6.8308614E-2,-5.3246327E-2,-4.875177E-2,-7.166203E-2,-8.198153E-2,-6.938039E-2,-6.1334252E-2,-6.460708E-2,-4.1371454E-2,-7.1328625E-2,-6.350338E-2,-3.747396E-2,-9.264784E-2,-6.081146E-2,-4.9082633E-2,-5.8446415E-2,-6.7031994E-2,-3.9721563E-2,-6.044961E-2,-5.5402376E-2,-6.516273E-2,-6.62955E-2,-5.1947933E-2],"split_indices":[2,3,10,10,6,10,10,10,4,10,10,6,6,6,10,5,8,6,0,10,10,6,10,6,6,6,6,6,10,6,10,6,8,4,4,8,9,0,10,10,0,8,6,6,6,8,8,0,8,6,8,8,8,10,6,8,8,6,6,6,6,0,0,0,0,0,0,0,0,0,0,0,0,0,0,0,0,0,0,0,0,0,0,0,0,0,0,0,0,0,0,0,0,0,0,0,0,0,0,0,0,0,0,0,0,0,0,0,0,0,0,0,0,0,0],"split_type":[0,0,0,0,0,0,0,0,0,0,0,0,0,0,0,0,0,0,0,0,0,0,0,0,0,0,0,0,0,0,0,0,0,0,0,0,0,0,0,0,0,0,0,0,0,0,0,0,0,0,0,0,0,0,0,0,0,0,0,0,0,0,0,0,0,0,0,0,0,0,0,0,0,0,0,0,0,0,0,0,0,0,0,0,0,0,0,0,0,0,0,0,0,0,0,0,0,0,0,0,0,0,0,0,0,0,0,0,0,0,0,0,0,0,0],"sum_hessian":[8.231236E6,6.3052355E6,1.9260002E6,4.9511765E6,1.3540588E6,5.612518E5,1.3647485E6,8.1596575E5,4.135211E6,1.9862003E5,1.1554388E6,1.665578E5,3.9469406E5,7.9736975E5,5.673787E5,4.699964E5,3.4596934E5,4.0503542E6,8.4856766E4,1.7874916E5,1.9870873E4,1.3951403E5,1.01592475E6,1.22436625E5,4.4121164E4,2.8892262E5,1.0577143E5,7.6491394E5,3.24558E4,2.5788033E5,3.0949838E5,3.480649E5,1.219315E5,2.7590438E5,7.0064984E4,2.4843448E5,3.8019198E6,9.318104E4,8.556812E4,1.6326789E4,3.5440842E3,1.1283724E4,1.28230305E5,7.5417856E5,2.6174617E5,1.15113414E5,7.323215E3,5.7822437E3,3.833892E4,2.7209966E5,1.682297E4,7.484294E4,3.0928494E4,7.619135E4,6.8872256E5,8.485279E3,2.3970521E4,2.259063E5,3.197403E4,2.2339581E5,8.610256E4,1.1198178E5,2.3608311E5,9.901919E4,2.2912314E4,2.5407238E5,2.1831996E4,6.5917875E4,4.147105E3,2.148919E5,3.354258E4,3.761461E6,4.0458812E4,4.3118863E4,4.2449254E4,1.3944769E4,2.38202E3,8.939967E3,2.3437568E3,2.1334572E4,1.0689573E5,3.637109E4,7.178075E5,2.2545584E4,2.392006E5,9.388022E4,2.12332E4,6.1802827E3,1.1429324E3,3.1143664E4,7.1952563E3,7.0358664E4,2.0174098E5,1.3738544E4,3.0844265E3,6.2219996E4,1.2622942E4,2.5167867E4,5.7606274E3,5.9469008E4,1.6722342E4,6.547462E4,6.23248E5,7.3627207E3,1.1225583E3,1.9827143E4,4.1433784E3,1.9776183E5,2.814446E4,2.2170652E4,9.803378E3,2.6641008E4,1.9675481E5,2.736031E4,5.874225E4],"tree_param":{"num_deleted":"0","num_feature":"11","num_nodes":"115","size_leaf_vector":"1"}},{"base_weights":[1.82831E-3,-1.3183874E0,1.5449703E0,-1.5870106E0,-1.2808181E0,-2.9842484E-1,1.691316E0,-1.6705873E0,-1.2446707E0,-1.2620499E0,-1.782171E0,-1.3794386E0,2.3676758E-1,1.7340859E0,-1.7828097E0,-1.7196709E0,-1.6113393E0,-1.3734244E0,-1.1788324E0,-1.2754613E0,-8.225812E-1,-8.955057E-2,-8.894537E-2,-1.3356223E0,-8.9485615E-2,3.854119E-1,-9.190315E-2,1.1813089E0,1.7614014E0,-9.202244E-2,-8.8944E-2,-1.6964717E0,-8.814827E-2,-1.6693712E0,-1.4846948E0,-1.3162777E0,-7.872339E-2,-1.1138473E0,-1.3194735E0,-1.3235478E0,-1.2268302E0,-7.4403846E-1,-1.0925632E0,-1.252416E0,-1.392087E0,2.0110731E-1,5.052713E-1,9.3391776E-1,1.2338899E0,1.8013631E0,1.5766314E0,-8.526828E-2,-7.954881E-2,-8.469228E-2,-8.0829084E-2,-7.335762E-2,-8.892176E-2,-7.228818E-2,-6.1990768E-2,-6.232316E-2,-4.9751792E-2,-7.121049E-2,-6.456893E-2,-7.23343E-2,-6.2549405E-2,-6.630997E-2,-5.814072E-2,-4.244634E-2,-2.5238026E-2,-6.0672875E-2,-4.902303E-2,-7.356327E-2,-5.4367464E-2,-7.952643E-2,-6.5921076E-2,1.3687368E-2,-4.1778598E-2,2.9708842E-2,1.5412579E-2,4.923066E-2,4.2073537E-2,6.430154E-2,4.694458E-2,8.219053E-2,9.479566E-2,6.497444E-2,8.1487544E-2],"categories":[],"categories_nodes":[],"categories_segments":[],"categories_sizes":[],"default_left":[0,0,0,0,0,0,0,0,0,0,0,0,0,0,0,0,0,0,0,0,0,0,0,0,0,0,0,0,0,0,0,0,0,0,0,0,0,0,0,0,0,0,0,0,0,0,0,0,0,0,0,0,0,0,0,0,0,0,0,0,0,0,0,0,0,0,0,0,0,0,0,0,0,0,0,0,0,0,0,0,0,0,0,0,0,0,0],"id":1,"left_children":[1,3,5,7,9,11,13,15,17,19,21,23,25,27,29,31,33,35,37,39,41,-1,-1,43,-1,45,-1,47,49,-1,-1,51,-1,53,55,57,-1,59,61,63,65,67,69,71,73,75,77,79,81,83,85,-1,-1,-1,-1,-1,-1,-1,-1,-1,-1,-1,-1,-1,-1,-1,-1,-1,-1,-1,-1,-1,-1,-1,-1,-1,-1,-1,-1,-1,-1,-1,-1,-1,-1,-1,-1],"loss_changes":[1.6752831E7,4.4723E4,1.022835E6,1.55555E4,3.6581E4,1.6133684E5,5.21933E5,1.268125E3,9.028906E2,2.2087E4,8.4375E-1,1.6576406E3,5.7526008E4,5.2391E4,6.40625E0,2.37125E2,1.453E3,4.126328E2,6.438672E2,8.5025E3,2.3526016E3,0E0,0E0,3.9028125E2,0E0,3.844832E3,0E0,2.1242812E3,2.4411E4,0E0,0E0,1.4334375E2,0E0,1.7265625E2,3.18125E2,2.7654297E2,0E0,7.5978125E2,6.3808594E1,1.633625E4,1.15005E4,2.1573438E3,3.3774414E2,1.2172852E3,7.24375E2,5.165294E3,1.8471465E3,1.3341797E2,2.0714531E3,4.0493E4,8.653875E3,0E0,0E0,0E0,0E0,0E0,0E0,0E0,0E0,0E0,0E0,0E0,0E0,0E0,0E0,0E0,0E0,0E0,0E0,0E0,0E0,0E0,0E0,0E0,0E0,0E0,0E0,0E0,0E0,0E0,0E0,0E0,0E0,0E0,0E0,0E0,0E0],"parents":[2147483647,0,0,1,1,2,2,3,3,4,4,5,5,6,6,7,7,8,8,9,9,10,10,11,11,12,12,13,13,14,14,15,15,16,16,17,17,18,18,19,19,20,20,23,23,25,25,27,27,28,28,31,31,33,33,34,34,35,35,37,37,38,38,39,39,40,40,41,41,42,42,43,43,44,44,45,45,46,46,47,47,48,48,49,49,50,50],"right_children":[2,4,6,8,10,12,14,16,18,20,22,24,26,28,30,32,34,36,38,40,42,-1,-1,44,-1,46,-1,48,50,-1,-1,52,-1,54,56,58,-1,60,62,64,66,68,70,72,74,76,78,80,82,84,86,-1,-1,-1,-1,-1,-1,-1,-1,-1,-1,-1,-1,-1,-1,-1,-1,-1,-1,-1,-1,-1,-1,-1,-1,-1,-1,-1,-1,-1,-1,-1,-1,-1,-1,-1,-1],"split_conditions":[1E0,1E0,2E0,1E0,1E0,1E0,1E0,1E0,3E0,1E0,1E0,1E0,1E0,3E0,1E0,5E0,2E0,2E0,6E0,1E0,1.8E1,-8.955057E-2,-8.894537E-2,9E0,-8.9485615E-2,1E1,-9.190315E-2,5E0,6E0,-9.202244E-2,-8.8944E-2,1E0,-8.814827E-2,1E0,7E0,1E0,-7.872339E-2,4E0,7E0,1E0,3E0,1.3E1,2.1E1,4E0,1.3E1,9E0,1.9E1,3E0,2E1,4E0,5E0,-8.526828E-2,-7.954881E-2,-8.469228E-2,-8.0829084E-2,-7.335762E-2,-8.892176E-2,-7.228818E-2,-6.1990768E-2,-6.232316E-2,-4.9751792E-2,-7.121049E-2,-6.456893E-2,-7.23343E-2,-6.2549405E-2,-6.630997E-2,-5.814072E-2,-4.244634E-2,-2.5238026E-2,-6.0672875E-2,-4.902303E-2,-7.356327E-2,-5.4367464E-2,-7.952643E-2,-6.5921076E-2,1.3687368E-2,-4.1778598E-2,2.9708842E-2,1.5412579E-2,4.923066E-2,4.2073537E-2,6.430154E-2,4.694458E-2,8.219053E-2,9.479566E-2,6.497444E-2,8.1487544E-2],"split_indices":[1,6,10,2,4,10,9,3,10,5,10,9,9,10,6,10,10,10,10,2,6,0,0,6,0,6,0,6,10,0,0,5,0,10,10,10,0,10,10,3,10,6,6,6,6,6,6,6,6,10,6,0,0,0,0,0,0,0,0,0,0,0,0,0,0,0,0,0,0,0,0,0,0,0,0,0,0,0,0,0,0,0,0,0,0,0,0],"split_type":[0,0,0,0,0,0,0,0,0,0,0,0,0,0,0,0,0,0,0,0,0,0,0,0,0,0,0,0,0,0,0,0,0,0,0,0,0,0,0,0,0,0,0,0,0,0,0,0,0,0,0,0,0,0,0,0,0,0,0,0,0,0,0,0,0,0,0,0,0,0,0,0,0,0,0,0,0,0,0,0,0,0,0,0,0,0,0],"sum_hessian":[8.2231335E6,4.4316725E6,3.7914612E6,5.437523E5,3.88792E6,2.7886238E5,3.5125988E6,4.3704984E5,1.0670246E5,3.7476302E6,1.4028986E5,9.23423E4,1.865201E5,3.4698818E6,4.2717152E4,2.3901297E5,1.9803688E5,3.609503E4,7.060743E4,3.6366478E6,1.10982445E5,3.7679207E4,1.0261066E5,8.343578E4,8.906513E3,1.7405156E5,1.2468528E4,1.633925E5,3.3064892E6,2.6966843E3,4.002047E4,1.5564933E5,8.336363E4,1.3579828E5,6.2238586E4,2.8111795E4,7.983234E3,4.82991E4,2.2308326E4,1.8285478E6,1.8081E6,8.597462E4,2.5007832E4,3.373992E4,4.969586E4,6.858813E4,1.0546343E5,2.864381E4,1.3474869E5,2.7185222E6,5.87967E5,1.435335E5,1.2115828E4,9.2761375E4,4.3036914E4,5.8736754E4,3.501829E3,1.0430426E4,1.768137E4,2.2819154E4,2.547995E4,4.707894E3,1.7600432E4,6.779718E5,1.1505759E6,7.0842425E5,1.0996758E6,5.977117E4,2.6203441E4,1.2027376E4,1.2980456E4,1.4503245E4,1.9236678E4,1.3448212E4,3.624765E4,6.4097555E4,4.4905757E3,7.266926E4,3.2794176E4,1.849307E4,1.0150741E4,1.1450634E5,2.0242336E4,1.0195766E6,1.6989456E6,9.457286E4,4.9339412E5],"tree_param":{"num_deleted":"0","num_feature":"11","num_nodes":"87","size_leaf_vector":"1"}},{"base_weights":[3.6779753E-4,-1.2580884E0,1.4641572E0,-1.5141562E0,-1.2223299E0,-2.5033355E-1,1.6020771E0,-1.6232927E0,-1.4579057E0,-1.2368714E0,-7.3654425E-1,-1.3224992E0,2.6440415E-1,1.6425506E0,-1.7160482E0,-1.4742659E0,-1.6515049E0,-1.5041529E0,-1.3124043E0,-1.1914347E0,-1.2595567E0,-8.4051937E-1,-2.757354E-1,-1.4651911E0,-7.5944424E-1,4.051672E-1,-1.7644213E0,1.5588683E0,1.8012261E0,-8.83327E-2,-8.562963E-2,-8.577614E-1,-1.6395333E0,-1.7125225E0,-1.5390933E0,-1.3376203E0,-1.5614564E0,-1.1163322E0,-1.5011855E0,-1.069191E0,-1.1978917E0,-1.3082763E0,-1.2299138E0,-1.0620503E0,-6.0929203E-1,-1.0814762E-1,-9.338989E-1,-8.628956E-2,-1.4087242E0,-6.606921E-1,-8.604695E-2,1.191439E-1,1.1630243E0,-8.784733E-2,-8.995896E-2,9.728845E-1,1.5905962E0,1.6813798E0,1.8616035E0,-4.1052356E-2,-4.6197664E-2,-8.293918E-2,-8.007374E-2,-8.1227586E-2,-8.607817E-2,-6.11147E-2,-7.995843E-2,-5.7012748E-2,-7.807201E-2,-7.983634E-2,-6.717579E-2,-6.467561E-2,-4.4691116E-2,-8.264058E-2,-6.496691E-2,-6.0108937E-2,-3.6239013E-2,-6.0867216E-2,-5.7883143E-2,-6.801755E-2,-5.7712447E-2,-6.347639E-2,-6.007492E-2,-4.293045E-2,-5.8265097E-2,-2.7282858E-2,-7.3823474E-2,2.6638338E-2,-1.1709297E-2,-8.962058E-2,-8.7068335E-4,-4.4629864E-2,-7.406759E-2,3.0114686E-2,-3.7748452E-2,2.3156693E-2,-2.9827585E-2,4.194208E-2,6.339782E-2,5.6625314E-2,2.7789349E-2,8.543821E-2,7.280352E-2,7.684519E-2,8.5171655E-2,9.455097E-2,8.869484E-2],"categories":[],"categories_nodes":[],"categories_segments":[],"categories_sizes":[],"default_left":[0,0,0,0,0,0,0,0,0,0,0,0,0,0,0,0,0,0,0,0,0,0,0,0,0,0,0,0,0,0,0,0,0,0,0,0,0,0,0,0,0,0,0,0,0,0,0,0,0,0,0,0,0,0,0,0,0,0,0,0,0,0,0,0,0,0,0,0,0,0,0,0,0,0,0,0,0,0,0,0,0,0,0,0,0,0,0,0,0,0,0,0,0,0,0,0,0,0,0,0,0,0,0,0,0,0,0],"id":2,"left_children":[1,3,5,7,9,11,13,15,17,19,21,23,25,27,29,31,33,35,37,39,41,43,45,47,49,51,53,55,57,-1,-1,59,61,63,65,67,69,71,73,75,77,79,81,83,85,87,89,-1,91,93,-1,95,97,-1,-1,99,101,103,105,-1,-1,-1,-1,-1,-1,-1,-1,-1,-1,-1,-1,-1,-1,-1,-1,-1,-1,-1,-1,-1,-1,-1,-1,-1,-1,-1,-1,-1,-1,-1,-1,-1,-1,-1,-1,-1,-1,-1,-1,-1,-1,-1,-1,-1,-1,-1,-1],"loss_changes":[1.5079941E7,4.03035E4,8.94862E5,3.308875E3,2.7284E4,1.5550114E5,4.70388E5,7.6884375E2,2.393E3,3.8645E3,5.3785117E3,7.3418594E3,5.4367215E4,4.5945E4,4.3515625E0,2.9745781E3,1.0552812E3,2.5753125E3,3.1761719E3,9.845E2,3.61075E3,4.69116E3,2.2796372E3,1.0705156E3,1.7536064E3,3.85882E4,5.078125E-2,4.212E4,8.643E3,0E0,0E0,1.4251953E1,1.4214844E1,7.66875E1,1.0309531E3,3.0528203E3,1.542375E3,1.6592969E3,1.3364453E3,2.869375E3,9.26875E2,7.58775E3,1.74875E3,9.815703E2,2.4724004E3,1.3309644E3,3.3003235E3,0E0,2.2453438E3,1.9962046E3,0E0,3.1818928E4,1.6581953E3,0E0,0E0,7.747117E3,3.4163E4,1.272875E3,2.04625E3,0E0,0E0,0E0,0E0,0E0,0E0,0E0,0E0,0E0,0E0,0E0,0E0,0E0,0E0,0E0,0E0,0E0,0E0,0E0,0E0,0E0,0E0,0E0,0E0,0E0,0E0,0E0,0E0,0E0,0E0,0E0,0E0,0E0,0E0,0E0,0E0,0E0,0E0,0E0,0E0,0E0,0E0,0E0,0E0,0E0,0E0,0E0,0E0],"parents":[2147483647,0,0,1,1,2,2,3,3,4,4,5,5,6,6,7,7,8,8,9,9,10,10,11,11,12,12,13,13,14,14,15,15,16,16,17,17,18,18,19,19,20,20,21,21,22,22,23,23,24,24,25,25,26,26,27,27,28,28,31,31,32,32,33,33,34,34,35,35,36,36,37,37,38,38,39,39,40,40,41,41,42,42,43,43,44,44,45,45,46,46,48,48,49,49,51,51,52,52,55,55,56,56,57,57,58,58],"right_children":[2,4,6,8,10,12,14,16,18,20,22,24,26,28,30,32,34,36,38,40,42,44,46,48,50,52,54,56,58,-1,-1,60,62,64,66,68,70,72,74,76,78,80,82,84,86,88,90,-1,92,94,-1,96,98,-1,-1,100,102,104,106,-1,-1,-1,-1,-1,-1,-1,-1,-1,-1,-1,-1,-1,-1,-1,-1,-1,-1,-1,-1,-1,-1,-1,-1,-1,-1,-1,-1,-1,-1,-1,-1,-1,-1,-1,-1,-1,-1,-1,-1,-1,-1,-1,-1,-1,-1,-1,-1],"split_conditions":[1E0,1E0,2E0,1E0,1E0,1E0,1E0,2E0,4E0,3E0,5E0,5E0,1E0,5E0,1E0,1E0,4E0,3E0,1E0,2E0,4E0,1.3E1,1.8E1,4E0,1E0,5E0,5E0,3E0,4E0,-8.83327E-2,-8.562963E-2,1E0,1E0,3E0,1E0,1E0,1E0,4E0,3E0,2E0,1E0,1E0,3E0,2E0,2.3E1,3E0,2.2E1,-8.628956E-2,6E0,1E0,-8.604695E-2,4E0,8E0,-8.784733E-2,-8.995896E-2,4E0,3E0,3E0,6E0,-4.1052356E-2,-4.6197664E-2,-8.293918E-2,-8.007374E-2,-8.1227586E-2,-8.607817E-2,-6.11147E-2,-7.995843E-2,-5.7012748E-2,-7.807201E-2,-7.983634E-2,-6.717579E-2,-6.467561E-2,-4.4691116E-2,-8.264058E-2,-6.496691E-2,-6.0108937E-2,-3.6239013E-2,-6.0867216E-2,-5.7883143E-2,-6.801755E-2,-5.7712447E-2,-6.347639E-2,-6.007492E-2,-4.293045E-2,-5.8265097E-2,-2.7282858E-2,-7.3823474E-2,2.6638338E-2,-1.1709297E-2,-8.962058E-2,-8.7068335E-4,-4.4629864E-2,-7.406759E-2,3.0114686E-2,-3.7748452E-2,2.3156693E-2,-2.9827585E-2,4.194208E-2,6.339782E-2,5.6625314E-2,2.7789349E-2,8.543821E-2,7.280352E-2,7.684519E-2,8.5171655E-2,9.455097E-2,8.869484E-2],"split_indices":[1,6,10,10,5,10,9,7,7,7,7,7,9,7,6,3,7,7,3,6,7,6,6,6,9,7,7,10,10,0,0,5,7,7,3,3,3,10,10,7,3,3,10,7,6,6,6,0,6,6,0,7,6,0,0,7,7,10,10,0,0,0,0,0,0,0,0,0,0,0,0,0,0,0,0,0,0,0,0,0,0,0,0,0,0,0,0,0,0,0,0,0,0,0,0,0,0,0,0,0,0,0,0,0,0,0,0],"split_type":[0,0,0,0,0,0,0,0,0,0,0,0,0,0,0,0,0,0,0,0,0,0,0,0,0,0,0,0,0,0,0,0,0,0,0,0,0,0,0,0,0,0,0,0,0,0,0,0,0,0,0,0,0,0,0,0,0,0,0,0,0,0,0,0,0,0,0,0,0,0,0,0,0,0,0,0,0,0,0,0,0,0,0,0,0,0,0,0,0,0,0,0,0,0,0,0,0,0,0,0,0,0,0,0,0,0,0],"sum_hessian":[8.1862085E6,4.4018385E6,3.78437E6,5.3936756E5,3.8624712E6,2.817625E5,3.5026075E6,1.834376E5,3.5592997E5,3.7502108E6,1.1226041E5,9.13937E4,1.9036878E5,3.4603992E6,4.220826E4,2.920736E4,1.5423023E5,2.7007722E5,8.585274E4,1.2488745E6,2.5013362E6,9.1592914E4,2.0667492E4,7.291393E4,1.8479773E4,1.7801839E5,1.2350393E4,2.2655868E6,1.1948125E6,2.6655408E3,3.9542723E4,6.1757734E3,2.3031586E4,9.995814E4,5.4272086E4,6.914786E4,2.0092934E5,4.211656E4,4.3736184E4,6.2664957E4,1.1862095E6,9.4618556E5,1.5551508E6,4.6775414E4,4.48175E4,1.6473914E4,4.193579E3,1.2980077E4,5.993385E4,1.6760084E4,1.7196891E3,1.2924219E5,4.877621E4,1.020693E4,2.1434622E3,1.16370305E5,2.1492165E6,4.0028775E5,7.945247E5,3.9810356E3,2.194738E3,1.52668955E4,7.764692E3,9.332205E3,9.062594E4,8.654584E3,4.5617504E4,3.674877E4,3.2399092E4,1.7293603E5,2.7993318E4,2.3443885E4,1.8672674E4,2.4970992E4,1.8765191E4,4.5206727E4,1.7458234E4,7.995552E5,3.8665428E5,7.071124E5,2.3907322E5,6.495577E5,9.0559306E5,1.5750594E4,3.102482E4,4.1755074E4,3.062425E3,2.7067349E3,1.3767179E4,2.1647786E3,2.0288007E3,7.394966E3,5.2538887E4,1.1637993E3,1.5596284E4,8.728845E4,4.195373E4,1.1929507E4,3.6846707E4,8.416062E4,3.2209691E4,1.1441661E6,1.00505044E6,5.301897E4,3.4726878E5,5.949608E5,1.9956388E5],"tree_param":{"num_deleted":"0","num_feature":"11","num_nodes":"107","size_leaf_vector":"1"}},{"base_weights":[2.9303776E-3,-1.2112582E0,1.3962833E0,-1.1953086E0,-8.359169E-2,-2.072483E-1,1.5319526E0,-1.2549394E0,-1.1216356E0,-1.22254E0,3.3763808E-1,1.5695426E0,-8.285816E-2,-7.475004E-1,-1.2771513E0,-1.2205111E0,-1.0677105E0,-1.4638121E0,-6.6873646E-1,4.6806216E-1,-8.486033E-2,1.290027E0,1.6246525E0,-1.2622967E0,-1.9408964E-1,-1.3932803E0,-1.197585E0,-1.4992089E0,-1.2040778E0,-1.0741509E0,-4.0556806E-1,-1.5210212E0,-1.2978015E0,-9.850506E-1,3.0240425E-1,2.5464857E-1,1.0816413E0,1.1801298E0,1.5240413E0,1.7130053E0,1.3879054E0,-6.969985E-2,-5.0087035E-2,-1.785645E-2,3.9874822E-2,-7.394475E-2,-5.7187136E-2,-6.893306E-2,-5.9475947E-2,-8.446122E-2,-7.136795E-2,-6.27886E-2,-5.838871E-2,-5.547563E-2,-5.137905E-2,-2.4051582E-2,5.970328E-3,-6.989372E-2,-8.0232635E-2,-3.5416305E-2,-7.0082836E-2,-4.5369755E-2,-8.401688E-2,2.2957994E-2,-8.4471144E-2,2.8330052E-2,-2.0353157E-2,3.8909968E-2,5.9684474E-2,6.770297E-2,4.9932864E-2,7.445034E-2,7.890545E-2,7.858684E-2,8.8489845E-2,6.279502E-2,8.273637E-2],"categories":[],"categories_nodes":[],"categories_segments":[],"categories_sizes":[],"default_left":[0,0,0,0,0,0,0,0,0,0,0,0,0,0,0,0,0,0,0,0,0,0,0,0,0,0,0,0,0,0,0,0,0,0,0,0,0,0,0,0,0,0,0,0,0,0,0,0,0,0,0,0,0,0,0,0,0,0,0,0,0,0,0,0,0,0,0,0,0,0,0,0,0,0,0,0,0],"id":3,"left_children":[1,3,5,7,-1,9,11,13,15,17,19,21,-1,23,25,27,29,31,33,35,-1,37,39,41,43,45,47,49,51,53,55,57,59,61,63,65,67,69,71,73,75,-1,-1,-1,-1,-1,-1,-1,-1,-1,-1,-1,-1,-1,-1,-1,-1,-1,-1,-1,-1,-1,-1,-1,-1,-1,-1,-1,-1,-1,-1,-1,-1,-1,-1,-1,-1],"loss_changes":[1.3785568E7,3.1984E4,8.254515E5,1.8487E4,0E0,1.6374325E5,4.1938E5,2.621475E4,1.00365E4,1.3811172E4,5.1118695E4,5.3258E4,0E0,2.778896E4,2.0588E4,3.0410625E3,5.194625E3,6.8184375E2,9.636885E3,2.3702434E4,0E0,1.4642625E4,6.041E4,1.7326953E3,7.60017E3,1.9354E4,1.92975E3,5.0260156E2,1.175875E3,1.985625E3,4.6501733E2,5.491953E2,1.1291367E3,1.276127E3,2.407503E3,2.7722938E4,1.5872695E3,1.222875E4,3.423125E2,1.6871E4,2.7644125E4,0E0,0E0,0E0,0E0,0E0,0E0,0E0,0E0,0E0,0E0,0E0,0E0,0E0,0E0,0E0,0E0,0E0,0E0,0E0,0E0,0E0,0E0,0E0,0E0,0E0,0E0,0E0,0E0,0E0,0E0,0E0,0E0,0E0,0E0,0E0,0E0],"parents":[2147483647,0,0,1,1,2,2,3,3,5,5,6,6,7,7,8,8,9,9,10,10,11,11,13,13,14,14,15,15,16,16,17,17,18,18,19,19,21,21,22,22,23,23,24,24,25,25,26,26,27,27,28,28,29,29,30,30,31,31,32,32,33,33,34,34,35,35,36,36,37,37,38,38,39,39,40,40],"right_children":[2,4,6,8,-1,10,12,14,16,18,20,22,-1,24,26,28,30,32,34,36,-1,38,40,42,44,46,48,50,52,54,56,58,60,62,64,66,68,70,72,74,76,-1,-1,-1,-1,-1,-1,-1,-1,-1,-1,-1,-1,-1,-1,-1,-1,-1,-1,-1,-1,-1,-1,-1,-1,-1,-1,-1,-1,-1,-1,-1,-1,-1,-1,-1,-1],"split_conditions":[1E0,1E0,6.314707E0,1E0,-8.359169E-2,4.8202815E0,1E0,3.5767445E-1,6.661228E0,4.3075724E0,1E0,7.853888E0,-8.285816E-2,5.447398E-2,1E0,3.2672849E0,1.7676723E1,3.830596E0,5E0,5E0,-8.486033E-2,5E0,9.90274E0,1.9802628E-2,6E0,4E0,2.8836827E0,1.5195132E0,5.2607193E0,9.351046E0,5E0,2.362739E0,3.8979242E0,1E0,1E0,4E0,5.3904405E0,3E0,7.453539E0,4E0,5E0,-6.969985E-2,-5.0087035E-2,-1.785645E-2,3.9874822E-2,-7.394475E-2,-5.7187136E-2,-6.893306E-2,-5.9475947E-2,-8.446122E-2,-7.136795E-2,-6.27886E-2,-5.838871E-2,-5.547563E-2,-5.137905E-2,-2.4051582E-2,5.970328E-3,-6.989372E-2,-8.0232635E-2,-3.5416305E-2,-7.0082836E-2,-4.5369755E-2,-8.401688E-2,2.2957994E-2,-8.4471144E-2,2.8330052E-2,-2.0353157E-2,3.8909968E-2,5.9684474E-2,6.770297E-2,4.9932864E-2,7.445034E-2,7.890545E-2,7.858684E-2,8.8489845E-2,6.279502E-2,8.273637E-2],"split_indices":[1,4,0,2,0,0,9,0,0,0,9,0,0,0,3,0,0,0,7,7,0,7,0,0,7,7,0,0,0,0,7,0,0,9,9,7,0,7,0,10,7,0,0,0,0,0,0,0,0,0,0,0,0,0,0,0,0,0,0,0,0,0,0,0,0,0,0,0,0,0,0,0,0,0,0,0,0],"split_type":[0,0,0,0,0,0,0,0,0,0,0,0,0,0,0,0,0,0,0,0,0,0,0,0,0,0,0,0,0,0,0,0,0,0,0,0,0,0,0,0,0,0,0,0,0,0,0,0,0,0,0,0,0,0,0,0,0,0,0,0,0,0,0,0,0,0,0,0,0,0,0,0,0,0,0,0,0],"sum_hessian":[8.1484925E6,4.354188E6,3.7943048E6,4.2084535E6,1.4573455E5,2.9598116E5,3.4983235E6,2.325874E6,1.8825796E6,1.0336988E5,1.9261128E5,3.4575695E6,4.0753883E4,9.754137E4,2.2283325E6,6.643765E5,1.218203E6,7.200031E4,3.136957E4,1.8101014E5,1.1601138E4,5.694347E5,2.888135E6,5.0533027E4,4.7008336E4,9.05995E5,1.3223376E6,3.698823E4,6.2738825E5,1.2064675E6,1.1735536E4,5.3541223E4,1.845909E4,2.3662385E4,7.7071846E3,1.3429975E5,4.6710387E4,3.8747525E5,1.8195944E5,2.1032188E6,7.849161E5,3.356363E4,1.69694E4,4.0371055E4,6.6372827E3,6.745549E5,2.3144012E5,5.6384836E4,1.2659528E6,1.0142561E4,2.6845668E4,2.5881648E5,3.685718E5,6.857435E5,5.20724E5,1.0260678E4,1.474859E3,2.1661873E4,3.1879352E4,2.7661914E3,1.5692897E4,2.128716E4,2.375225E3,7.1455996E3,5.61585E2,9.127152E4,4.3028227E4,1.2598858E4,3.4111527E4,1.9784608E5,1.8962916E5,1.1043123E5,7.15282E4,6.030839E5,1.5001349E6,5.2512606E5,2.5979006E5],"tree_param":{"num_deleted":"0","num_feature":"11","num_nodes":"77","size_leaf_vector":"1"}},{"base_weights":[-2.3933272E-3,-8.345843E-1,4.3210992E-1,-1.040964E0,-3.7860182E-1,6.3167715E-1,-1.1343015E0,-1.187095E0,-8.437167E-1,-1.6654196E-1,-1.1615745E0,4.0609372E-1,1.2412032E0,-1.1874686E0,-1.0582507E0,-1.5163703E0,-1.1077796E0,-7.356727E-1,-1.1343759E0,-3.4449983E-1,4.5359924E-1,-1.0081484E0,-1.2142239E0,6.7383534E-1,-1.2045552E-1,1.3483115E0,9.434527E-1,-1.1378185E0,-1.2893287E0,-1.041275E0,-8.328663E-2,-1.5716332E0,-1.3427554E0,-1.1613703E0,-7.2200614E-1,-8.3962214E-1,-2.792444E-1,-1.0810281E0,-1.3037564E0,-1.3596658E-1,-5.0087947E-1,4.7239554E-1,-8.0345705E-2,-1.100226E0,-4.6274817E-1,-1.2352692E0,-7.4912804E-1,2.0193341E-1,8.6229444E-1,3.3365315E-1,-4.149913E-1,9.5894545E-1,1.4596709E0,9.563354E-1,-8.032254E-2,-1.2078434E0,-1.0599129E0,-1.6060085E0,-1.2404214E0,-8.6913186E-1,-1.0904279E0,-7.97915E-2,-7.5555936E-2,-5.5938046E-2,-7.528454E-2,-6.580769E-2,-5.416074E-2,-5.977366E-2,-2.0650586E-2,-3.2399286E-2,-4.8930097E-2,-1.2919068E-2,-8.3304934E-2,-6.916564E-2,-5.132113E-2,-7.010019E-2,-5.9867274E-2,-5.8143605E-3,-8.017868E-2,-6.250774E-2,-2.1782694E-2,1.570466E-2,2.9212711E-2,-8.185663E-2,-5.251637E-2,-1.4766866E-2,-8.2859784E-2,-8.31118E-2,-6.0969938E-2,-5.5378705E-2,4.4793107E-2,2.1574745E-2,1.0050725E-3,5.7111114E-2,2.9426614E-2,1.978149E-2,-1.0615087E-2,-6.556494E-2,-1.33628175E-2,4.8600167E-2,-8.031571E-2,7.339483E-2,-8.034023E-2,4.3184407E-2,5.689735E-2,-6.412203E-2,-5.230997E-2,-4.5526188E-2,-5.725613E-2,-8.322126E-2,-4.9414713E-2,-6.3603245E-2,-4.3988876E-2,-4.845771E-2,-1.4814608E-2,-5.7415754E-2,-4.7070995E-2],"categories":[],"categories_nodes":[],"categories_segments":[],"categories_sizes":[],"default_left":[0,0,0,0,0,0,0,0,0,0,0,0,0,0,0,0,0,0,0,0,0,0,0,0,0,0,0,0,0,0,0,0,0,0,0,0,0,0,0,0,0,0,0,0,0,0,0,0,0,0,0,0,0,0,0,0,0,0,0,0,0,0,0,0,0,0,0,0,0,0,0,0,0,0,0,0,0,0,0,0,0,0,0,0,0,0,0,0,0,0,0,0,0,0,0,0,0,0,0,0,0,0,0,0,0,0,0,0,0,0,0,0,0,0,0,0,0],"id":4,"left_children":[1,3,5,7,9,11,13,15,17,19,21,23,25,27,29,31,33,35,37,39,41,43,45,47,49,51,53,55,57,59,-1,61,63,65,67,69,71,73,75,77,79,81,-1,83,85,87,89,91,93,95,97,99,101,103,-1,105,107,109,111,113,115,-1,-1,-1,-1,-1,-1,-1,-1,-1,-1,-1,-1,-1,-1,-1,-1,-1,-1,-1,-1,-1,-1,-1,-1,-1,-1,-1,-1,-1,-1,-1,-1,-1,-1,-1,-1,-1,-1,-1,-1,-1,-1,-1,-1,-1,-1,-1,-1,-1,-1,-1,-1,-1,-1,-1,-1],"loss_changes":[2.9147202E6,2.602055E5,1.6554932E6,5.486575E4,1.4304697E5,6.458796E5,2.4185E3,2.8555E4,2.543875E4,7.481576E4,1.4819375E3,4.8334425E5,4.046475E4,1.7798438E3,2.5376875E3,2.034375E3,1.82165E4,2.8019062E4,1.9821562E3,1.7177992E4,5.8553105E3,2.3555547E3,1.3370625E3,2.0212931E5,1.54574E5,4.046075E4,1.1028906E4,1.2905625E3,1.7855312E3,2.0260312E3,0E0,2.333125E2,1.8689922E3,9.3581875E3,1.5724105E4,1.2810375E4,3.1692686E3,2.7542656E3,5.4797656E2,6.5195977E3,1.4711195E4,2.6523516E3,0E0,1.0736211E3,1.3549116E3,8.84125E2,3.4917446E3,2.7074885E4,1.24465375E5,1.5384676E4,9.28242E4,6.953422E3,1.8305625E4,5.6189375E3,0E0,1.5023281E3,1.4259453E3,5.55375E2,1.1398438E3,3.0486875E3,1.60625E3,0E0,0E0,0E0,0E0,0E0,0E0,0E0,0E0,0E0,0E0,0E0,0E0,0E0,0E0,0E0,0E0,0E0,0E0,0E0,0E0,0E0,0E0,0E0,0E0,0E0,0E0,0E0,0E0,0E0,0E0,0E0,0E0,0E0,0E0,0E0,0E0,0E0,0E0,0E0,0E0,0E0,0E0,0E0,0E0,0E0,0E0,0E0,0E0,0E0,0E0,0E0,0E0,0E0,0E0,0E0,0E0],"parents":[2147483647,0,0,1,1,2,2,3,3,4,4,5,5,6,6,7,7,8,8,9,9,10,10,11,11,12,12,13,13,14,14,15,15,16,16,17,17,18,18,19,19,20,20,21,21,22,22,23,23,24,24,25,25,26,26,27,27,28,28,29,29,31,31,32,32,33,33,34,34,35,35,36,36,37,37,38,38,39,39,40,40,41,41,43,43,44,44,45,45,46,46,47,47,48,48,49,49,50,50,51,51,52,52,53,53,55,55,56,56,57,57,58,58,59,59,60,60],"right_children":[2,4,6,8,10,12,14,16,18,20,22,24,26,28,30,32,34,36,38,40,42,44,46,48,50,52,54,56,58,60,-1,62,64,66,68,70,72,74,76,78,80,82,-1,84,86,88,90,92,94,96,98,100,102,104,-1,106,108,110,112,114,116,-1,-1,-1,-1,-1,-1,-1,-1,-1,-1,-1,-1,-1,-1,-1,-1,-1,-1,-1,-1,-1,-1,-1,-1,-1,-1,-1,-1,-1,-1,-1,-1,-1,-1,-1,-1,-1,-1,-1,-1,-1,-1,-1,-1,-1,-1,-1,-1,-1,-1,-1,-1,-1,-1,-1,-1],"split_conditions":[7.309821E0,6.314707E0,1E0,5.09614E0,1E0,5E0,9.39143E0,1E0,1E0,5E0,6.568331E0,9.90274E0,9.90274E0,8.606053E0,1.4133307E1,4.2023015E0,1E0,5E0,1.7E1,3E0,1E0,6.5373144E0,2.3E1,8.180973E0,3E0,8.120056E0,1E0,7.971179E0,8.71957E0,9.725413E0,-8.328663E-2,4E0,1E0,3.6149638E0,5.447398E-2,3E0,1E0,1E0,4E0,1E0,1E0,1.1E1,-8.0345705E-2,1E0,5E0,6.599285E0,6E0,3E0,3E0,2E1,1E0,1E0,1E0,1.30555105E1,-8.032254E-2,1.6E1,3E0,2.2E1,6E0,9.682776E0,1.7E1,-7.97915E-2,-7.5555936E-2,-5.5938046E-2,-7.528454E-2,-6.580769E-2,-5.416074E-2,-5.977366E-2,-2.0650586E-2,-3.2399286E-2,-4.8930097E-2,-1.2919068E-2,-8.3304934E-2,-6.916564E-2,-5.132113E-2,-7.010019E-2,-5.9867274E-2,-5.8143605E-3,-8.017868E-2,-6.250774E-2,-2.1782694E-2,1.570466E-2,2.9212711E-2,-8.185663E-2,-5.251637E-2,-1.4766866E-2,-8.2859784E-2,-8.31118E-2,-6.0969938E-2,-5.5378705E-2,4.4793107E-2,2.1574745E-2,1.0050725E-3,5.7111114E-2,2.9426614E-2,1.978149E-2,-1.0615087E-2,-6.556494E-2,-1.33628175E-2,4.8600167E-2,-8.031571E-2,7.339483E-2,-8.034023E-2,4.3184407E-2,5.689735E-2,-6.412203E-2,-5.230997E-2,-4.5526188E-2,-5.725613E-2,-8.322126E-2,-4.9414713E-2,-6.3603245E-2,-4.3988876E-2,-4.845771E-2,-1.4814608E-2,-5.7415754E-2,-4.7070995E-2],"split_indices":[0,0,3,0,3,7,0,6,3,7,0,0,0,0,0,0,5,7,6,7,9,0,6,0,7,0,9,0,0,0,0,7,3,0,0,7,9,6,7,9,6,6,0,6,7,0,7,7,7,6,6,9,9,0,0,6,7,6,7,0,6,0,0,0,0,0,0,0,0,0,0,0,0,0,0,0,0,0,0,0,0,0,0,0,0,0,0,0,0,0,0,0,0,0,0,0,0,0,0,0,0,0,0,0,0,0,0,0,0,0,0,0,0,0,0,0,0],"split_type":[0,0,0,0,0,0,0,0,0,0,0,0,0,0,0,0,0,0,0,0,0,0,0,0,0,0,0,0,0,0,0,0,0,0,0,0,0,0,0,0,0,0,0,0,0,0,0,0,0,0,0,0,0,0,0,0,0,0,0,0,0,0,0,0,0,0,0,0,0,0,0,0,0,0,0,0,0,0,0,0,0,0,0,0,0,0,0,0,0,0,0,0,0,0,0,0,0,0,0,0,0,0,0,0,0,0,0,0,0,0,0,0,0,0,0,0,0],"sum_hessian":[8.0608485E6,2.7650432E6,5.295805E6,1.9035066E6,8.615367E5,4.6973445E6,5.9846044E5,1.093431E6,8.1007556E5,6.7792825E5,1.8360847E5,3.4284785E6,1.2688662E6,3.5221338E5,2.4624708E5,2.1225269E5,8.811784E5,5.9055706E5,2.1951853E5,5.2676606E5,1.5116217E5,4.691459E4,1.3669389E5,2.2727978E6,1.1556806E6,9.331759E5,3.3569044E5,2.3680048E5,1.1541287E5,2.3955558E5,6.691499E3,1.6099783E5,5.1254863E4,7.736965E5,1.0748187E5,4.810087E5,1.0954836E5,1.6694506E5,5.257347E4,2.2574094E5,3.0102512E5,1.4979648E5,1.3656937E3,4.0137344E4,6.777243E3,1.3077475E5,5.919139E3,6.486296E5,1.6241681E6,4.5467412E5,7.0100656E5,2.0753669E5,7.256392E5,3.340036E5,1.6868369E3,1.2470002E5,1.1210046E5,1.5435387E4,9.9977484E4,5.3212777E4,1.863428E5,1.1499268E5,4.600515E4,2.1586635E4,2.9668227E4,2.5958455E5,5.1411194E5,4.2443508E4,6.5038355E4,2.0220202E5,2.788067E5,1.0792598E5,1.6223898E3,2.5539445E4,1.4140562E5,2.7328936E4,2.5244533E4,2.2275505E5,2.9858774E3,2.4104773E4,2.7692038E5,6.202398E4,8.77725E4,3.4103547E3,3.6726992E4,5.9452227E3,8.3202057E2,4.68301E3,1.2609174E5,4.860381E3,1.0587582E3,2.8668747E5,3.6194216E5,8.030394E5,8.2112875E5,4.083218E5,4.6352293E4,9.919328E4,6.0181325E5,2.0648623E5,1.0504523E3,7.2369844E5,1.9407415E3,2.2117773E5,1.1282585E5,8.531914E4,3.9380883E4,4.0720734E4,7.137973E4,1.4100247E4,1.3351392E3,9.191055E4,8.066935E3,4.5302004E4,7.9107744E3,1.3420111E5,5.2141695E4],"tree_param":{"num_deleted":"0","num_feature":"11","num_nodes":"117","size_leaf_vector":"1"}},{"base_weights":[4.937095E-4,3.25007E-1,-1.0770601E0,7.0504576E-1,-1.1119342E0,-1.2573228E0,-1.0530798E0,-7.5604033E-1,1.0084369E0,-1.4320271E0,-1.0580716E0,-7.9679966E-2,-1.2375487E0,-1.0574137E0,-4.3561107E-1,-1.1026558E0,-2.4544215E-1,1.059984E0,-1.6234864E0,-1.5064735E0,-1.3403484E0,-9.58475E-1,-1.0843751E0,-1.2159041E0,-1.3508153E0,-1.0835285E0,-1.0010209E0,4.0084325E-2,-6.166613E-1,-1.2010146E0,-5.192819E-1,-4.5351818E-1,5.0676167E-1,-2.7775759E-1,1.1450698E0,-1.6194876E0,-8.2436666E-2,-1.5405564E0,-1.4720448E0,-1.3806493E0,-1.1787193E0,-9.9579877E-1,-6.286156E-1,-9.5989454E-1,-1.1081127E0,-1.2571379E0,-7.8261876E-1,-1.3942649E0,-5.054908E-1,-1.0532349E0,-1.1238235E0,-9.4098645E-1,-1.1855674E0,1.279567E-1,-8.732941E-2,-8.496377E-2,-4.1915894E-1,-3.8548622E-2,-6.506904E-2,-1.9922463E-2,-7.930068E-2,-1.8220233E-2,-7.9510584E-2,3.0830815E-2,-8.0281086E-2,-3.359234E-2,5.3240914E-2,4.940108E-2,7.4117295E-2,-8.157671E-2,-8.060216E-2,-7.865784E-2,-7.141566E-2,-6.661472E-2,-7.753031E-2,-4.534534E-2,-7.001596E-2,-1.241546E-2,-6.29418E-2,-4.8113737E-2,-6.2649466E-2,-2.3477623E-2,-6.2318366E-2,-5.0110567E-2,-4.0875833E-2,-7.262453E-2,-5.5037655E-2,-5.751401E-2,-6.5938435E-2,-5.5737834E-2,-2.4316488E-2,-5.5853665E-2,-7.681262E-2,-8.10281E-2,-1.6687479E-3,-5.328959E-2,-3.7721984E-2,-5.534355E-2,-6.819438E-2,-4.8612054E-2,-3.8914796E-2,-5.764035E-2,-8.5859254E-2,-1.3203412E-2,4.1262563E-2,-3.5074E-2,3.982257E-3],"categories":[],"categories_nodes":[],"categories_segments":[],"categories_sizes":[],"default_left":[0,0,0,0,0,0,0,0,0,0,0,0,0,0,0,0,0,0,0,0,0,0,0,0,0,0,0,0,0,0,0,0,0,0,0,0,0,0,0,0,0,0,0,0,0,0,0,0,0,0,0,0,0,0,0,0,0,0,0,0,0,0,0,0,0,0,0,0,0,0,0,0,0,0,0,0,0,0,0,0,0,0,0,0,0,0,0,0,0,0,0,0,0,0,0,0,0,0,0,0,0,0,0,0,0,0,0],"id":5,"left_children":[1,3,5,7,9,11,13,15,17,19,21,-1,23,25,27,29,31,33,35,37,39,41,43,45,47,49,51,53,55,57,59,61,63,65,67,69,-1,71,73,75,77,79,81,83,85,87,89,91,93,95,97,99,101,103,-1,-1,105,-1,-1,-1,-1,-1,-1,-1,-1,-1,-1,-1,-1,-1,-1,-1,-1,-1,-1,-1,-1,-1,-1,-1,-1,-1,-1,-1,-1,-1,-1,-1,-1,-1,-1,-1,-1,-1,-1,-1,-1,-1,-1,-1,-1,-1,-1,-1,-1,-1,-1],"loss_changes":[2.808759E6,3.3711665E6,8.03525E3,2.164118E6,2.226E4,1.4494688E3,4.3905E3,1.4856469E5,5.4845475E5,1.2673125E3,2.894375E3,0E0,5.0375E2,2.398375E3,9.851223E2,2.8689938E4,5.3126254E4,4.51303E5,5.1875E0,1.18140625E2,5.413125E2,2.8423281E3,2.5824375E3,3.0915E3,1.2137773E3,1.358125E3,5.7129375E3,4.954226E2,1.7707515E3,1.8466562E4,9.298197E3,2.6931832E4,1.7068412E4,1.25452875E5,1.974575E5,3.375E0,0E0,1.8638281E2,5.586953E2,6.2034375E2,1.2401875E3,1.7873594E3,2.3061035E3,8.42875E2,1.8593125E3,1.0393281E3,1.4798799E3,1.2360391E3,8.517669E2,2.3845E3,1.9435E3,1.978E3,2.2027188E3,8.2226404E2,0E0,0E0,9.869397E2,0E0,0E0,0E0,0E0,0E0,0E0,0E0,0E0,0E0,0E0,0E0,0E0,0E0,0E0,0E0,0E0,0E0,0E0,0E0,0E0,0E0,0E0,0E0,0E0,0E0,0E0,0E0,0E0,0E0,0E0,0E0,0E0,0E0,0E0,0E0,0E0,0E0,0E0,0E0,0E0,0E0,0E0,0E0,0E0,0E0,0E0,0E0,0E0,0E0,0E0],"parents":[2147483647,0,0,1,1,2,2,3,3,4,4,5,5,6,6,7,7,8,8,9,9,10,10,12,12,13,13,14,14,15,15,16,16,17,17,18,18,19,19,20,20,21,21,22,22,23,23,24,24,25,25,26,26,27,27,28,28,29,29,30,30,31,31,32,32,33,33,34,34,35,35,37,37,38,38,39,39,40,40,41,41,42,42,43,43,44,44,45,45,46,46,47,47,48,48,49,49,50,50,51,51,52,52,53,53,56,56],"right_children":[2,4,6,8,10,12,14,16,18,20,22,-1,24,26,28,30,32,34,36,38,40,42,44,46,48,50,52,54,56,58,60,62,64,66,68,70,-1,72,74,76,78,80,82,84,86,88,90,92,94,96,98,100,102,104,-1,-1,106,-1,-1,-1,-1,-1,-1,-1,-1,-1,-1,-1,-1,-1,-1,-1,-1,-1,-1,-1,-1,-1,-1,-1,-1,-1,-1,-1,-1,-1,-1,-1,-1,-1,-1,-1,-1,-1,-1,-1,-1,-1,-1,-1,-1,-1,-1,-1,-1,-1,-1],"split_conditions":[1E0,1E0,4.9609547E0,6.4103065E0,1E0,1.9300711E0,1.7676723E1,4.9264565E0,1E0,5.0629115E0,5.2940083E0,-7.9679966E-2,4.7834E0,9.351046E0,4E0,5E0,5E0,1E0,5E0,4E0,9.39143E0,5.162326E0,1E0,4.7060103E0,2.3E1,4E0,1.2645551E1,5E0,8E0,3.5767445E-1,1E0,1E0,1E0,4E0,5E0,3E0,-8.2436666E-2,4.404766E0,5E0,5.1286554E0,9.473565E0,2.1E1,1.8E1,9.556993E0,5.4230537E0,3E0,1.2E1,7E0,4.8561625E0,2.3E1,8.950116E0,2E1,6E0,4E0,-8.732941E-2,-8.496377E-2,1.9E1,-3.8548622E-2,-6.506904E-2,-1.9922463E-2,-7.930068E-2,-1.8220233E-2,-7.9510584E-2,3.0830815E-2,-8.0281086E-2,-3.359234E-2,5.3240914E-2,4.940108E-2,7.4117295E-2,-8.157671E-2,-8.060216E-2,-7.865784E-2,-7.141566E-2,-6.661472E-2,-7.753031E-2,-4.534534E-2,-7.001596E-2,-1.241546E-2,-6.29418E-2,-4.8113737E-2,-6.2649466E-2,-2.3477623E-2,-6.2318366E-2,-5.0110567E-2,-4.0875833E-2,-7.262453E-2,-5.5037655E-2,-5.751401E-2,-6.5938435E-2,-5.5737834E-2,-2.4316488E-2,-5.5853665E-2,-7.681262E-2,-8.10281E-2,-1.6687479E-3,-5.328959E-2,-3.7721984E-2,-5.534355E-2,-6.819438E-2,-4.8612054E-2,-3.8914796E-2,-5.764035E-2,-8.5859254E-2,-1.3203412E-2,4.1262563E-2,-3.5074E-2,3.982257E-3],"split_indices":[2,3,0,0,6,0,0,0,4,0,0,0,0,0,6,7,7,6,7,7,0,0,7,0,6,7,0,7,6,0,4,4,4,7,7,7,0,0,7,0,0,6,6,0,0,7,6,6,0,6,0,6,7,7,0,0,6,0,0,0,0,0,0,0,0,0,0,0,0,0,0,0,0,0,0,0,0,0,0,0,0,0,0,0,0,0,0,0,0,0,0,0,0,0,0,0,0,0,0,0,0,0,0,0,0,0,0],"split_type":[0,0,0,0,0,0,0,0,0,0,0,0,0,0,0,0,0,0,0,0,0,0,0,0,0,0,0,0,0,0,0,0,0,0,0,0,0,0,0,0,0,0,0,0,0,0,0,0,0,0,0,0,0,0,0,0,0,0,0,0,0,0,0,0,0,0,0,0,0,0,0,0,0,0,0,0,0,0,0,0,0,0,0,0,0,0,0,0,0,0,0,0,0,0,0,0,0,0,0,0,0,0,0,0,0,0,0],"sum_hessian":[8.032356E6,6.17324E6,1.8591161E6,4.882048E6,1.291192E6,2.1827316E5,1.640843E6,8.394382E5,4.0426098E6,1.8597258E5,1.1052194E6,1.2117844E4,2.0615531E5,1.6294059E6,1.143703E4,5.0000956E5,3.3942862E5,3.9649555E6,7.765441E4,1.0262337E5,8.33492E4,2.3091412E5,8.7430525E5,1.7309038E5,3.3064945E4,1.1136629E6,5.1574306E5,3.1531511E3,8.28388E3,4.2786844E5,7.214114E4,2.6588062E5,7.3548E4,2.3710628E5,3.7278492E6,6.709312E4,1.0561287E4,5.1548754E4,5.1074617E4,6.6708414E4,1.6640787E4,2.0744012E5,2.347399E4,1.4002928E5,7.3427594E5,1.5804778E5,1.5042585E4,3.1447875E4,1.6170698E3,6.357424E5,4.7792053E5,3.8915406E5,1.26588984E5,3.0062268E3,1.4692429E2,1.2769028E3,7.0069766E3,8.0964766E4,3.4690366E5,6.480214E4,7.339004E3,2.4655292E5,1.9327723E4,6.991288E4,3.6351165E3,1.8330181E5,5.380447E4,2.5435032E6,1.1843459E6,2.5542365E4,4.1550754E4,3.9936414E4,1.1612339E4,1.8386086E4,3.2688531E4,2.6611877E3,6.4047227E4,1.3196415E3,1.5321146E4,1.8352314E5,2.3916984E4,1.866878E4,4.8052114E3,1.0794148E5,3.2087805E4,1.5359734E4,7.1891625E5,5.7818906E4,1.0022888E5,7.0909336E3,7.951652E3,1.0655256E4,2.079262E4,4.8028107E2,1.1367888E3,6.101007E5,2.564167E4,4.464026E5,3.1517932E4,3.26437E5,6.2717074E4,1.1924387E5,7.345116E3,1.9247418E3,1.081485E3,4.4741943E3,2.5327822E3],"tree_param":{"num_deleted":"0","num_feature":"11","num_nodes":"107","size_leaf_vector":"1"}},{"base_weights":[-4.1284232E-4,-1.1167117E0,1.2659513E0,-1.13139E0,-6.24001E-1,-3.8095015E-1,1.3703506E0,-1.1162114E0,-1.5626745E0,-1.0836353E0,-3.1609008E-1,-1.1065261E0,2.0228751E-1,9.527272E-1,1.4254262E0,-1.3423566E0,-1.0842719E0,-7.75137E-2,-1.5776203E0,-6.8235093E-1,-1.2327191E0,3.29522E-2,-8.932827E-1,-1.3092084E0,-6.336099E-1,-2.8520962E-2,8.584812E-1,8.087521E-1,1.273664E0,1.4975134E0,1.2120881E0,-1.4799126E0,-1.289464E0,-1.04051E0,-1.1060348E0,-7.936051E-2,-1.5685738E0,-1.1545849E0,-4.873218E-1,-1.1678821E0,-1.4325827E0,-2.1455272E-1,7.8718895E-1,-1.161341E0,-5.5717117E-1,-1.3737189E0,-1.1245786E0,-9.7950697E-1,3.6700892E-1,2.6913953E-1,-6.580063E-1,5.4201716E-1,9.692502E-1,1.02592E0,6.013169E-1,1.146985E0,1.3172314E0,1.3469691E0,1.5816947E0,1.094189E0,1.4582678E0,-7.5619794E-2,-6.98729E-2,-5.489075E-2,-6.690886E-2,-5.2104134E-2,-2.960576E-2,-5.7848252E-2,-5.3744603E-2,-7.821601E-2,-7.980344E-2,-8.065957E-2,-1.7299253E-2,1.0795767E-2,-3.670625E-2,-6.863904E-2,-5.1590282E-2,-8.207037E-2,-6.438368E-2,-2.510632E-2,1.8159967E-3,4.7246445E-2,-6.1774626E-3,-6.660994E-2,-4.3744374E-2,-6.4026914E-3,-4.394554E-2,-6.4391345E-2,-7.421945E-2,-6.401063E-2,-1.281541E-2,-3.209078E-2,-6.8439566E-2,4.95328E-2,9.466178E-3,1.50765395E-2,-8.990774E-2,-8.64515E-2,-2.7463505E-2,9.898382E-3,4.9060963E-2,7.050098E-2,4.5691643E-2,5.352639E-2,2.8940586E-2,8.252142E-3,3.900822E-2,4.7134586E-2,6.218446E-2,5.952338E-2,6.6815145E-2,6.460919E-2,7.258122E-2,7.975085E-2,7.112464E-2,6.420275E-2,4.5175225E-2,7.0728295E-2,7.707354E-2],"categories":[],"categories_nodes":[],"categories_segments":[],"categories_sizes":[],"default_left":[0,0,0,0,0,0,0,0,0,0,0,0,0,0,0,0,0,0,0,0,0,0,0,0,0,0,0,0,0,0,0,0,0,0,0,0,0,0,0,0,0,0,0,0,0,0,0,0,0,0,0,0,0,0,0,0,0,0,0,0,0,0,0,0,0,0,0,0,0,0,0,0,0,0,0,0,0,0,0,0,0,0,0,0,0,0,0,0,0,0,0,0,0,0,0,0,0,0,0,0,0,0,0,0,0,0,0,0,0,0,0,0,0,0,0,0,0,0,0],"id":6,"left_children":[1,3,5,7,9,11,13,15,17,19,21,23,25,27,29,31,33,-1,35,37,39,41,43,45,47,49,51,53,55,57,59,61,63,65,67,-1,69,71,73,75,77,79,81,83,85,87,89,91,93,95,97,99,101,103,105,107,109,111,113,115,117,-1,-1,-1,-1,-1,-1,-1,-1,-1,-1,-1,-1,-1,-1,-1,-1,-1,-1,-1,-1,-1,-1,-1,-1,-1,-1,-1,-1,-1,-1,-1,-1,-1,-1,-1,-1,-1,-1,-1,-1,-1,-1,-1,-1,-1,-1,-1,-1,-1,-1,-1,-1,-1,-1,-1,-1,-1,-1],"loss_changes":[1.1257557E7,3.061E4,6.41488E5,2.69045E4,1.7328855E4,9.412189E4,8.06985E4,2.8676E4,2.346875E1,2.9377578E3,1.4772613E4,9.4993125E3,1.86747E4,1.8888281E4,4.7669E4,3.573E3,3.31225E3,0E0,3E0,1.225083E3,4.6241016E2,8.530345E3,2.4889434E3,8.2477344E2,1.0292377E4,1.7091986E4,1.1241816E3,1.2712109E4,6.971875E2,2.93605E4,2.2721125E4,3.63375E2,3.3118125E3,8.1425E2,3.684E3,0E0,1.328125E0,1.4415674E3,1.6350945E3,7.526875E2,2.6320703E2,2.482184E3,1.6220684E3,7.511543E2,1.6927979E3,4.8678125E2,2.4279434E3,2.904043E3,8.463618E2,4.1477324E3,3.4096602E3,1.2571489E3,5.7919336E2,2.7490469E3,1.1262074E4,6.390156E2,2.26125E2,4.762125E3,3.14925E3,1.9164375E4,9.19625E2,0E0,0E0,0E0,0E0,0E0,0E0,0E0,0E0,0E0,0E0,0E0,0E0,0E0,0E0,0E0,0E0,0E0,0E0,0E0,0E0,0E0,0E0,0E0,0E0,0E0,0E0,0E0,0E0,0E0,0E0,0E0,0E0,0E0,0E0,0E0,0E0,0E0,0E0,0E0,0E0,0E0,0E0,0E0,0E0,0E0,0E0,0E0,0E0,0E0,0E0,0E0,0E0,0E0,0E0,0E0,0E0,0E0,0E0],"parents":[2147483647,0,0,1,1,2,2,3,3,4,4,5,5,6,6,7,7,8,8,9,9,10,10,11,11,12,12,13,13,14,14,15,15,16,16,18,18,19,19,20,20,21,21,22,22,23,23,24,24,25,25,26,26,27,27,28,28,29,29,30,30,31,31,32,32,33,33,34,34,36,36,37,37,38,38,39,39,40,40,41,41,42,42,43,43,44,44,45,45,46,46,47,47,48,48,49,49,50,50,51,51,52,52,53,53,54,54,55,55,56,56,57,57,58,58,59,59,60,60],"right_children":[2,4,6,8,10,12,14,16,18,20,22,24,26,28,30,32,34,-1,36,38,40,42,44,46,48,50,52,54,56,58,60,62,64,66,68,-1,70,72,74,76,78,80,82,84,86,88,90,92,94,96,98,100,102,104,106,108,110,112,114,116,118,-1,-1,-1,-1,-1,-1,-1,-1,-1,-1,-1,-1,-1,-1,-1,-1,-1,-1,-1,-1,-1,-1,-1,-1,-1,-1,-1,-1,-1,-1,-1,-1,-1,-1,-1,-1,-1,-1,-1,-1,-1,-1,-1,-1,-1,-1,-1,-1,-1,-1,-1,-1,-1,-1,-1,-1,-1,-1],"split_conditions":[1E0,1E0,5.904844E0,1E0,5.447398E-2,4.8202815E0,7.424696E0,1E0,7.309821E0,2E0,3.5767445E-1,4.3075724E0,5E0,5E0,9.90274E0,4.1461463E0,3E0,-7.75137E-2,9.90274E0,6E0,1.7E1,5E0,1.3E1,3.830596E0,5E0,4E0,8E0,3E0,6.5373144E0,4E0,5E0,4E0,3E0,1.7676723E1,4E0,-7.936051E-2,5E0,1.9802628E-2,9E0,6.814727E-3,2E1,1.4842E-1,1.8E1,4E0,1.7E1,2.8836827E0,2.1E1,1.1E1,4.404766E0,5.8727655E0,3E0,5.583421E0,9E0,2E1,6.5373144E0,1E1,4E0,5E0,2E1,3E0,1.30555105E1,-7.5619794E-2,-6.98729E-2,-5.489075E-2,-6.690886E-2,-5.2104134E-2,-2.960576E-2,-5.7848252E-2,-5.3744603E-2,-7.821601E-2,-7.980344E-2,-8.065957E-2,-1.7299253E-2,1.0795767E-2,-3.670625E-2,-6.863904E-2,-5.1590282E-2,-8.207037E-2,-6.438368E-2,-2.510632E-2,1.8159967E-3,4.7246445E-2,-6.1774626E-3,-6.660994E-2,-4.3744374E-2,-6.4026914E-3,-4.394554E-2,-6.4391345E-2,-7.421945E-2,-6.401063E-2,-1.281541E-2,-3.209078E-2,-6.8439566E-2,4.95328E-2,9.466178E-3,1.50765395E-2,-8.990774E-2,-8.64515E-2,-2.7463505E-2,9.898382E-3,4.9060963E-2,7.050098E-2,4.5691643E-2,5.352639E-2,2.8940586E-2,8.252142E-3,3.900822E-2,4.7134586E-2,6.218446E-2,5.952338E-2,6.6815145E-2,6.460919E-2,7.258122E-2,7.975085E-2,7.112464E-2,6.420275E-2,4.5175225E-2,7.0728295E-2,7.707354E-2],"split_indices":[1,5,0,4,0,0,0,6,0,7,0,0,7,7,0,0,7,0,0,6,6,7,6,0,7,7,6,7,0,10,7,7,7,0,7,0,7,0,6,0,6,0,6,7,6,0,6,6,0,0,6,0,6,6,0,6,6,7,6,7,0,0,0,0,0,0,0,0,0,0,0,0,0,0,0,0,0,0,0,0,0,0,0,0,0,0,0,0,0,0,0,0,0,0,0,0,0,0,0,0,0,0,0,0,0,0,0,0,0,0,0,0,0,0,0,0,0,0,0],"split_type":[0,0,0,0,0,0,0,0,0,0,0,0,0,0,0,0,0,0,0,0,0,0,0,0,0,0,0,0,0,0,0,0,0,0,0,0,0,0,0,0,0,0,0,0,0,0,0,0,0,0,0,0,0,0,0,0,0,0,0,0,0,0,0,0,0,0,0,0,0,0,0,0,0,0,0,0,0,0,0,0,0,0,0,0,0,0,0,0,0,0,0,0,0,0,0,0,0,0,0,0,0,0,0,0,0,0,0,0,0,0,0,0,0,0,0,0,0,0,0],"sum_hessian":[7.963517E6,4.2325385E6,3.7309788E6,4.1100945E6,1.22443945E5,2.2241252E5,3.5085662E6,3.9703655E6,1.3972895E5,4.9119E4,7.3324945E4,9.9111766E4,1.2330075E5,4.0879653E5,3.0997698E6,4.9135062E5,3.4790148E6,7.6424484E4,6.330446E4,1.3306864E4,3.5812137E4,4.5693766E4,2.763118E4,6.937659E4,2.9735168E4,9.121714E4,3.208361E4,2.8220178E5,1.2659473E5,2.316886E6,7.828839E5,1.364533E5,3.5489734E5,1.1555078E6,2.323507E6,3.0644443E4,3.2660018E4,3.8879216E3,9.418942E3,2.7045328E4,8.76681E3,3.440454E4,1.128923E4,1.5370403E4,1.2260775E4,5.1407992E4,1.7968604E4,2.2096725E4,7.638444E3,6.1932234E4,2.9284906E4,8.319866E3,2.3763742E4,1.3786464E5,1.4433716E5,3.240357E4,9.419116E4,8.309274E5,1.4859585E6,5.2936744E5,2.5351644E5,9.787705E4,3.8576254E4,7.193036E4,2.8296697E5,1.151468E6,4.0396987E3,8.816443E5,1.4418628E6,2.8334398E4,4.32562E3,2.480234E3,1.4076879E3,2.446902E3,6.9720405E3,1.0789631E4,1.6255697E4,3.587142E3,5.179667E3,1.6029278E4,1.8375258E4,9.622564E3,1.6666661E3,9.625521E3,5.7448813E3,5.254299E3,7.0064766E3,2.8951277E4,2.2456713E4,1.5236966E4,2.731638E3,1.1833873E4,1.0262852E4,1.692714E3,5.94573E3,6.0977664E4,9.545701E2,2.6977605E3,2.6587146E4,4.666112E3,3.653754E3,2.6513586E3,2.1112385E4,1.253565E5,1.2508141E4,4.1966785E4,1.0237037E5,1.0414037E4,2.1989533E4,1.2326043E4,8.186512E4,5.454215E5,2.8550594E5,1.3712052E6,1.1475329E5,2.6525025E5,2.6411722E5,1.662254E5,8.729103E4],"tree_param":{"num_deleted":"0","num_feature":"11","num_nodes":"119","size_leaf_vector":"1"}},{"base_weights":[-4.2831157E-3,2.9536933E-1,-1.0064176E0,6.425035E-1,-1.0306702E0,-1.0853986E0,-9.6586055E-1,-7.206706E-1,9.221177E-1,-1.3353288E0,-9.798833E-1,-9.8423743E-1,-1.1215396E0,-9.7154933E-1,-3.7009254E-1,-1.1127667E0,-2.9337204E-1,9.68857E-1,-1.5314342E0,-1.4344847E0,-1.2154635E0,-9.3270123E-1,-1.0415344E0,-1.4207389E0,-9.629757E-1,-1.3533294E0,-1.09611E0,-9.596566E-1,-1.0659897E0,-1.9299506E-3,-7.957098E-1,-1.2592405E0,-7.180288E-1,-4.6975744E-1,3.678026E-1,-2.7691707E-1,1.0477645E0,-1.5281771E0,-7.759284E-2,-1.3708881E0,-1.4529333E0,-1.1991415E0,-7.6349795E-2,-8.588365E-1,-9.7046953E-1,-9.358335E-1,-1.0678135E0,-7.704326E-2,-1.2409137E0,-2.1075015E-1,-9.9032897E-1,-1.2442418E0,-1.4621873E0,-1.0872649E0,-1.4210112E0,-9.874457E-1,-8.602861E-1,-1.1346611E0,-9.517951E-1,-4.855984E-1,5.2308184E-1,-1.3438209E0,-9.011223E-2,-6.918687E-2,-4.9373962E-2,-5.802235E-2,-2.0596262E-2,-1.9426167E-2,-7.5236715E-2,2.3586472E-2,-7.569002E-2,-3.2980774E-2,4.93352E-2,4.4878047E-2,6.8536565E-2,-7.690539E-2,-7.610096E-2,-7.444505E-2,-6.291659E-2,-7.393836E-2,-7.00612E-2,-6.0918212E-2,1.6895983E-2,-3.4913857E-2,-4.810483E-2,-5.2995443E-2,-4.5376338E-2,-4.891387E-2,-1.3077557E-2,-5.5192273E-2,-5.0006706E-2,-4.4087037E-2,-7.7100754E-2,-5.484571E-2,1.5733527E-2,-4.722359E-2,-6.2518276E-2,-2.7707344E-2,-6.703023E-2,-7.481774E-2,-6.2052842E-2,-5.226017E-2,-5.6638986E-2,-7.449372E-2,-4.7011312E-2,-5.3129893E-2,-4.8118975E-2,-4.2126585E-2,-6.879161E-2,-5.5241097E-2,-7.3610574E-2,-4.5236185E-2,-6.5865114E-2,6.7324527E-3,-5.3929467E-2,-8.255559E-2,3.814378E-2,-2.9717643E-2,-8.254319E-2,1.4111134E-2,-3.3342715E-2],"categories":[],"categories_nodes":[],"categories_segments":[],"categories_sizes":[],"default_left":[0,0,0,0,0,0,0,0,0,0,0,0,0,0,0,0,0,0,0,0,0,0,0,0,0,0,0,0,0,0,0,0,0,0,0,0,0,0,0,0,0,0,0,0,0,0,0,0,0,0,0,0,0,0,0,0,0,0,0,0,0,0,0,0,0,0,0,0,0,0,0,0,0,0,0,0,0,0,0,0,0,0,0,0,0,0,0,0,0,0,0,0,0,0,0,0,0,0,0,0,0,0,0,0,0,0,0,0,0,0,0,0,0,0,0,0,0,0,0,0,0],"id":7,"left_children":[1,3,5,7,9,11,13,15,17,19,21,23,25,27,29,31,33,35,37,39,41,43,45,47,49,51,53,55,57,59,61,63,65,67,69,71,73,75,-1,77,79,81,-1,83,85,87,89,-1,91,93,95,97,99,101,103,105,107,109,111,113,115,117,119,-1,-1,-1,-1,-1,-1,-1,-1,-1,-1,-1,-1,-1,-1,-1,-1,-1,-1,-1,-1,-1,-1,-1,-1,-1,-1,-1,-1,-1,-1,-1,-1,-1,-1,-1,-1,-1,-1,-1,-1,-1,-1,-1,-1,-1,-1,-1,-1,-1,-1,-1,-1,-1,-1,-1,-1,-1,-1],"loss_changes":[2.358685E6,2.783339E6,5.7905E3,1.8265792E6,1.9409125E4,2.2416875E3,4.048375E3,1.36656E5,4.560115E5,2.128625E3,3.12675E3,1.4972188E3,2.6624375E3,1.328E3,1.77076E3,2.4592125E4,4.551842E4,3.83584E5,2.578125E0,1.1309375E2,4.108125E2,1.6985E3,1.2938438E3,1.6005371E2,3.168E3,5.2872656E2,1.1689062E3,2.901375E3,1.0366875E3,1.5391488E3,2.026937E3,1.0494781E4,1.5589539E4,2.5903992E4,1.6074271E4,1.1240524E5,1.78019E5,1.59375E0,0E0,2.9133594E2,9.9484375E1,2.2789766E3,0E0,3.4161406E3,2.267875E3,2.6562812E3,9.0928125E2,0E0,3.2394043E2,2.5164517E3,1.7704844E3,1.4836328E3,1.6705078E2,7.578125E2,3.5585352E2,1.546125E3,2.1011719E3,8.307031E2,8.539297E2,1.1605034E3,1.5165452E3,6.7781934E2,4.9248947E2,0E0,0E0,0E0,0E0,0E0,0E0,0E0,0E0,0E0,0E0,0E0,0E0,0E0,0E0,0E0,0E0,0E0,0E0,0E0,0E0,0E0,0E0,0E0,0E0,0E0,0E0,0E0,0E0,0E0,0E0,0E0,0E0,0E0,0E0,0E0,0E0,0E0,0E0,0E0,0E0,0E0,0E0,0E0,0E0,0E0,0E0,0E0,0E0,0E0,0E0,0E0,0E0,0E0,0E0,0E0,0E0,0E0,0E0],"parents":[2147483647,0,0,1,1,2,2,3,3,4,4,5,5,6,6,7,7,8,8,9,9,10,10,11,11,12,12,13,13,14,14,15,15,16,16,17,17,18,18,19,19,20,20,21,21,22,22,23,23,24,24,25,25,26,26,27,27,28,28,29,29,30,30,31,31,32,32,33,33,34,34,35,35,36,36,37,37,39,39,40,40,41,41,43,43,44,44,45,45,46,46,48,48,49,49,50,50,51,51,52,52,53,53,54,54,55,55,56,56,57,57,58,58,59,59,60,60,61,61,62,62],"right_children":[2,4,6,8,10,12,14,16,18,20,22,24,26,28,30,32,34,36,38,40,42,44,46,48,50,52,54,56,58,60,62,64,66,68,70,72,74,76,-1,78,80,82,-1,84,86,88,90,-1,92,94,96,98,100,102,104,106,108,110,112,114,116,118,120,-1,-1,-1,-1,-1,-1,-1,-1,-1,-1,-1,-1,-1,-1,-1,-1,-1,-1,-1,-1,-1,-1,-1,-1,-1,-1,-1,-1,-1,-1,-1,-1,-1,-1,-1,-1,-1,-1,-1,-1,-1,-1,-1,-1,-1,-1,-1,-1,-1,-1,-1,-1,-1,-1,-1,-1,-1,-1],"split_conditions":[1E0,1E0,6.599285E0,6.4103065E0,1E0,2E0,1.7676723E1,4.5823107E0,1E0,5.0629115E0,4E0,3.2672849E0,3.7609675E0,1.2520201E1,1E1,1E0,5E0,1E0,5E0,2.362739E0,1.1168711E1,6.189044E0,5.2281632E0,1E0,3.6149638E0,3.0383127E0,6.5373144E0,1.0186651E1,1.437346E1,4E0,1.9E1,3.6901286E0,5.447398E-2,1E0,1E0,4E0,5E0,3E0,-7.759284E-2,4E0,4.2554708E0,1.092833E1,-7.6349795E-2,9E0,8.001553E0,5.162326E0,5E0,-7.704326E-2,1E1,1E1,1.9E1,3E0,2.1E1,5.4875317E0,6E0,2E0,2.3E1,1.4133307E1,5E0,2E0,2E0,1.2E1,4E0,-6.918687E-2,-4.9373962E-2,-5.802235E-2,-2.0596262E-2,-1.9426167E-2,-7.5236715E-2,2.3586472E-2,-7.569002E-2,-3.2980774E-2,4.93352E-2,4.4878047E-2,6.8536565E-2,-7.690539E-2,-7.610096E-2,-7.444505E-2,-6.291659E-2,-7.393836E-2,-7.00612E-2,-6.0918212E-2,1.6895983E-2,-3.4913857E-2,-4.810483E-2,-5.2995443E-2,-4.5376338E-2,-4.891387E-2,-1.3077557E-2,-5.5192273E-2,-5.0006706E-2,-4.4087037E-2,-7.7100754E-2,-5.484571E-2,1.5733527E-2,-4.722359E-2,-6.2518276E-2,-2.7707344E-2,-6.703023E-2,-7.481774E-2,-6.2052842E-2,-5.226017E-2,-5.6638986E-2,-7.449372E-2,-4.7011312E-2,-5.3129893E-2,-4.8118975E-2,-4.2126585E-2,-6.879161E-2,-5.5241097E-2,-7.3610574E-2,-4.5236185E-2,-6.5865114E-2,6.7324527E-3,-5.3929467E-2,-8.255559E-2,3.814378E-2,-2.9717643E-2,-8.254319E-2,1.4111134E-2,-3.3342715E-2],"split_indices":[2,3,0,0,6,7,0,0,4,0,7,0,0,0,6,5,7,6,7,0,0,0,0,7,0,0,0,0,0,7,6,0,0,4,4,7,7,7,0,7,0,0,0,6,0,0,7,0,6,6,6,7,6,0,7,7,6,0,7,6,6,6,7,0,0,0,0,0,0,0,0,0,0,0,0,0,0,0,0,0,0,0,0,0,0,0,0,0,0,0,0,0,0,0,0,0,0,0,0,0,0,0,0,0,0,0,0,0,0,0,0,0,0,0,0,0,0,0,0,0,0],"split_type":[0,0,0,0,0,0,0,0,0,0,0,0,0,0,0,0,0,0,0,0,0,0,0,0,0,0,0,0,0,0,0,0,0,0,0,0,0,0,0,0,0,0,0,0,0,0,0,0,0,0,0,0,0,0,0,0,0,0,0,0,0,0,0,0,0,0,0,0,0,0,0,0,0,0,0,0,0,0,0,0,0,0,0,0,0,0,0,0,0,0,0,0,0,0,0,0,0,0,0,0,0,0,0,0,0,0,0,0,0,0,0,0,0,0,0,0,0,0,0,0,0],"sum_hessian":[7.854635E6,6.0466125E6,1.8080222E6,4.7921195E6,1.2544934E6,6.1341994E5,1.1946024E6,8.156525E5,3.9764668E6,1.7924098E5,1.0752524E6,1.6147308E5,4.519468E5,1.1833028E6,1.1299591E4,4.2534622E5,3.9030628E5,3.9021332E6,7.433361E4,9.8088516E4,8.115248E4,6.091106E5,4.661417E5,7.4968765E3,1.539762E5,4.4675777E4,4.0727106E5,1.0509669E6,1.3233584E5,6.0592725E3,5.2403184E3,3.1022875E5,1.15117484E5,3.0811022E5,8.219607E4,2.3243883E5,3.6696942E6,6.4174668E4,1.0158937E4,2.2072992E4,7.601552E4,7.711695E4,4.035523E3,2.0608561E5,4.0302503E5,9.282285E4,3.7331884E5,4.489948E3,3.0069282E3,5.402905E3,1.485733E5,2.2320545E4,2.2355232E4,3.9648156E5,1.0789475E4,8.212844E5,2.2968253E5,8.263442E4,4.9701414E4,3.1538528E3,2.90542E3,2.9487852E3,2.2915332E3,2.1275792E5,9.747082E4,4.7075473E4,6.804201E4,2.8568825E5,2.2421959E4,7.789447E4,4.301606E3,1.7840717E5,5.4031656E4,2.504786E6,1.1649082E6,2.446789E4,3.9706777E4,1.0769352E4,1.1303642E4,5.067224E4,2.5343283E4,7.616463E4,9.523203E2,8.0665875E4,1.2541973E5,1.6646655E5,2.3655848E5,8.732554E4,5.497307E3,2.4360833E5,1.29710516E5,1.3730247E3,1.6339034E3,2.0106667E3,3.392238E3,1.263043E5,2.226901E4,2.7357078E3,1.9584836E4,1.9358354E4,2.9968796E3,2.0607039E5,1.9041119E5,9.435871E3,1.353604E3,2.0540595E5,6.1587844E5,2.2203858E5,7.643953E3,7.592682E4,6.7076E3,4.403402E4,5.6673975E3,1.5418771E3,1.6119757E3,2.8802563E2,2.6173943E3,8.5782776E2,2.0909575E3,1.3928461E3,8.9868726E2],"tree_param":{"num_deleted":"0","num_feature":"11","num_nodes":"121","size_leaf_vector":"1"}},{"base_weights":[1.6943989E-3,-1.0444856E0,1.1808739E0,-1.1182803E0,-9.484301E-1,-3.314743E-1,1.2771373E0,-1.2494817E0,-1.0010898E0,-9.8858845E-1,-8.299969E-1,-1.1906078E0,6.57619E-2,1.3158637E0,-1.6928015E0,-5.8013433E-1,-1.322045E0,-9.993441E-1,-7.611939E-2,-1.1169715E0,-9.609985E-1,-7.2992736E-1,-8.920054E-1,-1.2718608E0,-8.5231143E-1,1.9142075E-1,-1.5834601E0,9.773517E-1,1.3626364E0,-1.6417006E0,-1.7107671E0,-1.0083923E0,-2.299886E-1,-1.1927994E0,-1.4010731E0,-1.1392785E0,-9.929679E-1,-7.399768E-2,-1.1021909E0,-4.685457E-1,-9.647868E-1,-8.2124656E-1,-5.6893253E-1,-1.3348476E0,-8.678956E-1,-7.496962E-2,-1.2354777E0,-1.0045058E0,-2.6366636E-1,-4.7682278E-2,8.4760654E-1,-1.5666806E0,-1.6575327E0,8.730725E-1,1.2170923E0,1.4301988E0,1.1619028E0,-1.6042225E0,-8.303382E-2,-1.7232662E0,-8.453458E-2,-5.6905396E-2,-3.779875E-2,-2.8932341E-3,-4.321048E-2,-6.6619545E-2,-5.3848203E-2,-6.94234E-2,-7.458407E-2,-5.2051444E-2,-7.096612E-2,-5.021916E-2,-4.7248013E-2,-5.263811E-2,-5.779296E-2,-2.9616836E-2,3.6314526E-4,-5.0620615E-2,-4.75378E-2,-2.5726521E-2,-4.3739084E-2,-2.5231538E-2,-3.7044846E-2,-7.287416E-2,-6.0756933E-2,-4.4245843E-2,-2.3257734E-2,-4.9098887E-2,-6.607943E-2,-3.133072E-2,-5.4699995E-2,6.1033666E-3,-4.0548623E-2,-2.9007584E-2,6.186607E-3,3.1630985E-2,5.2736577E-2,-7.560354E-2,-7.916466E-2,-7.7548325E-2,-8.368759E-2,2.8939372E-2,4.900286E-2,5.7425607E-2,6.263902E-2,6.4502954E-2,7.545828E-2,5.2871883E-2,6.87755E-2,-7.957605E-2,-8.3223455E-2,-8.529885E-2,-8.668511E-2],"categories":[],"categories_nodes":[],"categories_segments":[],"categories_sizes":[],"default_left":[0,0,0,0,0,0,0,0,0,0,0,0,0,0,0,0,0,0,0,0,0,0,0,0,0,0,0,0,0,0,0,0,0,0,0,0,0,0,0,0,0,0,0,0,0,0,0,0,0,0,0,0,0,0,0,0,0,0,0,0,0,0,0,0,0,0,0,0,0,0,0,0,0,0,0,0,0,0,0,0,0,0,0,0,0,0,0,0,0,0,0,0,0,0,0,0,0,0,0,0,0,0,0,0,0,0,0,0,0,0,0,0,0],"id":8,"left_children":[1,3,5,7,9,11,13,15,17,19,21,23,25,27,29,31,33,35,-1,37,39,41,43,45,47,49,51,53,55,57,59,61,63,65,67,69,71,-1,73,75,77,79,81,83,85,-1,87,89,91,93,95,97,99,101,103,105,107,109,-1,111,-1,-1,-1,-1,-1,-1,-1,-1,-1,-1,-1,-1,-1,-1,-1,-1,-1,-1,-1,-1,-1,-1,-1,-1,-1,-1,-1,-1,-1,-1,-1,-1,-1,-1,-1,-1,-1,-1,-1,-1,-1,-1,-1,-1,-1,-1,-1,-1,-1,-1,-1,-1,-1],"loss_changes":[9.61328E6,2.9268E4,5.33341E5,3.590325E4,8.531625E3,7.481922E4,3.96141E5,5.3510125E4,1.120875E3,4.74425E3,2.8182812E3,1.9042344E3,3.1068875E4,5.38295E4,3.7882812E1,1.6158234E4,1.0150625E4,1.095875E3,0E0,1.2697812E3,2.0569375E3,2.554836E3,2.9934688E3,4.608203E2,1.202669E3,2.1856191E4,1.0595703E1,1.0317531E4,4.051E4,5.5546875E0,5.3125E0,1.5862188E3,6.4719385E3,6.0971875E3,7.02375E2,1.4723984E3,6.4325E2,0E0,6.0284375E2,4.959751E2,7.3025E2,1.8205234E3,6.952461E2,2.1080273E2,1.8230312E3,0E0,1.0506641E3,3.6011426E2,5.8273206E2,9.319118E3,1.6559746E3,5.4726562E0,7.626953E-1,9.055375E3,3.0478125E2,2.4731E4,1.6784125E4,3.4570312E-1,0E0,6.8359375E-1,0E0,0E0,0E0,0E0,0E0,0E0,0E0,0E0,0E0,0E0,0E0,0E0,0E0,0E0,0E0,0E0,0E0,0E0,0E0,0E0,0E0,0E0,0E0,0E0,0E0,0E0,0E0,0E0,0E0,0E0,0E0,0E0,0E0,0E0,0E0,0E0,0E0,0E0,0E0,0E0,0E0,0E0,0E0,0E0,0E0,0E0,0E0,0E0,0E0,0E0,0E0,0E0,0E0],"parents":[2147483647,0,0,1,1,2,2,3,3,4,4,5,5,6,6,7,7,8,8,9,9,10,10,11,11,12,12,13,13,14,14,15,15,16,16,17,17,19,19,20,20,21,21,22,22,23,23,24,24,25,25,26,26,27,27,28,28,29,29,30,30,31,31,32,32,33,33,34,34,35,35,36,36,38,38,39,39,40,40,41,41,42,42,43,43,44,44,46,46,47,47,48,48,49,49,50,50,51,51,52,52,53,53,54,54,55,55,56,56,57,57,59,59],"right_children":[2,4,6,8,10,12,14,16,18,20,22,24,26,28,30,32,34,36,-1,38,40,42,44,46,48,50,52,54,56,58,60,62,64,66,68,70,72,-1,74,76,78,80,82,84,86,-1,88,90,92,94,96,98,100,102,104,106,108,110,-1,112,-1,-1,-1,-1,-1,-1,-1,-1,-1,-1,-1,-1,-1,-1,-1,-1,-1,-1,-1,-1,-1,-1,-1,-1,-1,-1,-1,-1,-1,-1,-1,-1,-1,-1,-1,-1,-1,-1,-1,-1,-1,-1,-1,-1,-1,-1,-1,-1,-1,-1,-1,-1,-1],"split_conditions":[1E0,1E0,5.904844E0,1E0,9.682776E0,4.3564525E0,1E0,7.654678E-1,1.437346E1,5.09614E0,1.092833E1,4.027492E0,1E0,7.453539E0,7.309821E0,5.447398E-2,6.22057E0,2.8836827E0,-7.611939E-2,1.5195132E0,5.1286554E0,1.0419388E1,1.1087576E1,1.2029723E0,1E0,1E0,1E0,1E0,9.90274E0,6.4103065E0,9.90274E0,1.9802628E-2,3.5767445E-1,3.6901286E0,1E0,1E0,9.39143E0,-7.399768E-2,4.449802E0,1E0,6.157826E0,9.769506E0,1.0774041E1,1.1008858E1,1.7676723E1,-7.496962E-2,2.362739E0,4.0883265E0,4.2023015E0,4.9264565E0,5.358377E0,4.8202815E0,4.6246786E0,6.5373144E0,6.6917114E0,8.533649E0,1E0,1E0,-8.303382E-2,8.180973E0,-8.453458E-2,-5.6905396E-2,-3.779875E-2,-2.8932341E-3,-4.321048E-2,-6.6619545E-2,-5.3848203E-2,-6.94234E-2,-7.458407E-2,-5.2051444E-2,-7.096612E-2,-5.021916E-2,-4.7248013E-2,-5.263811E-2,-5.779296E-2,-2.9616836E-2,3.6314526E-4,-5.0620615E-2,-4.75378E-2,-2.5726521E-2,-4.3739084E-2,-2.5231538E-2,-3.7044846E-2,-7.287416E-2,-6.0756933E-2,-4.4245843E-2,-2.3257734E-2,-4.9098887E-2,-6.607943E-2,-3.133072E-2,-5.4699995E-2,6.1033666E-3,-4.0548623E-2,-2.9007584E-2,6.186607E-3,3.1630985E-2,5.2736577E-2,-7.560354E-2,-7.916466E-2,-7.7548325E-2,-8.368759E-2,2.8939372E-2,4.900286E-2,5.7425607E-2,6.263902E-2,6.4502954E-2,7.545828E-2,5.2871883E-2,6.87755E-2,-7.957605E-2,-8.3223455E-2,-8.529885E-2,-8.668511E-2],"split_indices":[1,2,0,3,0,0,9,0,0,0,0,0,9,0,0,0,0,0,0,0,0,0,0,0,8,8,8,8,0,0,0,0,0,0,4,8,0,0,0,8,0,0,0,0,0,0,0,0,0,0,0,0,0,0,0,0,8,8,0,0,0,0,0,0,0,0,0,0,0,0,0,0,0,0,0,0,0,0,0,0,0,0,0,0,0,0,0,0,0,0,0,0,0,0,0,0,0,0,0,0,0,0,0,0,0,0,0,0,0,0,0,0,0],"split_type":[0,0,0,0,0,0,0,0,0,0,0,0,0,0,0,0,0,0,0,0,0,0,0,0,0,0,0,0,0,0,0,0,0,0,0,0,0,0,0,0,0,0,0,0,0,0,0,0,0,0,0,0,0,0,0,0,0,0,0,0,0,0,0,0,0,0,0,0,0,0,0,0,0,0,0,0,0,0,0,0,0,0,0,0,0,0,0,0,0,0,0,0,0,0,0,0,0,0,0,0,0,0,0,0,0,0,0,0,0,0,0,0,0],"sum_hessian":[7.7926495E6,4.1291902E6,3.6634595E6,2.3351785E6,1.7940116E6,2.192306E5,3.4442288E6,1.1017248E6,1.2334539E6,1.3397292E6,4.542824E5,6.931521E4,1.4991538E5,3.3998965E6,4.433229E4,1.0775608E5,9.939686E5,1.22934E6,4.1137793E3,2.3697666E5,1.1027526E6,1.7380616E5,2.8047625E5,5.5888895E4,1.3426321E4,1.3930242E5,1.0612958E4,4.1274297E5,2.9871535E6,1.1555783E4,3.2776508E4,4.8470566E4,5.9285508E4,3.7716138E5,6.1680725E5,5.3567008E4,1.175773E6,9.26821E3,2.2770844E5,8.419435E3,1.0943331E6,1.10898414E5,6.2907742E4,1.4478837E4,2.659974E5,7.6992773E3,4.8189617E4,1.0667523E4,2.7587974E3,1.02099875E5,3.7202543E4,8.670909E3,1.9420492E3,2.8763556E5,1.2510738E5,2.2349238E6,7.522299E5,3.9130005E3,7.6427827E3,2.014763E4,1.2628877E4,3.2014842E4,1.6455727E4,4.6631168E4,1.2654339E4,1.7103689E5,2.0612447E5,5.414934E5,7.531388E4,3.9658176E4,1.3908831E4,9.498878E5,2.258852E5,1.1854681E5,1.0916163E5,6.680996E3,1.7384385E3,2.4901573E5,8.4531744E5,1.6481611E4,9.4416805E4,4.5789746E4,1.7117996E4,7.1464673E3,7.332369E3,2.5521014E5,1.0787276E4,1.2221985E4,3.5967633E4,2.0441301E3,8.623394E3,1.6187217E3,1.1400756E3,2.4863451E4,7.723642E4,1.8256807E4,1.8945738E4,2.0439548E3,6.6269546E3,2.6929236E2,1.6727568E3,7.668976E4,2.1094581E5,4.2832188E4,8.2275195E4,8.054806E5,1.429443E6,5.051776E5,2.4705227E5,3.2543252E3,6.586753E2,7.6456274E3,1.2502003E4],"tree_param":{"num_deleted":"0","num_feature":"11","num_nodes":"113","size_leaf_vector":"1"}},{"base_weights":[-8.713499E-4,-6.651954E-1,3.642614E-1,-8.461964E-1,-3.1681687E-1,5.249113E-1,-9.629567E-1,-1.2358586E0,-7.8306085E-1,-1.3770813E-1,-1.0245787E0,7.442344E-1,6.836301E-2,-9.0592486E-1,-1.0397533E0,-1.36603E0,-1.0616827E0,-7.5838006E-1,-7.23741E-2,-2.735766E-1,3.4594122E-1,-8.9468527E-1,-1.0627303E0,5.817279E-1,1.1395395E0,-1.2695424E-1,7.543481E-1,-1.0715262E0,-8.520347E-1,-8.7199795E-1,-1.0790925E0,-1.3875704E0,-1.1098502E0,-8.3086E-1,-1.3141327E0,-8.139113E-1,-5.045792E-1,-5.4555707E-2,-4.4274303E-1,3.7061858E-1,-7.310399E-2,-9.865113E-1,-3.5218027E-1,-1.0873343E0,-8.1222826E-1,8.398496E-1,3.4092364E-1,1.150655E0,-7.4051075E-2,2.5934395E-1,-3.7500837E-1,7.828869E-1,-7.362839E-2,3.1922737E-1,-1.0901814E0,-8.7014425E-1,-4.639105E-1,-5.239825E-1,-1.2120885E0,-1.1749115E0,-9.329943E-1,-7.066095E-2,-6.616859E-2,-7.437774E-2,-3.9654326E-2,-4.6938352E-2,-5.828118E-3,-6.912985E-2,-6.1903723E-2,-3.418475E-2,-4.523139E-2,-1.8800054E-2,-4.613234E-2,-1.2745657E-3,-7.253914E-2,-5.4286953E-2,-1.9322215E-2,1.3904153E-2,2.4133733E-2,-6.326614E-2,-4.28052E-2,3.5344016E-2,-3.068508E-2,-7.462668E-2,-5.3721912E-2,-4.861288E-2,4.818643E-2,2.8440008E-2,5.187602E-2,-3.5485413E-2,2.1228705E-2,4.3631732E-2,6.23329E-2,1.4902574E-2,-7.294964E-2,-5.6782134E-2,-1.266587E-2,4.1407358E-2,2.2633819E-2,5.67571E-2,-7.451899E-2,-6.068293E-2,-4.8127655E-2,-6.776341E-2,-4.2841587E-2,-6.452852E-3,-7.47865E-2,-3.9178796E-2,-1.093958E-2,-4.8510183E-2,-6.610409E-2,-2.8384289E-2,-5.9278667E-2,-2.3457646E-2,-5.0091237E-2],"categories":[],"categories_nodes":[],"categories_segments":[],"categories_sizes":[],"default_left":[0,0,0,0,0,0,0,0,0,0,0,0,0,0,0,0,0,0,0,0,0,0,0,0,0,0,0,0,0,0,0,0,0,0,0,0,0,0,0,0,0,0,0,0,0,0,0,0,0,0,0,0,0,0,0,0,0,0,0,0,0,0,0,0,0,0,0,0,0,0,0,0,0,0,0,0,0,0,0,0,0,0,0,0,0,0,0,0,0,0,0,0,0,0,0,0,0,0,0,0,0,0,0,0,0,0,0,0,0,0,0,0,0,0,0],"id":9,"left_children":[1,3,5,7,9,11,13,15,17,19,21,23,25,27,29,31,33,35,-1,37,39,41,43,45,47,49,51,53,55,57,59,61,63,65,67,69,71,73,75,77,-1,79,81,83,85,87,89,91,-1,93,95,97,-1,99,101,103,105,107,109,111,113,-1,-1,-1,-1,-1,-1,-1,-1,-1,-1,-1,-1,-1,-1,-1,-1,-1,-1,-1,-1,-1,-1,-1,-1,-1,-1,-1,-1,-1,-1,-1,-1,-1,-1,-1,-1,-1,-1,-1,-1,-1,-1,-1,-1,-1,-1,-1,-1,-1,-1,-1,-1,-1,-1],"loss_changes":[1.8611468E6,1.7160288E5,1.0557102E6,4.40585E4,1.1795344E5,4.4225288E5,2.3405312E3,5.66025E3,2.527225E4,4.8796074E4,9.302656E2,1.9165675E5,1.9203303E5,2.7369844E3,1.5025625E3,7.870625E2,6.222797E3,2.094325E4,0E0,2.147886E4,7.266672E3,2.1252656E3,8.9434375E2,1.3141806E5,2.5319875E4,1.0690058E5,2.0188328E4,1.9545E3,1.6265625E3,5.1220547E3,2.5822656E3,2.1521875E2,1.3255498E3,4.3006094E3,2.6392188E2,1.44020625E4,1.4339766E4,1.0251856E4,1.1839883E4,1.6658066E3,0E0,1.3257305E3,1.7116399E3,6.894844E2,3.6939238E3,5.4674188E4,9.6133984E4,2.309975E4,0E0,2.9015984E4,6.2883273E4,4.686828E3,0E0,1.4748174E3,1.1701172E3,1.4270781E3,3.5657783E3,1.6947314E3,5.810996E2,7.208281E2,2.333293E3,0E0,0E0,0E0,0E0,0E0,0E0,0E0,0E0,0E0,0E0,0E0,0E0,0E0,0E0,0E0,0E0,0E0,0E0,0E0,0E0,0E0,0E0,0E0,0E0,0E0,0E0,0E0,0E0,0E0,0E0,0E0,0E0,0E0,0E0,0E0,0E0,0E0,0E0,0E0,0E0,0E0,0E0,0E0,0E0,0E0,0E0,0E0,0E0,0E0,0E0,0E0,0E0,0E0,0E0],"parents":[2147483647,0,0,1,1,2,2,3,3,4,4,5,5,6,6,7,7,8,8,9,9,10,10,11,11,12,12,13,13,14,14,15,15,16,16,17,17,19,19,20,20,21,21,22,22,23,23,24,24,25,25,26,26,27,27,28,28,29,29,30,30,31,31,32,32,33,33,34,34,35,35,36,36,37,37,38,38,39,39,41,41,42,42,43,43,44,44,45,45,46,46,47,47,49,49,50,50,51,51,53,53,54,54,55,55,56,56,57,57,58,58,59,59,60,60],"right_children":[2,4,6,8,10,12,14,16,18,20,22,24,26,28,30,32,34,36,-1,38,40,42,44,46,48,50,52,54,56,58,60,62,64,66,68,70,72,74,76,78,-1,80,82,84,86,88,90,92,-1,94,96,98,-1,100,102,104,106,108,110,112,114,-1,-1,-1,-1,-1,-1,-1,-1,-1,-1,-1,-1,-1,-1,-1,-1,-1,-1,-1,-1,-1,-1,-1,-1,-1,-1,-1,-1,-1,-1,-1,-1,-1,-1,-1,-1,-1,-1,-1,-1,-1,-1,-1,-1,-1,-1,-1,-1,-1,-1,-1,-1,-1,-1],"split_conditions":[7.424696E0,6.314707E0,1E0,1E0,1E0,9.90274E0,4E0,4.1461463E0,1E0,5E0,6.568331E0,5E0,5E0,5E0,4E0,1E0,1E0,5E0,-7.23741E-2,3E0,1E0,6.5373144E0,6E0,3E0,1E0,3E0,1E0,7.453539E0,1.2911291E1,8.834338E0,9.556993E0,4E0,1.9802628E-2,5E0,5.0629115E0,3E0,1E0,1E0,1E0,6.9925375E0,-7.310399E-2,7E0,2E0,6.599285E0,2.3E1,8.606053E0,1E0,8.241566E0,-7.4051075E-2,1E0,1E0,2E1,-7.362839E-2,2E0,9.189391E0,7.509719E0,1.4133307E1,2E0,9.432199E0,7.453539E0,9.725413E0,-7.066095E-2,-6.616859E-2,-7.437774E-2,-3.9654326E-2,-4.6938352E-2,-5.828118E-3,-6.912985E-2,-6.1903723E-2,-3.418475E-2,-4.523139E-2,-1.8800054E-2,-4.613234E-2,-1.2745657E-3,-7.253914E-2,-5.4286953E-2,-1.9322215E-2,1.3904153E-2,2.4133733E-2,-6.326614E-2,-4.28052E-2,3.5344016E-2,-3.068508E-2,-7.462668E-2,-5.3721912E-2,-4.861288E-2,4.818643E-2,2.8440008E-2,5.187602E-2,-3.5485413E-2,2.1228705E-2,4.3631732E-2,6.23329E-2,1.4902574E-2,-7.294964E-2,-5.6782134E-2,-1.266587E-2,4.1407358E-2,2.2633819E-2,5.67571E-2,-7.451899E-2,-6.068293E-2,-4.8127655E-2,-6.776341E-2,-4.2841587E-2,-6.452852E-3,-7.47865E-2,-3.9178796E-2,-1.093958E-2,-4.8510183E-2,-6.610409E-2,-2.8384289E-2,-5.9278667E-2,-2.3457646E-2,-5.0091237E-2],"split_indices":[0,0,3,6,3,0,7,0,4,7,0,7,7,6,6,5,3,7,0,7,4,0,7,7,4,7,4,0,0,0,0,7,0,7,0,7,3,4,6,0,0,6,6,0,6,0,6,0,0,4,6,6,0,7,0,0,0,6,0,0,0,0,0,0,0,0,0,0,0,0,0,0,0,0,0,0,0,0,0,0,0,0,0,0,0,0,0,0,0,0,0,0,0,0,0,0,0,0,0,0,0,0,0,0,0,0,0,0,0,0,0,0,0,0,0],"split_type":[0,0,0,0,0,0,0,0,0,0,0,0,0,0,0,0,0,0,0,0,0,0,0,0,0,0,0,0,0,0,0,0,0,0,0,0,0,0,0,0,0,0,0,0,0,0,0,0,0,0,0,0,0,0,0,0,0,0,0,0,0,0,0,0,0,0,0,0,0,0,0,0,0,0,0,0,0,0,0,0,0,0,0,0,0,0,0,0,0,0,0,0,0,0,0,0,0,0,0,0,0,0,0,0,0,0,0,0,0,0,0,0,0,0,0],"sum_hessian":[7.672728E6,2.7214002E6,4.951328E6,1.7909209E6,9.304793E5,4.4167175E6,5.346102E5,2.4971347E5,1.5412074E6,7.425645E5,1.8791481E5,2.9834738E6,1.4332439E6,3.067897E5,2.2782052E5,1.4290534E5,1.0680813E5,1.4860098E6,5.5197695E4,5.7971056E5,1.6285389E5,4.2668273E4,1.4524655E5,2.1143042E6,8.6916944E5,1.1156041E6,3.1763978E5,7.5319164E4,2.3147052E5,4.328074E4,1.8453978E5,1.3181728E5,1.1088061E4,5.579622E4,5.1011914E4,1.2192394E6,2.6677028E5,2.5263008E5,3.270805E5,1.6066184E5,2.1920515E3,3.64909E4,6.1773765E3,1.3225347E5,1.2993079E4,1.02045794E6,1.0938464E6,8.654988E5,3.6706174E3,4.3624056E5,6.7936356E5,3.1362125E5,4.0185278E3,9.967247E2,7.4322445E4,2.2115058E5,1.0319942E4,2.1392393E4,2.1888346E4,1.1144268E5,7.30971E4,9.4172555E4,3.7644723E4,5.055845E3,6.032216E3,4.847319E4,7.323027E3,2.683715E4,2.4174766E4,5.0063122E5,7.186082E5,2.0402392E5,6.274637E4,2.4747947E5,5.150608E3,2.6331076E4,3.0074944E5,8.799739E4,7.266445E4,1.1625922E4,2.4864975E4,1.222999E3,4.9543774E3,4.075801E3,1.28177664E5,1.191948E4,1.0735978E3,4.3035378E5,5.901041E5,8.066786E4,1.01317856E6,2.2215552E5,6.433433E5,4.2663103E5,9.609533E3,9.369722E4,5.856664E5,2.7581522E5,3.7806043E4,6.872366E2,3.0948813E2,3.777123E4,3.655121E4,5.903923E3,2.1524666E5,7.7922656E3,2.5276768E3,1.15589E4,9.833492E3,6.8451265E3,1.5043219E4,1.9239062E3,1.0951877E5,9.446427E3,6.365067E4],"tree_param":{"num_deleted":"0","num_feature":"11","num_nodes":"115","size_leaf_vector":"1"}},{"base_weights":[-2.2185878E-4,-9.953499E-1,1.1203535E0,-1.2132808E0,-9.662582E-1,-6.7607276E-2,1.2178048E0,-1.3109365E0,-8.3934957E-1,-9.499138E-1,-1.434182E0,-9.756698E-1,3.2389182E-1,7.752311E-1,1.2410899E0,-1.3772571E0,-1.2286721E0,-5.9207636E-1,-9.168644E-1,-8.867119E-1,-9.818008E-1,-7.0878305E-2,-1.4513884E0,-1.0791227E0,-5.7423216E-1,1.0868733E-1,8.840252E-1,6.498715E-1,1.0754309E0,1.1897334E0,1.344415E0,-9.153953E-1,-1.4056971E0,-1.2816844E0,-1.1158636E0,-6.225588E-1,1.1372182E-2,-1.0216087E0,-7.594105E-1,-8.2131404E-1,-9.813754E-1,-1.072971E0,-8.9858E-1,-7.299655E-2,-7.177375E-2,-1.2982811E0,-1.0318495E0,3.8974288E-1,-6.613527E-1,3.6474976E-1,-4.2863128E-1,9.0339786E-1,8.847071E-2,8.6996037E-1,4.38648E-1,8.4758824E-1,1.114596E0,1.2939706E0,1.0747454E0,1.2384237E0,1.3914349E0,-4.032261E-2,-7.192212E-2,-7.1661875E-2,-5.2414723E-2,-6.28893E-2,-7.0729166E-2,-6.6700146E-2,-5.142007E-2,-1.0186604E-2,-3.3358697E-2,2.13692E-2,-7.839801E-2,-5.8735248E-2,-4.3269485E-2,-7.957856E-2,-3.54604E-2,-4.253393E-2,-3.331578E-2,-5.4056015E-2,-4.70442E-2,-6.462964E-2,-4.6800256E-2,-4.667895E-2,-4.2453654E-2,-4.9923226E-2,-7.274894E-2,-6.529673E-2,-4.9490042E-2,3.646591E-2,-2.8219956E-3,-3.982733E-2,-1.649081E-2,7.4498476E-3,2.2605462E-2,-4.760446E-2,-1.590897E-2,3.9379388E-2,5.0151892E-2,-1.617071E-2,1.9169403E-2,2.436996E-2,4.7161475E-2,2.6142899E-2,-1.131539E-2,4.5870136E-2,3.6088698E-2,5.171703E-2,5.8861043E-2,5.9260882E-2,6.703642E-2,5.688837E-2,4.0291455E-2,5.5846967E-2,6.277334E-2,7.094137E-2,6.555047E-2],"categories":[],"categories_nodes":[],"categories_segments":[],"categories_sizes":[],"default_left":[0,0,0,0,0,0,0,0,0,0,0,0,0,0,0,0,0,0,0,0,0,0,0,0,0,0,0,0,0,0,0,0,0,0,0,0,0,0,0,0,0,0,0,0,0,0,0,0,0,0,0,0,0,0,0,0,0,0,0,0,0,0,0,0,0,0,0,0,0,0,0,0,0,0,0,0,0,0,0,0,0,0,0,0,0,0,0,0,0,0,0,0,0,0,0,0,0,0,0,0,0,0,0,0,0,0,0,0,0,0,0,0,0,0,0,0,0],"id":10,"left_children":[1,3,5,7,9,11,13,15,17,19,21,23,25,27,29,31,33,35,37,39,41,-1,43,45,47,49,51,53,55,57,59,61,63,65,67,69,71,73,75,77,79,81,83,-1,-1,85,87,89,91,93,95,97,99,101,103,105,107,109,111,113,115,-1,-1,-1,-1,-1,-1,-1,-1,-1,-1,-1,-1,-1,-1,-1,-1,-1,-1,-1,-1,-1,-1,-1,-1,-1,-1,-1,-1,-1,-1,-1,-1,-1,-1,-1,-1,-1,-1,-1,-1,-1,-1,-1,-1,-1,-1,-1,-1,-1,-1,-1,-1,-1,-1,-1,-1],"loss_changes":[8.492356E6,2.55715E4,4.146885E5,1.7345375E4,2.7215E4,9.654442E4,3.41155E4,2.0533125E3,1.8849766E3,6.9285E3,3.228125E1,3.397E3,2.287393E4,6.226453E3,1.6687E4,2.7378438E3,1.0040469E3,4.3191992E2,1.2343828E3,7.1375E3,1.733925E4,0E0,5.921875E0,6.725703E2,1.4082534E3,1.8861893E4,8.1166406E2,5.4261484E3,4.3401172E2,2.517925E4,5.202125E3,6.882529E2,1.9319688E3,3.6148438E2,1.0242891E3,4.175244E2,7.4312756E2,1.0745312E3,1.2489199E3,3.1033438E3,1.90175E3,3.280525E4,2.0694375E3,0E0,0E0,5.40584E2,6.1541406E2,2.1068015E2,6.889248E2,1.7498701E3,2.557855E3,5.9252734E2,1.5235051E2,1.6018477E3,3.3355996E3,6.217334E1,2.078125E2,5.601875E3,1.692825E4,6.63E2,1.591875E3,0E0,0E0,0E0,0E0,0E0,0E0,0E0,0E0,0E0,0E0,0E0,0E0,0E0,0E0,0E0,0E0,0E0,0E0,0E0,0E0,0E0,0E0,0E0,0E0,0E0,0E0,0E0,0E0,0E0,0E0,0E0,0E0,0E0,0E0,0E0,0E0,0E0,0E0,0E0,0E0,0E0,0E0,0E0,0E0,0E0,0E0,0E0,0E0,0E0,0E0,0E0,0E0,0E0,0E0,0E0,0E0],"parents":[2147483647,0,0,1,1,2,2,3,3,4,4,5,5,6,6,7,7,8,8,9,9,10,10,11,11,12,12,13,13,14,14,15,15,16,16,17,17,18,18,19,19,20,20,22,22,23,23,24,24,25,25,26,26,27,27,28,28,29,29,30,30,31,31,32,32,33,33,34,34,35,35,36,36,37,37,38,38,39,39,40,40,41,41,42,42,45,45,46,46,47,47,48,48,49,49,50,50,51,51,52,52,53,53,54,54,55,55,56,56,57,57,58,58,59,59,60,60],"right_children":[2,4,6,8,10,12,14,16,18,20,22,24,26,28,30,32,34,36,38,40,42,-1,44,46,48,50,52,54,56,58,60,62,64,66,68,70,72,74,76,78,80,82,84,-1,-1,86,88,90,92,94,96,98,100,102,104,106,108,110,112,114,116,-1,-1,-1,-1,-1,-1,-1,-1,-1,-1,-1,-1,-1,-1,-1,-1,-1,-1,-1,-1,-1,-1,-1,-1,-1,-1,-1,-1,-1,-1,-1,-1,-1,-1,-1,-1,-1,-1,-1,-1,-1,-1,-1,-1,-1,-1,-1,-1,-1,-1,-1,-1,-1,-1,-1,-1],"split_conditions":[1E0,1E0,2E0,1E0,1E0,1E0,3E0,1E0,2E0,2E0,3E0,5E0,5E0,5E0,5E0,3E0,2E0,8E0,5E0,1E0,1E0,-7.0878305E-2,6E0,1E0,1E0,4E0,2.3E1,3E0,5E0,3E0,4E0,1E0,4E0,6E0,3E0,1E0,1E0,4E0,3E0,5E0,1E0,1E0,5E0,-7.299655E-2,-7.177375E-2,6E0,3E0,6E0,1.8E1,7E0,5E0,1.2E1,6E0,5E0,2E1,3E0,6E0,4E0,6E0,4E0,6E0,-4.032261E-2,-7.192212E-2,-7.1661875E-2,-5.2414723E-2,-6.28893E-2,-7.0729166E-2,-6.6700146E-2,-5.142007E-2,-1.0186604E-2,-3.3358697E-2,2.13692E-2,-7.839801E-2,-5.8735248E-2,-4.3269485E-2,-7.957856E-2,-3.54604E-2,-4.253393E-2,-3.331578E-2,-5.4056015E-2,-4.70442E-2,-6.462964E-2,-4.6800256E-2,-4.667895E-2,-4.2453654E-2,-4.9923226E-2,-7.274894E-2,-6.529673E-2,-4.9490042E-2,3.646591E-2,-2.8219956E-3,-3.982733E-2,-1.649081E-2,7.4498476E-3,2.2605462E-2,-4.760446E-2,-1.590897E-2,3.9379388E-2,5.0151892E-2,-1.617071E-2,1.9169403E-2,2.436996E-2,4.7161475E-2,2.6142899E-2,-1.131539E-2,4.5870136E-2,3.6088698E-2,5.171703E-2,5.8861043E-2,5.9260882E-2,6.703642E-2,5.688837E-2,4.0291455E-2,5.5846967E-2,6.277334E-2,7.094137E-2,6.555047E-2],"split_indices":[1,6,10,2,4,10,10,3,7,10,10,7,7,7,7,7,10,10,10,2,2,0,10,7,6,7,6,7,6,7,10,4,7,7,7,10,7,7,7,7,10,3,10,0,0,6,6,7,6,6,6,6,7,6,6,6,7,10,10,6,10,0,0,0,0,0,0,0,0,0,0,0,0,0,0,0,0,0,0,0,0,0,0,0,0,0,0,0,0,0,0,0,0,0,0,0,0,0,0,0,0,0,0,0,0,0,0,0,0,0,0,0,0,0,0,0,0],"split_type":[0,0,0,0,0,0,0,0,0,0,0,0,0,0,0,0,0,0,0,0,0,0,0,0,0,0,0,0,0,0,0,0,0,0,0,0,0,0,0,0,0,0,0,0,0,0,0,0,0,0,0,0,0,0,0,0,0,0,0,0,0,0,0,0,0,0,0,0,0,0,0,0,0,0,0,0,0,0,0,0,0,0,0,0,0,0,0,0,0,0,0,0,0,0,0,0,0,0,0,0,0,0,0,0,0,0,0,0,0,0,0,0,0,0,0,0,0],"sum_hessian":[7.6156685E6,4.033614E6,3.5820545E6,4.750303E5,3.5585838E6,2.7156738E5,3.3104872E6,3.7665962E5,9.837069E4,3.4384815E6,1.20102195E5,8.1810516E4,1.8975688E5,1.6546995E5,3.1450172E6,2.0852952E5,1.6813011E5,2.3479488E4,7.48912E4,1.1530668E6,2.2854148E6,6.1141594E4,5.8960598E4,6.5046066E4,1.6764447E4,1.370884E5,5.2668477E4,1.16728695E5,4.8741254E4,2.100835E6,1.04418225E6,1.2097702E4,1.9643181E5,1.1437253E5,5.375757E4,2.2350453E4,1.1290361E3,4.496997E4,2.9921232E4,6.819528E5,4.71114E5,1.0906129E6,1.1948018E6,3.830619E4,2.0654408E4,1.1536465E4,5.35096E4,1.3892402E3,1.5375207E4,9.284356E4,4.424484E4,5.1416293E4,1.252182E3,5.7163184E4,5.9565508E4,7.1527646E3,4.158849E4,1.1019248E6,9.9891025E5,3.208831E5,7.232992E5,1.0014391E4,2.083312E3,1.8237555E5,1.4056271E4,9.694924E4,1.7423291E4,1.5381177E4,3.8376395E4,2.152196E3,2.0198256E4,8.942193E2,2.3481685E2,2.2708705E4,2.2261264E4,1.7006368E3,2.8220596E4,5.7333056E5,1.08622195E5,1.3602066E5,3.3509334E5,4.1890294E5,6.7170994E5,6.999526E5,4.9484916E5,3.9623997E3,7.5740654E3,7.1132764E3,4.6396324E4,7.8850214E2,6.0073804E2,1.0920602E4,4.454605E3,2.6759055E4,6.608451E4,7.707854E3,3.653699E4,2.378279E4,2.7633504E4,5.224399E2,7.297421E2,9.189513E3,4.797367E4,5.2870234E4,6.6952734E3,4.596095E3,2.5566694E3,1.8236018E4,2.335247E4,3.3132656E5,7.705981E5,8.09254E5,1.8965625E5,3.9486617E4,2.8139647E5,5.395237E5,1.8377545E5],"tree_param":{"num_deleted":"0","num_feature":"11","num_nodes":"117","size_leaf_vector":"1"}},{"base_weights":[-1.9463565E-3,-9.5823616E-1,1.0779833E0,-1.1713933E0,-9.299762E-1,-5.150919E-1,1.1509465E0,-1.2741623E0,-7.84178E-1,-4.1964483E-1,-9.4310653E-1,-1.1604594E0,-6.957982E-2,7.7055717E-1,1.2144505E0,-1.3264945E0,-1.2089496E0,-6.9405064E-2,-7.5869244E-1,-9.0591234E-1,3.488807E-2,-9.80335E-1,-8.5410535E-1,-1.2313464E0,-9.615348E-1,-2.9642254E-1,5.768569E-1,6.5047276E-1,1.0557654E0,1.2825731E0,1.0141323E0,-1.3423858E0,-1.0452855E0,-1.3146106E0,-1.0836226E0,-4.0525278E-1,-8.066627E-1,-1.205505E0,-7.808816E-1,-7.239367E-2,1.4644176E-1,-1.1854486E0,-8.840418E-1,-6.063042E-1,-8.690335E-1,-1.1521196E0,-1.3329537E0,-1.0657892E0,-3.3887044E-1,-6.979557E-1,-1.0553245E-1,1.4200656E0,4.8408335E-1,3.6428437E-1,8.187713E-1,9.494483E-1,1.1221948E0,1.1381648E0,1.3646637E0,9.075099E-1,1.2388045E0,-6.456446E-2,-6.892456E-2,-7.137724E-2,-3.712166E-2,-6.498912E-2,-6.9817275E-2,-3.2745007E-2,-5.4883372E-2,-3.4514334E-2,5.0472147E-3,-4.9929112E-2,-3.5875674E-2,-6.9152586E-2,-4.4294547E-2,-3.1004408E-2,-6.271714E-2,-3.6689457E-3,4.0064435E-2,-5.1205184E-2,-6.420851E-2,-4.4418845E-2,-9.731402E-3,-3.6194127E-2,-9.437736E-3,-4.328614E-2,-7.210227E-2,-6.0361583E-2,-1.8761305E-2,-7.056675E-2,-5.047167E-2,-4.566314E-2,-7.255197E-2,1.6128727E-3,-7.371634E-2,-1.3405393E-2,-6.1763074E-2,-3.1058656E-3,-3.8327917E-2,7.780324E-2,-8.081285E-2,-5.0103515E-2,2.9655619E-2,-7.1239443E-3,2.3494847E-2,4.258387E-2,2.8917843E-2,3.319071E-2,4.9929634E-2,5.8877062E-2,4.6768393E-2,5.4323E-2,6.1808653E-2,6.894196E-2,5.9785586E-2,2.9774139E-2,4.8672847E-2,5.9844073E-2,6.635358E-2],"categories":[],"categories_nodes":[],"categories_segments":[],"categories_sizes":[],"default_left":[0,0,0,0,0,0,0,0,0,0,0,0,0,0,0,0,0,0,0,0,0,0,0,0,0,0,0,0,0,0,0,0,0,0,0,0,0,0,0,0,0,0,0,0,0,0,0,0,0,0,0,0,0,0,0,0,0,0,0,0,0,0,0,0,0,0,0,0,0,0,0,0,0,0,0,0,0,0,0,0,0,0,0,0,0,0,0,0,0,0,0,0,0,0,0,0,0,0,0,0,0,0,0,0,0,0,0,0,0,0,0,0,0,0,0,0,0,0,0],"id":11,"left_children":[1,3,5,7,9,11,13,15,17,19,21,23,25,27,29,31,33,-1,35,37,39,41,43,45,47,49,51,53,55,57,59,61,63,65,67,69,71,73,75,-1,77,79,81,83,85,87,89,91,93,95,97,99,101,103,105,107,109,111,113,115,117,-1,-1,-1,-1,-1,-1,-1,-1,-1,-1,-1,-1,-1,-1,-1,-1,-1,-1,-1,-1,-1,-1,-1,-1,-1,-1,-1,-1,-1,-1,-1,-1,-1,-1,-1,-1,-1,-1,-1,-1,-1,-1,-1,-1,-1,-1,-1,-1,-1,-1,-1,-1,-1,-1,-1,-1,-1,-1],"loss_changes":[7.7376165E6,2.393575E4,4.09005E5,1.8509062E4,2.350925E4,4.430719E4,8.1276E4,1.252875E3,1.5005625E3,1.9452031E4,1.1333E4,8.8627344E2,1.336904E4,1.6485188E4,3.9345E4,9.0990625E2,2.1658594E3,0E0,1.5868711E3,1.5917812E3,7.5245073E3,4.763275E4,3.7313125E3,3.7196094E2,1.073292E3,5.1727256E3,1.8519087E3,1.6314906E4,1.0062031E3,2.550425E4,1.7526812E4,3.5428125E2,1.2621963E3,1.058125E2,4.5010156E2,1.6145054E3,1.4095508E3,7.0913477E2,2.2833105E3,0E0,6.090173E3,1.227125E4,4.905E3,2.8141504E3,1.8038125E3,1.1160547E3,5.138672E2,8.31125E2,1.00024817E3,5.021995E3,1.3126996E3,9.7161035E2,3.4578032E3,6.7135176E3,1.6869219E3,7.6928906E2,9.064531E2,3.95025E3,3.28375E3,1.02101875E4,8.698125E2,0E0,0E0,0E0,0E0,0E0,0E0,0E0,0E0,0E0,0E0,0E0,0E0,0E0,0E0,0E0,0E0,0E0,0E0,0E0,0E0,0E0,0E0,0E0,0E0,0E0,0E0,0E0,0E0,0E0,0E0,0E0,0E0,0E0,0E0,0E0,0E0,0E0,0E0,0E0,0E0,0E0,0E0,0E0,0E0,0E0,0E0,0E0,0E0,0E0,0E0,0E0,0E0,0E0,0E0,0E0,0E0,0E0,0E0],"parents":[2147483647,0,0,1,1,2,2,3,3,4,4,5,5,6,6,7,7,8,8,9,9,10,10,11,11,12,12,13,13,14,14,15,15,16,16,18,18,19,19,20,20,21,21,22,22,23,23,24,24,25,25,26,26,27,27,28,28,29,29,30,30,31,31,32,32,33,33,34,34,35,35,36,36,37,37,38,38,40,40,41,41,42,42,43,43,44,44,45,45,46,46,47,47,48,48,49,49,50,50,51,51,52,52,53,53,54,54,55,55,56,56,57,57,58,58,59,59,60,60],"right_children":[2,4,6,8,10,12,14,16,18,20,22,24,26,28,30,32,34,-1,36,38,40,42,44,46,48,50,52,54,56,58,60,62,64,66,68,70,72,74,76,-1,78,80,82,84,86,88,90,92,94,96,98,100,102,104,106,108,110,112,114,116,118,-1,-1,-1,-1,-1,-1,-1,-1,-1,-1,-1,-1,-1,-1,-1,-1,-1,-1,-1,-1,-1,-1,-1,-1,-1,-1,-1,-1,-1,-1,-1,-1,-1,-1,-1,-1,-1,-1,-1,-1,-1,-1,-1,-1,-1,-1,-1,-1,-1,-1,-1,-1,-1,-1,-1,-1,-1,-1],"split_conditions":[1E0,1E0,5.4230537E0,1E0,3.5767445E-1,4.3075724E0,7.453539E0,1E0,3.4534736E0,5.447398E-2,1E0,3.830596E0,1E0,1E0,9.948574E0,1E0,5.0629115E0,-6.9405064E-2,5.2607193E0,6.814727E-3,1E0,1E0,3.830596E0,2.8836827E0,2.1E1,4.8202815E0,4.404766E0,6.5373144E0,1.1E1,8.533649E0,1E0,6.6917114E0,1.9802628E-2,1E0,5.1286554E0,4.9264565E0,7.62458E0,1.6E1,1.7E1,-7.239367E-2,1E0,2E0,1.7676723E1,3.6149638E0,1.4133307E1,2.7972813E0,1E0,1.4E1,2.3E1,1.1E1,2.2E1,2E1,4.5823107E0,5E0,2E1,6.03131E0,2E1,1E0,2E1,5E0,1.3206213E1,-6.456446E-2,-6.892456E-2,-7.137724E-2,-3.712166E-2,-6.498912E-2,-6.9817275E-2,-3.2745007E-2,-5.4883372E-2,-3.4514334E-2,5.0472147E-3,-4.9929112E-2,-3.5875674E-2,-6.9152586E-2,-4.4294547E-2,-3.1004408E-2,-6.271714E-2,-3.6689457E-3,4.0064435E-2,-5.1205184E-2,-6.420851E-2,-4.4418845E-2,-9.731402E-3,-3.6194127E-2,-9.437736E-3,-4.328614E-2,-7.210227E-2,-6.0361583E-2,-1.8761305E-2,-7.056675E-2,-5.047167E-2,-4.566314E-2,-7.255197E-2,1.6128727E-3,-7.371634E-2,-1.3405393E-2,-6.1763074E-2,-3.1058656E-3,-3.8327917E-2,7.780324E-2,-8.081285E-2,-5.0103515E-2,2.9655619E-2,-7.1239443E-3,2.3494847E-2,4.258387E-2,2.8917843E-2,3.319071E-2,4.9929634E-2,5.8877062E-2,4.6768393E-2,5.4323E-2,6.1808653E-2,6.894196E-2,5.9785586E-2,2.9774139E-2,4.8672847E-2,5.9844073E-2,6.635358E-2],"split_indices":[1,6,0,2,0,0,0,3,0,0,3,0,8,8,0,5,0,0,0,0,5,2,0,0,6,0,0,0,6,0,8,0,0,10,0,0,0,6,6,0,8,10,0,0,0,0,8,6,6,6,6,6,0,6,6,0,6,8,6,6,0,0,0,0,0,0,0,0,0,0,0,0,0,0,0,0,0,0,0,0,0,0,0,0,0,0,0,0,0,0,0,0,0,0,0,0,0,0,0,0,0,0,0,0,0,0,0,0,0,0,0,0,0,0,0,0,0,0,0],"split_type":[0,0,0,0,0,0,0,0,0,0,0,0,0,0,0,0,0,0,0,0,0,0,0,0,0,0,0,0,0,0,0,0,0,0,0,0,0,0,0,0,0,0,0,0,0,0,0,0,0,0,0,0,0,0,0,0,0,0,0,0,0,0,0,0,0,0,0,0,0,0,0,0,0,0,0,0,0,0,0,0,0,0,0,0,0,0,0,0,0,0,0,0,0,0,0,0,0,0,0,0,0,0,0,0,0,0,0,0,0,0,0,0,0,0,0,0,0,0,0],"sum_hessian":[7.4924205E6,3.9736812E6,3.5187392E6,4.6514822E5,3.508533E6,1.5410108E5,3.3646382E6,3.6758647E5,9.7561734E4,8.800731E4,3.4205258E6,6.2933777E4,9.11673E4,4.8135156E5,2.8832865E6,2.0392233E5,1.6366414E5,3.9482297E3,9.361351E4,4.2518867E4,4.548844E4,2.4117142E6,1.00881144E6,4.6395523E4,1.6538252E4,6.748612E4,2.368118E4,3.3873388E5,1.426177E5,2.1515868E6,7.3169975E5,1.9301138E5,1.0910952E4,8.8793984E4,7.487016E4,1.1188343E4,8.2425164E4,1.2517175E4,3.0001691E4,3.181973E3,4.230647E4,7.704891E5,1.6412252E6,5.7322574E4,9.514889E5,2.6075734E4,2.0319787E4,1.4165732E4,2.3725208E3,2.1744459E4,4.5741656E4,2.3458347E3,2.1335346E4,1.2543585E5,2.1329803E5,5.4849293E4,8.776841E4,7.7981E5,1.3717769E6,4.962164E5,2.3548331E5,7.993028E4,1.1308109E5,4.821523E3,6.089429E3,7.5173055E4,1.3620931E4,2.3764521E3,7.249371E4,7.1576094E3,4.0307334E3,2.6140322E4,5.628484E4,8.044887E3,4.472288E3,2.239752E4,7.6041733E3,3.167471E4,1.0631759E4,2.9248284E5,4.7800625E5,1.6309691E6,1.025603E4,4.4727082E4,1.2595491E4,9.460255E5,5.4633804E3,2.4347963E4,1.7277714E3,1.6354192E4,3.9655955E3,1.0150402E4,4.01533E3,1.7888127E3,5.8370807E2,1.2081048E4,9.663411E3,4.2923598E4,2.8180608E3,2.2457341E3,1.0010052E2,1.4576873E3,1.9877658E4,2.1633066E4,1.0380278E5,1.87616E5,2.5682033E4,8.0538286E3,4.6795465E4,6.770565E4,2.0062756E4,5.1050325E5,2.6930675E5,1.2655844E6,1.0619244E5,8.6579E4,4.096374E5,1.5966419E5,7.5819125E4],"tree_param":{"num_deleted":"0","num_feature":"11","num_nodes":"119","size_leaf_vector":"1"}},{"base_weights":[-1.7225179E-3,-6.287926E-1,3.186238E-1,-8.146124E-1,-3.7373546E-1,4.6001998E-1,-8.4003085E-1,-1.1528846E0,-7.5556225E-1,-2.2409792E-1,-9.3210983E-1,2.9263452E-1,9.275271E-1,-7.8843725E-1,-9.09429E-1,-1.2741042E0,-9.613768E-1,-7.3185104E-1,-6.8432E-2,-3.354976E-1,1.9073194E-1,-1.0935881E0,-8.803625E-1,4.993086E-1,-1.0952306E-1,9.422763E-1,-6.932157E-2,-8.5305274E-1,-6.362303E-1,-5.4109997E-1,-9.2833376E-1,-1.297182E0,-1.0068396E0,-7.349365E-1,-1.1825776E0,-7.620946E-1,-4.1602364E-1,-3.113699E-1,-6.844262E-2,2.119236E-1,-8.504861E-2,-9.532129E-1,-1.302538E0,-8.69826E-1,-7.196731E-2,1.3446485E-1,6.4819485E-1,2.2536835E-1,-3.2473716E-1,9.5391864E-1,-8.810003E-2,-1.0020753E0,-8.1478506E-1,-2.3290588E-1,-6.9290483E-1,-9.102211E-1,-2.1774796E-1,-7.810257E-1,-9.7253793E-1,-6.662645E-2,-6.048767E-2,-6.99009E-2,-3.4393437E-2,-8.10696E-3,-4.7468226E-2,-4.9973566E-2,-6.1083127E-2,-4.6189513E-2,-3.2694187E-2,-4.3039244E-2,-7.2931424E-3,-6.3834935E-3,-2.2517104E-2,1.1830866E-2,-6.869566E-2,-5.2194472E-2,-3.0069146E-2,-6.870687E-2,-4.8879664E-2,-4.4558387E-2,-3.276315E-2,7.725688E-3,-8.695487E-2,4.375811E-2,2.1549447E-2,1.2964824E-2,-6.861095E-2,-4.9937304E-2,-1.0974397E-2,5.2075196E-2,3.561161E-2,-4.6208914E-2,-7.2038636E-2,-2.5175093E-2,-4.46972E-2,-4.6682667E-2,2.043773E-2,-4.7494497E-2,-2.9842645E-2,-2.6653936E-2,-7.19408E-2,-3.1780038E-2,1.6841836E-2,-1.23693915E-2,-4.1746493E-2,-5.302568E-2,-4.256064E-2],"categories":[],"categories_nodes":[],"categories_segments":[],"categories_sizes":[],"default_left":[0,0,0,0,0,0,0,0,0,0,0,0,0,0,0,0,0,0,0,0,0,0,0,0,0,0,0,0,0,0,0,0,0,0,0,0,0,0,0,0,0,0,0,0,0,0,0,0,0,0,0,0,0,0,0,0,0,0,0,0,0,0,0,0,0,0,0,0,0,0,0,0,0,0,0,0,0,0,0,0,0,0,0,0,0,0,0,0,0,0,0,0,0,0,0,0,0,0,0,0,0,0,0,0,0,0,0],"id":12,"left_children":[1,3,5,7,9,11,13,15,17,19,21,23,25,27,29,31,33,35,-1,37,39,41,43,45,47,49,-1,51,53,55,57,59,61,63,65,67,69,71,-1,73,-1,75,77,79,-1,81,83,85,87,89,-1,91,93,95,97,99,101,103,105,-1,-1,-1,-1,-1,-1,-1,-1,-1,-1,-1,-1,-1,-1,-1,-1,-1,-1,-1,-1,-1,-1,-1,-1,-1,-1,-1,-1,-1,-1,-1,-1,-1,-1,-1,-1,-1,-1,-1,-1,-1,-1,-1,-1,-1,-1,-1,-1],"loss_changes":[1.4827446E6,1.1828719E5,8.003824E5,2.8840625E4,8.789208E4,3.4072588E5,1.90175E3,4.9803125E3,1.7869E4,3.8337605E4,1.8567656E3,2.6648325E5,3.9179E4,2.9969375E3,1.5771719E3,8.091719E2,4.1656406E3,1.13043125E4,0E0,1.6304953E4,7.0407866E3,1.5812109E3,9.904375E2,1.1503975E5,7.844258E4,3.59145E4,0E0,1.2192812E3,2.0760898E3,1.3203286E3,1.4025625E3,3.721875E2,1.302832E3,5.0487754E3,2.9991016E2,1.8897938E4,1.2427865E4,1.6314672E4,0E0,6.8015903E3,0E0,1.0290234E3,5.029961E2,7.5616406E2,0E0,2.3055322E4,7.414669E4,2.3079861E4,4.7002133E4,2.40415E4,0E0,1.4923906E3,4.1943984E3,5.032992E3,1.9652617E3,1.0290903E3,1.3671761E3,1.4308301E3,1.7683906E3,0E0,0E0,0E0,0E0,0E0,0E0,0E0,0E0,0E0,0E0,0E0,0E0,0E0,0E0,0E0,0E0,0E0,0E0,0E0,0E0,0E0,0E0,0E0,0E0,0E0,0E0,0E0,0E0,0E0,0E0,0E0,0E0,0E0,0E0,0E0,0E0,0E0,0E0,0E0,0E0,0E0,0E0,0E0,0E0,0E0,0E0,0E0,0E0],"parents":[2147483647,0,0,1,1,2,2,3,3,4,4,5,5,6,6,7,7,8,8,9,9,10,10,11,11,12,12,13,13,14,14,15,15,16,16,17,17,19,19,20,20,21,21,22,22,23,23,24,24,25,25,27,27,28,28,29,29,30,30,31,31,32,32,33,33,34,34,35,35,36,36,37,37,39,39,41,41,42,42,43,43,45,45,46,46,47,47,48,48,49,49,51,51,52,52,53,53,54,54,55,55,56,56,57,57,58,58],"right_children":[2,4,6,8,10,12,14,16,18,20,22,24,26,28,30,32,34,36,-1,38,40,42,44,46,48,50,-1,52,54,56,58,60,62,64,66,68,70,72,-1,74,-1,76,78,80,-1,82,84,86,88,90,-1,92,94,96,98,100,102,104,106,-1,-1,-1,-1,-1,-1,-1,-1,-1,-1,-1,-1,-1,-1,-1,-1,-1,-1,-1,-1,-1,-1,-1,-1,-1,-1,-1,-1,-1,-1,-1,-1,-1,-1,-1,-1,-1,-1,-1,-1,-1,-1,-1,-1,-1,-1,-1,-1],"split_conditions":[7.309821E0,5.904844E0,1E0,1E0,1E0,5E0,4E0,4.1461463E0,1E0,5E0,5E0,9.90274E0,1E0,1.6E1,7.453539E0,1E0,1E0,1E0,-6.8432E-2,1E0,1E0,6.7226057E0,7.281241E0,8.180973E0,3E0,1E0,-6.932157E-2,7.971179E0,7.6530585E0,1.2E1,5E0,4E0,1.9802628E-2,3E0,4.449802E0,4.5823107E0,5.447398E-2,3E0,-6.844262E-2,1E0,-8.504861E-2,5E0,4E0,7.168549E0,-7.196731E-2,1E0,3E0,1E0,1E0,9.90274E0,-8.810003E-2,1.3E1,8.464771E0,7.509719E0,8.498259E0,6E0,5E0,7.681897E0,9.473565E0,-6.662645E-2,-6.048767E-2,-6.99009E-2,-3.4393437E-2,-8.10696E-3,-4.7468226E-2,-4.9973566E-2,-6.1083127E-2,-4.6189513E-2,-3.2694187E-2,-4.3039244E-2,-7.2931424E-3,-6.3834935E-3,-2.2517104E-2,1.1830866E-2,-6.869566E-2,-5.2194472E-2,-3.0069146E-2,-6.870687E-2,-4.8879664E-2,-4.4558387E-2,-3.276315E-2,7.725688E-3,-8.695487E-2,4.375811E-2,2.1549447E-2,1.2964824E-2,-6.861095E-2,-4.9937304E-2,-1.0974397E-2,5.2075196E-2,3.561161E-2,-4.6208914E-2,-7.2038636E-2,-2.5175093E-2,-4.46972E-2,-4.6682667E-2,2.043773E-2,-4.7494497E-2,-2.9842645E-2,-2.6653936E-2,-7.19408E-2,-3.1780038E-2,1.6841836E-2,-1.23693915E-2,-4.1746493E-2,-5.302568E-2,-4.256064E-2],"split_indices":[0,0,3,6,3,7,7,0,4,7,6,0,4,6,0,5,3,5,0,4,9,0,0,0,7,9,0,0,0,6,6,7,0,7,0,0,0,7,0,4,0,7,6,0,0,9,7,4,6,0,0,6,0,0,0,6,7,0,0,0,0,0,0,0,0,0,0,0,0,0,0,0,0,0,0,0,0,0,0,0,0,0,0,0,0,0,0,0,0,0,0,0,0,0,0,0,0,0,0,0,0,0,0,0,0,0,0],"split_type":[0,0,0,0,0,0,0,0,0,0,0,0,0,0,0,0,0,0,0,0,0,0,0,0,0,0,0,0,0,0,0,0,0,0,0,0,0,0,0,0,0,0,0,0,0,0,0,0,0,0,0,0,0,0,0,0,0,0,0,0,0,0,0,0,0,0,0,0,0,0,0,0,0,0,0,0,0,0,0,0,0,0,0,0,0,0,0,0,0,0,0,0,0,0,0,0,0,0,0,0,0,0,0,0,0,0,0],"sum_hessian":[7.3812585E6,2.4957968E6,4.8854615E6,1.4438728E6,1.0519239E6,4.3541095E6,5.313521E5,2.1458614E5,1.2292866E6,8.296021E5,2.2232183E5,3.2061772E6,1.1479324E6,3.047788E5,2.2657334E5,1.3140461E5,8.318153E4,1.1835155E6,4.5771086E4,6.5398044E5,1.7562169E5,5.3949992E4,1.6837184E5,2.1178078E6,1.0883694E6,1.1406624E6,7.2699634E3,2.1394817E5,9.083064E4,1.1062755E4,2.155106E5,1.2095643E5,1.0448186E4,4.1106098E4,4.2075434E4,1.0800852E6,1.0343023E5,6.390604E5,1.4920058E4,1.7367697E5,1.9447148E3,3.2273688E4,2.1676307E4,1.6525934E5,3.1124866E3,6.137714E5,1.5040364E6,4.2579547E5,6.6257394E5,1.1357734E6,4.8890435E3,4.3709332E4,1.7023884E5,1.1191486E4,7.963915E4,5.1649326E3,5.897822E3,4.9747715E4,1.6576288E5,8.612299E4,3.4833434E4,4.6913906E3,5.7567944E3,1.1197143E4,2.9908953E4,7.4060156E3,3.4669418E4,4.3302456E5,6.470607E5,3.9084266E4,6.4345965E4,2.7523872E5,3.6382162E5,1.7101488E5,2.662093E3,2.565874E4,6.614946E3,1.775982E4,3.9164856E3,1.5030588E5,1.495347E4,6.072739E5,6.497493E3,7.3548994E5,7.685464E5,4.169417E5,8.853796E3,8.9488305E4,5.730856E5,8.3365856E5,3.021148E5,3.7121055E4,6.5882773E3,3.451601E4,1.3572283E5,5.3492256E3,5.8422607E3,2.1665256E4,5.7973895E4,3.0154644E3,2.149468E3,3.3634663E3,2.5343557E3,4.564626E3,4.518309E4,9.6083086E4,6.967979E4],"tree_param":{"num_deleted":"0","num_feature":"11","num_nodes":"107","size_leaf_vector":"1"}},{"base_weights":[1.3920468E-3,-9.117752E-1,1.0301247E0,-1.1518986E0,-8.807929E-1,-1.4204195E-2,1.1183306E0,-1.2404596E0,-8.222297E-1,-8.6454123E-1,-1.3660371E0,-8.941872E-1,3.3947864E-1,9.8972774E-1,1.187348E0,-1.2810953E0,-1.1129843E0,-8.5478044E-1,-4.0657544E-1,-7.923008E-1,-9.005087E-1,-6.721855E-2,-1.3880371E0,-1.003644E0,-4.80291E-1,1.5632711E-1,8.243338E-1,7.415495E-1,1.0342127E0,1.2522217E0,1.0130876E0,-1.3247906E0,-1.1865087E0,-7.871855E-1,-1.1778047E0,-6.6961545E-1,-9.145561E-1,4.4852427E-1,-5.341921E-1,-7.1829504E-1,-9.005144E-1,-9.7874796E-1,-8.303406E-1,-1.399403E0,-1.3665518E0,-8.5321283E-1,-1.0778687E0,-6.9065917E-1,2.6211727E-2,4.3369883E-1,-4.733684E-1,8.685507E-1,5.260221E-1,6.3740736E-1,9.9753386E-1,9.88152E-1,1.1302189E0,1.0976893E0,1.2771261E0,9.2398405E-1,1.2095737E0,-4.175585E-2,-6.7914575E-2,-6.545598E-2,-5.4880615E-2,-4.8987865E-2,-2.0581255E-2,-6.1673105E-2,-4.8740294E-2,-5.11465E-3,-3.650786E-2,-6.0973108E-2,-4.4118013E-2,2.3112668E-2,-7.054952E-2,-7.58049E-2,-2.271344E-2,-3.307017E-2,-3.8987875E-2,-5.0034415E-2,-4.3022536E-2,-6.0881067E-2,-4.135817E-2,-4.074354E-2,-4.58295E-2,-7.027321E-2,-6.798867E-2,-6.737581E-2,-6.876933E-2,-6.0276378E-2,-2.2091487E-2,-6.9058426E-2,-5.098431E-2,2.2167051E-2,-4.2248197E-2,1.9248052E-2,-1.0507245E-2,2.5829313E-2,1.351505E-2,-4.401157E-2,-1.9269379E-2,4.045073E-2,5.9417587E-2,2.9127477E-2,1.6141262E-2,4.1736417E-2,2.2500487E-2,3.2788943E-2,5.1836368E-2,5.4545175E-2,4.4155657E-2,5.746336E-2,4.9986288E-2,5.171428E-2,6.189976E-2,6.502221E-2,5.2984655E-2,5.471266E-2,3.7298843E-2,6.1410476E-2,5.223096E-2],"categories":[],"categories_nodes":[],"categories_segments":[],"categories_sizes":[],"default_left":[0,0,0,0,0,0,0,0,0,0,0,0,0,0,0,0,0,0,0,0,0,0,0,0,0,0,0,0,0,0,0,0,0,0,0,0,0,0,0,0,0,0,0,0,0,0,0,0,0,0,0,0,0,0,0,0,0,0,0,0,0,0,0,0,0,0,0,0,0,0,0,0,0,0,0,0,0,0,0,0,0,0,0,0,0,0,0,0,0,0,0,0,0,0,0,0,0,0,0,0,0,0,0,0,0,0,0,0,0,0,0,0,0,0,0,0,0,0,0,0,0],"id":13,"left_children":[1,3,5,7,9,11,13,15,17,19,21,23,25,27,29,31,33,35,37,39,41,-1,43,45,47,49,51,53,55,57,59,61,63,65,67,69,71,73,75,77,79,81,83,85,87,89,91,93,95,97,99,101,103,105,107,109,111,113,115,117,119,-1,-1,-1,-1,-1,-1,-1,-1,-1,-1,-1,-1,-1,-1,-1,-1,-1,-1,-1,-1,-1,-1,-1,-1,-1,-1,-1,-1,-1,-1,-1,-1,-1,-1,-1,-1,-1,-1,-1,-1,-1,-1,-1,-1,-1,-1,-1,-1,-1,-1,-1,-1,-1,-1,-1,-1,-1,-1,-1,-1],"loss_changes":[6.87999E6,2.8863E4,3.17244E5,1.2944E4,2.709875E4,8.3482586E4,2.818625E4,1.809E3,1.2699805E3,8.63875E3,5.1203125E1,3.4833516E3,1.6990398E4,1.2244E4,2.3362E4,1.0937188E3,1.7833125E3,9.631211E2,7.445469E2,8.8505E3,1.218575E4,0E0,1.15703125E1,6.781289E2,1.7139187E3,2.4255814E4,6.914883E2,4.4937266E3,4.157875E3,5.7945E3,9.8145625E3,2.972375E3,9.1139844E2,1.0137783E3,7.949453E2,7.2988477E2,6.450547E2,2.3278534E1,4.6510486E2,2.294625E3,1.800625E3,3.8002625E4,1.56075E3,6.765625E0,1.3671875E0,2.9123672E3,7.1714453E2,1.9890239E3,4.004036E2,1.3055762E3,1.5197998E3,8.688633E2,7.762329E1,4.430953E3,6.523203E2,6.8589375E3,7.5678125E2,1.8581875E3,6.57425E3,1.1690469E4,5.364531E2,0E0,0E0,0E0,0E0,0E0,0E0,0E0,0E0,0E0,0E0,0E0,0E0,0E0,0E0,0E0,0E0,0E0,0E0,0E0,0E0,0E0,0E0,0E0,0E0,0E0,0E0,0E0,0E0,0E0,0E0,0E0,0E0,0E0,0E0,0E0,0E0,0E0,0E0,0E0,0E0,0E0,0E0,0E0,0E0,0E0,0E0,0E0,0E0,0E0,0E0,0E0,0E0,0E0,0E0,0E0,0E0,0E0,0E0,0E0,0E0],"parents":[2147483647,0,0,1,1,2,2,3,3,4,4,5,5,6,6,7,7,8,8,9,9,10,10,11,11,12,12,13,13,14,14,15,15,16,16,17,17,18,18,19,19,20,20,22,22,23,23,24,24,25,25,26,26,27,27,28,28,29,29,30,30,31,31,32,32,33,33,34,34,35,35,36,36,37,37,38,38,39,39,40,40,41,41,42,42,43,43,44,44,45,45,46,46,47,47,48,48,49,49,50,50,51,51,52,52,53,53,54,54,55,55,56,56,57,57,58,58,59,59,60,60],"right_children":[2,4,6,8,10,12,14,16,18,20,22,24,26,28,30,32,34,36,38,40,42,-1,44,46,48,50,52,54,56,58,60,62,64,66,68,70,72,74,76,78,80,82,84,86,88,90,92,94,96,98,100,102,104,106,108,110,112,114,116,118,120,-1,-1,-1,-1,-1,-1,-1,-1,-1,-1,-1,-1,-1,-1,-1,-1,-1,-1,-1,-1,-1,-1,-1,-1,-1,-1,-1,-1,-1,-1,-1,-1,-1,-1,-1,-1,-1,-1,-1,-1,-1,-1,-1,-1,-1,-1,-1,-1,-1,-1,-1,-1,-1,-1,-1,-1,-1,-1,-1,-1],"split_conditions":[1E0,1E0,2E0,1E0,1E0,1E0,4E0,4E0,8E0,2E0,3E0,5E0,5E0,3E0,6E0,1E0,1E0,2E0,1E0,1E0,1E0,-6.721855E-2,6E0,7E0,1.8E1,4E0,2E1,5E0,5E0,5E0,5E0,3E0,1E0,4E0,3E0,1E0,1E0,9E0,3E0,1E0,1E0,1E0,5E0,5E0,3E0,4E0,1E0,1E0,2E1,3E0,5E0,1.8E1,2.3E1,3E0,4E0,3E0,2E1,5E0,2E1,3E0,2E1,-4.175585E-2,-6.7914575E-2,-6.545598E-2,-5.4880615E-2,-4.8987865E-2,-2.0581255E-2,-6.1673105E-2,-4.8740294E-2,-5.11465E-3,-3.650786E-2,-6.0973108E-2,-4.4118013E-2,2.3112668E-2,-7.054952E-2,-7.58049E-2,-2.271344E-2,-3.307017E-2,-3.8987875E-2,-5.0034415E-2,-4.3022536E-2,-6.0881067E-2,-4.135817E-2,-4.074354E-2,-4.58295E-2,-7.027321E-2,-6.798867E-2,-6.737581E-2,-6.876933E-2,-6.0276378E-2,-2.2091487E-2,-6.9058426E-2,-5.098431E-2,2.2167051E-2,-4.2248197E-2,1.9248052E-2,-1.0507245E-2,2.5829313E-2,1.351505E-2,-4.401157E-2,-1.9269379E-2,4.045073E-2,5.9417587E-2,2.9127477E-2,1.6141262E-2,4.1736417E-2,2.2500487E-2,3.2788943E-2,5.1836368E-2,5.4545175E-2,4.4155657E-2,5.746336E-2,4.9986288E-2,5.171428E-2,6.189976E-2,6.502221E-2,5.2984655E-2,5.471266E-2,3.7298843E-2,6.1410476E-2,5.223096E-2],"split_indices":[1,6,10,2,4,10,10,7,10,10,10,7,7,10,10,3,3,7,7,2,2,0,10,6,6,7,6,7,7,6,7,7,10,10,10,10,10,10,7,10,10,3,7,7,7,6,7,6,6,7,6,6,6,7,6,7,6,7,6,7,6,0,0,0,0,0,0,0,0,0,0,0,0,0,0,0,0,0,0,0,0,0,0,0,0,0,0,0,0,0,0,0,0,0,0,0,0,0,0,0,0,0,0,0,0,0,0,0,0,0,0,0,0,0,0,0,0,0,0,0,0],"split_type":[0,0,0,0,0,0,0,0,0,0,0,0,0,0,0,0,0,0,0,0,0,0,0,0,0,0,0,0,0,0,0,0,0,0,0,0,0,0,0,0,0,0,0,0,0,0,0,0,0,0,0,0,0,0,0,0,0,0,0,0,0,0,0,0,0,0,0,0,0,0,0,0,0,0,0,0,0,0,0,0,0,0,0,0,0,0,0,0,0,0,0,0,0,0,0,0,0,0,0,0,0,0,0,0,0,0,0,0,0,0,0,0,0,0,0,0,0,0,0,0,0],"sum_hessian":[7.323773E6,3.879811E6,3.443962E6,4.4338456E5,3.4364265E6,2.6822816E5,3.1757338E6,3.4949484E5,9.388971E4,3.3250668E6,1.11359586E5,7.689858E4,1.9132958E5,1.1091066E6,2.0666271E6,2.6500847E5,8.44864E4,8.707002E4,6.819687E3,1.1052336E6,2.2198332E6,5.613679E4,5.5222797E4,6.0814484E4,1.6084097E4,1.3887253E5,5.2457055E4,1.6858767E5,9.4051894E5,1.5059752E6,5.606518E5,1.8126008E5,8.374837E4,1.4022087E4,7.046431E4,2.125166E4,6.581836E4,8.852857E2,5.9344014E3,6.563634E5,4.4887025E5,1.0495472E6,1.170286E6,3.6074793E4,1.9148006E4,2.0096805E4,4.071768E4,1.1363907E4,4.720189E3,9.640697E4,4.2465555E4,4.568372E4,6.773335E3,1.1983762E5,4.875006E4,6.355928E5,3.049262E5,2.0902284E5,1.2969524E6,3.8573328E5,1.7491853E5,1.1608439E4,1.6965164E5,3.519362E4,4.8554746E4,9.268153E3,4.7539336E3,5.5297883E4,1.5166426E4,2.0494495E3,1.920221E4,6.282639E3,5.9535723E4,8.7954333E2,5.7423725E0,4.453267E2,5.4890747E3,3.4086216E5,3.1550122E5,1.282285E5,3.2064175E5,4.0745522E5,6.42092E5,9.9231294E5,1.7797308E5,3.1259312E4,4.8154805E3,6.1184946E3,1.3029511E4,1.0824561E4,9.272245E3,6.5500674E3,3.416761E4,1.3608704E3,1.0003037E4,1.8744552E3,2.8457341E3,6.3959734E4,3.2447238E4,7.548569E3,3.4916984E4,3.851673E4,7.16699E3,5.297698E3,1.4756364E3,5.83716E4,6.1466016E4,5.0174175E3,4.373264E4,3.212899E5,3.1430288E5,2.6607844E5,3.884775E4,1.4397117E5,6.505167E4,1.1713305E6,1.2562188E5,1.9714917E5,1.8858412E5,1.5715717E5,1.776136E4],"tree_param":{"num_deleted":"0","num_feature":"11","num_nodes":"121","size_leaf_vector":"1"}},{"base_weights":[3.8312803E-4,-8.918457E-1,9.980332E-1,-1.1102992E0,-8.637571E-1,1.0463637E0,-1.6631504E0,-1.2085149E0,-7.531002E-1,-8.757652E-1,-4.685862E-1,-3.7686983E-1,1.1054989E0,-1.4791324E0,-1.7525592E0,-1.2584358E0,-1.1454531E0,-7.742236E-1,1.0830454E-1,-9.1758204E-1,-7.751015E-1,-9.336592E-1,-1.9472623E-1,-1.0198486E0,7.99905E-2,8.3679837E-1,1.1657343E0,-1.3662325E0,-1.5418004E0,-1.6901891E0,-1.7901105E0,-1.2756842E0,-9.567005E-1,-1.197897E0,-9.5740396E-1,-7.506217E-1,-1.4395128E0,-1.1437512E-1,1.659893E0,-1.109558E0,-8.3048135E-1,-4.7830102E-1,-7.9494685E-1,-8.206373E-1,-1.2489924E0,1.1564608E-1,-7.8111565E-1,-1.1356295E0,-6.35184E-1,-1.377778E-1,6.8346757E-1,7.468743E-1,1.0432143E0,1.2339574E0,9.843323E-1,-6.7727916E-2,-7.0500314E-2,-1.5164323E0,-8.27837E-2,-8.3377324E-2,-8.596856E-2,-1.8490465E0,-1.7313951E0,-6.1342567E-2,-6.546513E-2,-6.757696E-2,-3.2730784E-2,-6.2784165E-2,-5.689771E-2,2.5628053E-3,-4.990157E-2,-3.8247004E-2,3.8344182E-2,-7.156329E-2,-7.7237174E-2,-1.607923E-2,1.2532718E-3,1.0712793E-1,-7.683005E-2,-4.7813013E-2,-5.9528895E-2,-4.3239083E-2,-3.7242617E-2,-7.092928E-2,-2.2174587E-2,-7.122889E-2,-3.950974E-2,-4.7428228E-2,-1.6010828E-2,-4.684971E-2,-7.17652E-2,-5.3255907E-3,3.8322587E-2,-3.0932173E-2,-5.5602748E-2,-5.2244086E-2,-6.16976E-2,-4.3526527E-2,1.24833705E-2,-2.8192759E-2,2.3982797E-3,8.8495485E-2,2.971673E-2,2.5248853E-2,4.2641457E-2,4.648478E-2,5.418088E-2,5.5060107E-2,6.4890616E-2,4.5164127E-2,5.812496E-2,-7.289195E-2,-7.629582E-2,-9.327712E-2,-8.785417E-2,-8.12408E-2,-8.6963184E-2],"categories":[],"categories_nodes":[],"categories_segments":[],"categories_sizes":[],"default_left":[0,0,0,0,0,0,0,0,0,0,0,0,0,0,0,0,0,0,0,0,0,0,0,0,0,0,0,0,0,0,0,0,0,0,0,0,0,0,0,0,0,0,0,0,0,0,0,0,0,0,0,0,0,0,0,0,0,0,0,0,0,0,0,0,0,0,0,0,0,0,0,0,0,0,0,0,0,0,0,0,0,0,0,0,0,0,0,0,0,0,0,0,0,0,0,0,0,0,0,0,0,0,0,0,0,0,0,0,0,0,0,0,0,0,0,0,0],"id":14,"left_children":[1,3,5,7,9,11,13,15,17,19,21,23,25,27,29,31,33,35,37,39,41,43,45,47,49,51,53,55,57,59,61,63,65,67,69,71,73,75,77,79,81,83,85,87,89,91,93,95,97,99,101,103,105,107,109,-1,-1,111,-1,-1,-1,113,115,-1,-1,-1,-1,-1,-1,-1,-1,-1,-1,-1,-1,-1,-1,-1,-1,-1,-1,-1,-1,-1,-1,-1,-1,-1,-1,-1,-1,-1,-1,-1,-1,-1,-1,-1,-1,-1,-1,-1,-1,-1,-1,-1,-1,-1,-1,-1,-1,-1,-1,-1,-1,-1,-1],"loss_changes":[6.41705E6,2.335075E4,4.377445E5,1.52098125E4,1.6001E4,2.8133875E5,9.9625E2,1.0691562E3,1.7015312E3,1.377525E4,1.2665889E4,3.9172367E4,5.194425E4,1.3838672E2,9.266406E1,9.8659375E2,1.4807812E3,1.4320469E3,7.7377814E2,3.8660375E4,5.6570625E3,1.3125215E3,1.1391728E4,2.4663047E3,1.0245448E4,1.0908281E4,3.244475E4,1.7167969E0,3.4359375E1,7.2890625E0,8.4984375E1,2.93125E2,1.22371E3,4.0557812E2,1.343084E3,1.9158164E3,5.0146484E-1,5.6608032E1,4.3693677E2,8.9615E3,4.67075E3,1.969748E3,2.692625E3,1.7367891E3,5.638213E2,5.9177197E3,1.1641162E3,3.7859766E2,2.6694668E3,4.5338813E3,2.0008457E3,1.04920625E4,8.169844E2,1.6149E4,1.03458125E4,0E0,0E0,3.5820312E0,0E0,0E0,0E0,1.59921875E1,7.890625E0,0E0,0E0,0E0,0E0,0E0,0E0,0E0,0E0,0E0,0E0,0E0,0E0,0E0,0E0,0E0,0E0,0E0,0E0,0E0,0E0,0E0,0E0,0E0,0E0,0E0,0E0,0E0,0E0,0E0,0E0,0E0,0E0,0E0,0E0,0E0,0E0,0E0,0E0,0E0,0E0,0E0,0E0,0E0,0E0,0E0,0E0,0E0,0E0,0E0,0E0,0E0,0E0,0E0,0E0],"parents":[2147483647,0,0,1,1,2,2,3,3,4,4,5,5,6,6,7,7,8,8,9,9,10,10,11,11,12,12,13,13,14,14,15,15,16,16,17,17,18,18,19,19,20,20,21,21,22,22,23,23,24,24,25,25,26,26,27,27,28,28,29,29,30,30,31,31,32,32,33,33,34,34,35,35,36,36,37,37,38,38,39,39,40,40,41,41,42,42,43,43,44,44,45,45,46,46,47,47,48,48,49,49,50,50,51,51,52,52,53,53,54,54,57,57,61,61,62,62],"right_children":[2,4,6,8,10,12,14,16,18,20,22,24,26,28,30,32,34,36,38,40,42,44,46,48,50,52,54,56,58,60,62,64,66,68,70,72,74,76,78,80,82,84,86,88,90,92,94,96,98,100,102,104,106,108,110,-1,-1,112,-1,-1,-1,114,116,-1,-1,-1,-1,-1,-1,-1,-1,-1,-1,-1,-1,-1,-1,-1,-1,-1,-1,-1,-1,-1,-1,-1,-1,-1,-1,-1,-1,-1,-1,-1,-1,-1,-1,-1,-1,-1,-1,-1,-1,-1,-1,-1,-1,-1,-1,-1,-1,-1,-1,-1,-1,-1,-1],"split_conditions":[1E0,1E0,1E0,1E0,1E0,5.3904405E0,6.4103065E0,1E0,1.6621119E1,1E0,5.447398E-2,4.3564525E0,7.710241E0,4.6246786E0,8.180973E0,1E0,7.595714E0,1.4133307E1,1E0,1E0,3.8979242E0,1.7E1,3.5767445E-1,3.9630964E0,1E0,1E0,9.90274E0,1E0,1E0,7.424696E0,9.90274E0,6.6917114E0,1.9802628E-2,4.2554708E0,7.681897E0,1.3923082E1,1E0,1.7676723E1,1.7676723E1,6.0947657E0,9.351046E0,2E0,4.027492E0,1.4E1,6.814727E-3,1E0,1.5195132E0,2.8836827E0,2E1,4.8202815E0,4.404766E0,6.5373144E0,8E0,8.533649E0,1E0,-6.7727916E-2,-7.0500314E-2,4.9264565E0,-8.27837E-2,-8.3377324E-2,-8.596856E-2,1E0,1E0,-6.1342567E-2,-6.546513E-2,-6.757696E-2,-3.2730784E-2,-6.2784165E-2,-5.689771E-2,2.5628053E-3,-4.990157E-2,-3.8247004E-2,3.8344182E-2,-7.156329E-2,-7.7237174E-2,-1.607923E-2,1.2532718E-3,1.0712793E-1,-7.683005E-2,-4.7813013E-2,-5.9528895E-2,-4.3239083E-2,-3.7242617E-2,-7.092928E-2,-2.2174587E-2,-7.122889E-2,-3.950974E-2,-4.7428228E-2,-1.6010828E-2,-4.684971E-2,-7.17652E-2,-5.3255907E-3,3.8322587E-2,-3.0932173E-2,-5.5602748E-2,-5.2244086E-2,-6.16976E-2,-4.3526527E-2,1.24833705E-2,-2.8192759E-2,2.3982797E-3,8.8495485E-2,2.971673E-2,2.5248853E-2,4.2641457E-2,4.648478E-2,5.418088E-2,5.5060107E-2,6.4890616E-2,4.5164127E-2,5.812496E-2,-7.289195E-2,-7.629582E-2,-9.327712E-2,-8.785417E-2,-8.12408E-2,-8.6963184E-2],"split_indices":[1,6,9,2,5,0,0,3,0,3,0,0,0,0,0,5,0,0,8,2,0,6,0,0,8,8,0,8,8,0,0,0,0,0,0,0,8,0,0,0,0,6,0,6,0,8,0,0,6,0,0,0,6,0,8,0,0,0,0,0,0,8,6,0,0,0,0,0,0,0,0,0,0,0,0,0,0,0,0,0,0,0,0,0,0,0,0,0,0,0,0,0,0,0,0,0,0,0,0,0,0,0,0,0,0,0,0,0,0,0,0,0,0,0,0,0,0],